{"learner":{"attributes":{"scikit_learn":"{\"_estimator_type\": \"regressor\"}"},"feature_names":[],"feature_types":[],"gradient_booster":{"model":{"gbtree_model_param":{"num_parallel_tree":"1","num_trees":"500"},"iteration_indptr":[0,1,2,3,4,5,6,7,8,9,10,11,12,13,14,15,16,17,18,19,20,21,22,23,24,25,26,27,28,29,30,31,32,33,34,35,36,37,38,39,40,41,42,43,44,45,46,47,48,49,50,51,52,53,54,55,56,57,58,59,60,61,62,63,64,65,66,67,68,69,70,71,72,73,74,75,76,77,78,79,80,81,82,83,84,85,86,87,88,89,90,91,92,93,94,95,96,97,98,99,100,101,102,103,104,105,106,107,108,109,110,111,112,113,114,115,116,117,118,119,120,121,122,123,124,125,126,127,128,129,130,131,132,133,134,135,136,137,138,139,140,141,142,143,144,145,146,147,148,149,150,151,152,153,154,155,156,157,158,159,160,161,162,163,164,165,166,167,168,169,170,171,172,173,174,175,176,177,178,179,180,181,182,183,184,185,186,187,188,189,190,191,192,193,194,195,196,197,198,199,200,201,202,203,204,205,206,207,208,209,210,211,212,213,214,215,216,217,218,219,220,221,222,223,224,225,226,227,228,229,230,231,232,233,234,235,236,237,238,239,240,241,242,243,244,245,246,247,248,249,250,251,252,253,254,255,256,257,258,259,260,261,262,263,264,265,266,267,268,269,270,271,272,273,274,275,276,277,278,279,280,281,282,283,284,285,286,287,288,289,290,291,292,293,294,295,296,297,298,299,300,301,302,303,304,305,306,307,308,309,310,311,312,313,314,315,316,317,318,319,320,321,322,323,324,325,326,327,328,329,330,331,332,333,334,335,336,337,338,339,340,341,342,343,344,345,346,347,348,349,350,351,352,353,354,355,356,357,358,359,360,361,362,363,364,365,366,367,368,369,370,371,372,373,374,375,376,377,378,379,380,381,382,383,384,385,386,387,388,389,390,391,392,393,394,395,396,397,398,399,400,401,402,403,404,405,406,407,408,409,410,411,412,413,414,415,416,417,418,419,420,421,422,423,424,425,426,427,428,429,430,431,432,433,434,435,436,437,438,439,440,441,442,443,444,445,446,447,448,449,450,451,452,453,454,455,456,457,458,459,460,461,462,463,464,465,466,467,468,469,470,471,472,473,474,475,476,477,478,479,480,481,482,483,484,485,486,487,488,489,490,491,492,493,494,495,496,497,498,499,500],"tree_info":[0,0,0,0,0,0,0,0,0,0,0,0,0,0,0,0,0,0,0,0,0,0,0,0,0,0,0,0,0,0,0,0,0,0,0,0,0,0,0,0,0,0,0,0,0,0,0,0,0,0,0,0,0,0,0,0,0,0,0,0,0,0,0,0,0,0,0,0,0,0,0,0,0,0,0,0,0,0,0,0,0,0,0,0,0,0,0,0,0,0,0,0,0,0,0,0,0,0,0,0,0,0,0,0,0,0,0,0,0,0,0,0,0,0,0,0,0,0,0,0,0,0,0,0,0,0,0,0,0,0,0,0,0,0,0,0,0,0,0,0,0,0,0,0,0,0,0,0,0,0,0,0,0,0,0,0,0,0,0,0,0,0,0,0,0,0,0,0,0,0,0,0,0,0,0,0,0,0,0,0,0,0,0,0,0,0,0,0,0,0,0,0,0,0,0,0,0,0,0,0,0,0,0,0,0,0,0,0,0,0,0,0,0,0,0,0,0,0,0,0,0,0,0,0,0,0,0,0,0,0,0,0,0,0,0,0,0,0,0,0,0,0,0,0,0,0,0,0,0,0,0,0,0,0,0,0,0,0,0,0,0,0,0,0,0,0,0,0,0,0,0,0,0,0,0,0,0,0,0,0,0,0,0,0,0,0,0,0,0,0,0,0,0,0,0,0,0,0,0,0,0,0,0,0,0,0,0,0,0,0,0,0,0,0,0,0,0,0,0,0,0,0,0,0,0,0,0,0,0,0,0,0,0,0,0,0,0,0,0,0,0,0,0,0,0,0,0,0,0,0,0,0,0,0,0,0,0,0,0,0,0,0,0,0,0,0,0,0,0,0,0,0,0,0,0,0,0,0,0,0,0,0,0,0,0,0,0,0,0,0,0,0,0,0,0,0,0,0,0,0,0,0,0,0,0,0,0,0,0,0,0,0,0,0,0,0,0,0,0,0,0,0,0,0,0,0,0,0,0,0,0,0,0,0,0,0,0,0,0,0,0,0,0,0,0,0,0,0,0,0,0,0,0,0,0,0,0,0,0,0,0,0,0,0,0,0,0,0,0,0,0,0,0,0,0,0,0,0,0,0,0,0,0,0,0,0,0,0,0,0,0,0,0,0,0,0,0,0,0,0],"trees":[{"base_weights":[-6.960291E-2,-4.8395E0,4.521961E0,-9.262996E0,-3.330438E0,2.7586167E0,9.73978E0,-1.2732654E1,-7.722262E0,-5.206339E0,-1.8931541E0,6.634433E-1,4.375187E0,8.038737E0,1.179569E1,-1.5919875E1,-9.9439535E0,-8.119297E0,2.5185416E0,-7.724681E0,-4.000433E0,-2.3598437E0,1.0677071E0,2.8527E0,-3.117271E-1,2.8987737E0,6.4670753E0,1.0539347E1,5.1072974E0,1.0526161E1,1.5950235E1,-6.99608E-1,-1.0704921E0,-4.413131E-1,-9.526696E-1,-3.5374337E-1,-5.229867E-1,2.6561996E-1,-2.9085732E-1,-3.6503786E-1,-1.1158034E0,-3.903687E-2,-2.3259091E-1,-5.7766956E-1,-1.12357214E-1,-1.0459333E-1,2.6868045E-1,1.6185783E-1,-4.4002613E-1,-1.3677575E-1,4.686106E-2,-4.9706766E-1,1.6469674E-1,4.327345E-1,2.3084238E-1,5.038479E-1,1.1633499E0,5.3219694E-1,1.9136122E-1,4.672064E-1,7.4439794E-1,1.1199033E0,6.255311E-1],"categories":[],"categories_nodes":[],"categories_segments":[],"categories_sizes":[],"default_left":[0,0,0,0,0,0,0,0,0,0,0,0,0,0,0,0,0,0,0,0,0,0,0,0,0,0,0,0,0,0,0,0,0,0,0,0,0,0,0,0,0,0,0,0,0,0,0,0,0,0,0,0,0,0,0,0,0,0,0,0,0,0,0],"id":0,"left_children":[1,3,5,7,9,11,13,15,17,19,21,23,25,27,29,31,33,35,37,39,41,43,45,47,49,51,53,55,57,59,61,-1,-1,-1,-1,-1,-1,-1,-1,-1,-1,-1,-1,-1,-1,-1,-1,-1,-1,-1,-1,-1,-1,-1,-1,-1,-1,-1,-1,-1,-1,-1,-1],"loss_changes":[1.4369434E5,2.1450367E4,3.0731453E4,4.2745625E3,6.4637246E3,8.464582E3,2.8568047E3,2.0637422E3,2.3339805E3,3.1304941E3,1.8831538E3,2.3279285E3,4.339117E3,3.3548008E3,1.8363438E3,9.174844E2,1.2165195E3,1.2655391E3,5.43255E2,1.9154512E3,1.4770352E3,1.192501E3,2.5417363E3,1.5338208E3,2.2880889E3,4.2390205E3,2.3197852E3,1.2368203E3,1.4901211E3,1.3766855E3,1.6492754E3,0E0,0E0,0E0,0E0,0E0,0E0,0E0,0E0,0E0,0E0,0E0,0E0,0E0,0E0,0E0,0E0,0E0,0E0,0E0,0E0,0E0,0E0,0E0,0E0,0E0,0E0,0E0,0E0,0E0,0E0,0E0,0E0],"parents":[2147483647,0,0,1,1,2,2,3,3,4,4,5,5,6,6,7,7,8,8,9,9,10,10,11,11,12,12,13,13,14,14,15,15,16,16,17,17,18,18,19,19,20,20,21,21,22,22,23,23,24,24,25,25,26,26,27,27,28,28,29,29,30,30],"right_children":[2,4,6,8,10,12,14,16,18,20,22,24,26,28,30,32,34,36,38,40,42,44,46,48,50,52,54,56,58,60,62,-1,-1,-1,-1,-1,-1,-1,-1,-1,-1,-1,-1,-1,-1,-1,-1,-1,-1,-1,-1,-1,-1,-1,-1,-1,-1,-1,-1,-1,-1,-1,-1],"split_conditions":[-1.8126571E0,-1.7097267E2,1.6583012E2,-2.602119E2,-5.331335E0,5.4702175E1,2.3037122E2,-1.509171E1,6.1E0,2.216E2,6.44E-2,2.162168E2,6.324259E0,1.5854514E-1,1E0,-6E-1,-1.1253197E-2,7.9E0,5.1E0,2.383E2,2.192E2,2.0268507E2,8E-1,2.364891E-1,-1.1930615E0,2.094E2,2.237E2,6.3E0,2.164E2,7.1E-2,-2.6E0,-6.99608E-1,-1.0704921E0,-4.413131E-1,-9.526696E-1,-3.5374337E-1,-5.229867E-1,2.6561996E-1,-2.9085732E-1,-3.6503786E-1,-1.1158034E0,-3.903687E-2,-2.3259091E-1,-5.7766956E-1,-1.12357214E-1,-1.0459333E-1,2.6868045E-1,1.6185783E-1,-4.4002613E-1,-1.3677575E-1,4.686106E-2,-4.9706766E-1,1.6469674E-1,4.327345E-1,2.3084238E-1,5.038479E-1,1.1633499E0,5.3219694E-1,1.9136122E-1,4.672064E-1,7.4439794E-1,1.1199033E0,6.255311E-1],"split_indices":[14,14,14,14,2,14,14,2,9,11,5,13,2,17,19,7,17,10,7,12,12,13,7,17,2,11,12,10,12,5,8,0,0,0,0,0,0,0,0,0,0,0,0,0,0,0,0,0,0,0,0,0,0,0,0,0,0,0,0,0,0,0,0],"split_type":[0,0,0,0,0,0,0,0,0,0,0,0,0,0,0,0,0,0,0,0,0,0,0,0,0,0,0,0,0,0,0,0,0,0,0,0,0,0,0,0,0,0,0,0,0,0,0,0,0,0,0,0,0,0,0,0,0,0,0,0,0,0,0],"sum_hessian":[6.559E3,3.217E3,3.342E3,8.17E2,2.4E3,2.499E3,8.43E2,2.49E2,5.68E2,1.04E3,1.36E3,1.089E3,1.41E3,4.64E2,3.79E2,1.14E2,1.35E2,5.47E2,2.1E1,3.35E2,7.05E2,1.175E3,1.85E2,3.35E2,7.54E2,8.28E2,5.82E2,2.49E2,2.15E2,2.93E2,8.6E1,8.7E1,2.7E1,1.22E2,1.3E1,3.81E2,1.66E2,1.6E1,5E0,3.27E2,8E0,1.19E2,5.86E2,1.3E1,1.162E3,1.07E2,7.8E1,3.25E2,1E1,2.56E2,4.98E2,2.4E1,8.04E2,2.65E2,3.17E2,2.42E2,7E0,3.9E1,1.76E2,2.33E2,6E1,2.8E1,5.8E1],"tree_param":{"num_deleted":"0","num_feature":"20","num_nodes":"63","size_leaf_vector":"1"}},{"base_weights":[-1.6705704E-1,-3.325115E0,5.860396E0,-7.279166E0,-1.28204E0,4.0468183E0,8.918972E0,-8.633587E0,-3.060675E0,-2.305002E0,5.922987E-1,2.4921136E0,5.1970286E0,8.103493E0,1.3044016E1,-1.1953795E1,-7.703776E0,-4.8203287E0,2.4530275E0,-3.1448693E0,-8.243056E-1,8.999894E-1,-6.907086E0,3.0555658E0,-6.5766945E0,7.3671923E0,3.7529066E0,9.734733E0,6.2323785E0,1.5085493E1,6.605225E0,-5.7580894E-1,-1.2531279E0,-4.975875E-1,-2.970384E-1,-2.8409117E-1,3.3976424E-2,6.105119E-1,2.994873E-2,-2.241756E-1,-1.1258916E-1,-3.3761606E-1,-2.2917416E-2,7.428217E-2,-1.2831604E-1,-6.064591E-1,-1.9717573E-1,5.9122026E-1,1.3009736E-1,3.141891E-1,-4.190311E-1,2.0408216E-1,4.541506E-1,1.4937495E-1,3.4515065E-1,2.4950297E-1,5.222479E-1,3.3354285E-1,-3.0264112E-1,6.0754734E-1,1.0261787E0,-8.66436E-2,4.0263352E-1],"categories":[],"categories_nodes":[],"categories_segments":[],"categories_sizes":[],"default_left":[0,0,0,0,0,0,0,0,0,0,0,0,0,0,0,0,0,0,0,0,0,0,0,0,0,0,0,0,0,0,0,0,0,0,0,0,0,0,0,0,0,0,0,0,0,0,0,0,0,0,0,0,0,0,0,0,0,0,0,0,0,0,0],"id":1,"left_children":[1,3,5,7,9,11,13,15,17,19,21,23,25,27,29,31,33,35,37,39,41,43,45,47,49,51,53,55,57,59,61,-1,-1,-1,-1,-1,-1,-1,-1,-1,-1,-1,-1,-1,-1,-1,-1,-1,-1,-1,-1,-1,-1,-1,-1,-1,-1,-1,-1,-1,-1,-1,-1],"loss_changes":[1.2595534E5,3.5067184E4,1.2583258E4,8.424E3,5.492735E3,2.5442285E3,2.7401484E3,3.3624531E3,3.514321E3,2.3017764E3,2.3413975E3,3.1370977E3,2.5453516E3,2.1033672E3,1.7143184E3,1.1053711E3,3.4166055E3,1.3020996E3,1.58464E3,1.4030127E3,1.4547421E3,1.9790596E3,5.7121045E2,2.2564165E3,8.8783936E2,1.8063574E3,1.1728789E3,1.2182852E3,1.8341807E3,1.4102832E3,4.3636707E2,0E0,0E0,0E0,0E0,0E0,0E0,0E0,0E0,0E0,0E0,0E0,0E0,0E0,0E0,0E0,0E0,0E0,0E0,0E0,0E0,0E0,0E0,0E0,0E0,0E0,0E0,0E0,0E0,0E0,0E0,0E0,0E0],"parents":[2147483647,0,0,1,1,2,2,3,3,4,4,5,5,6,6,7,7,8,8,9,9,10,10,11,11,12,12,13,13,14,14,15,15,16,16,17,17,18,18,19,19,20,20,21,21,22,22,23,23,24,24,25,25,26,26,27,27,28,28,29,29,30,30],"right_children":[2,4,6,8,10,12,14,16,18,20,22,24,26,28,30,32,34,36,38,40,42,44,46,48,50,52,54,56,58,60,62,-1,-1,-1,-1,-1,-1,-1,-1,-1,-1,-1,-1,-1,-1,-1,-1,-1,-1,-1,-1,-1,-1,-1,-1,-1,-1,-1,-1,-1,-1,-1,-1],"split_conditions":[5.3328056E1,-1.08957275E2,1.6583012E2,-5.036266E0,1.0858948E0,3.859262E0,2.97545E2,-2.602119E2,1E0,-1.5018134E1,5.4694467E0,6E0,2.221E2,1.6329917E-1,4.89E-2,5E0,2.1891373E2,2.5017996E0,-1.3E0,-3.9E0,-5.7622867E0,1E0,-9.409938E-2,-3.7333333E0,-9.7E0,8.968773E1,1E0,-3.758313E-2,2.8E0,1.7102549E1,-4.26E-2,-5.7580894E-1,-1.2531279E0,-4.975875E-1,-2.970384E-1,-2.8409117E-1,3.3976424E-2,6.105119E-1,2.994873E-2,-2.241756E-1,-1.1258916E-1,-3.3761606E-1,-2.2917416E-2,7.428217E-2,-1.2831604E-1,-6.064591E-1,-1.9717573E-1,5.9122026E-1,1.3009736E-1,3.141891E-1,-4.190311E-1,2.0408216E-1,4.541506E-1,1.4937495E-1,3.4515065E-1,2.4950297E-1,5.222479E-1,3.3354285E-1,-3.0264112E-1,6.0754734E-1,1.0261787E0,-8.66436E-2,4.0263352E-1],"split_indices":[14,14,14,2,2,2,14,14,15,14,1,16,12,17,3,8,13,2,8,9,1,18,17,8,9,14,19,17,8,2,5,0,0,0,0,0,0,0,0,0,0,0,0,0,0,0,0,0,0,0,0,0,0,0,0,0,0,0,0,0,0,0,0],"split_type":[0,0,0,0,0,0,0,0,0,0,0,0,0,0,0,0,0,0,0,0,0,0,0,0,0,0,0,0,0,0,0,0,0,0,0,0,0,0,0,0,0,0,0,0,0,0,0,0,0,0,0,0,0,0,0,0,0,0,0,0,0,0,0],"sum_hessian":[6.615E3,4.341E3,2.274E3,1.478E3,2.863E3,1.429E3,8.45E2,1.118E3,3.6E2,1.852E3,1.011E3,6.09E2,8.2E2,7.08E2,1.37E2,2.42E2,8.76E2,2.73E2,8.7E1,1.181E3,6.71E2,9.72E2,3.9E1,5.74E2,3.5E1,3.26E2,4.94E2,3.76E2,3.32E2,1.03E2,3.4E1,2.36E2,6E0,3.83E2,4.93E2,2.36E2,3.7E1,1.3E1,7.4E1,4.71E2,7.1E2,3.8E1,6.33E2,8.32E2,1.4E2,1.3E1,2.6E1,2.7E1,5.47E2,4E0,3.1E1,1.13E2,2.13E2,3.99E2,9.5E1,5E1,3.26E2,3.21E2,1.1E1,6.9E1,3.4E1,5E0,2.9E1],"tree_param":{"num_deleted":"0","num_feature":"20","num_nodes":"63","size_leaf_vector":"1"}},{"base_weights":[8.874165E-2,-4.0194826E0,4.3888516E0,-7.491576E0,-2.210166E0,2.878184E0,8.841129E0,-1.1176547E1,-6.4619374E0,-3.8573554E0,-1.3255545E0,1.0809642E0,3.9700055E0,7.052023E0,1.0811742E1,-1.3179971E1,-8.330577E0,-6.860979E0,-6.8450555E-2,-6.8277507E0,-2.3962035E0,-2.0102024E0,5.228828E-1,2.1615818E0,-1.4013252E0,2.8375483E0,5.3894224E0,8.9698305E0,4.831974E0,1.0936629E1,-9.2862856E-1,-7.9354095E-1,-4.905232E-1,-3.5467836E-1,-1.0437307E0,-3.0262014E-1,-4.3197918E-1,5.6731457E-1,-1.15014076E-1,-1.5058593E-1,-4.4339213E-1,-1.4929344E-1,1.2661918E-1,-1.2710415E-1,7.784062E-2,1.7168908E-1,-8.0232225E-2,1.5862143E-1,1.1135544E-2,1.4848088E-1,-1.4222822E-1,-2.7408567E-1,1.5940039E-1,3.4507397E-1,1.9707823E-1,4.7103754E-1,-1.5497023E-1,1.700565E-1,5.1664007E-1,4.991952E-1,7.3331535E-1],"categories":[],"categories_nodes":[],"categories_segments":[],"categories_sizes":[],"default_left":[0,0,0,0,0,0,0,0,0,0,0,0,0,0,0,0,0,0,0,0,0,0,0,0,0,0,0,0,0,0,0,0,0,0,0,0,0,0,0,0,0,0,0,0,0,0,0,0,0,0,0,0,0,0,0,0,0,0,0,0,0],"id":2,"left_children":[1,3,5,7,9,11,13,15,17,19,21,23,25,27,29,31,33,35,37,39,41,43,45,47,49,51,53,55,57,59,-1,-1,-1,-1,-1,-1,-1,-1,-1,-1,-1,-1,-1,-1,-1,-1,-1,-1,-1,-1,-1,-1,-1,-1,-1,-1,-1,-1,-1,-1,-1],"loss_changes":[1.1609972E5,2.1097633E4,2.157145E4,4.2948945E3,3.216585E3,4.703131E3,2.7901016E3,1.315623E3,2.3007734E3,3.3342734E3,1.8234126E3,2.4386533E3,2.3829922E3,1.7831816E3,1.6159688E3,1.1589902E3,1.4967368E3,1.1686914E3,1.4017915E3,1.9506973E3,1.5158872E3,1.9979419E3,2.4207866E3,1.2399111E3,1.7495422E3,2.443226E3,1.4198867E3,1.2754766E3,1.5468926E3,1.2180625E3,0E0,0E0,0E0,0E0,0E0,0E0,0E0,0E0,0E0,0E0,0E0,0E0,0E0,0E0,0E0,0E0,0E0,0E0,0E0,0E0,0E0,0E0,0E0,0E0,0E0,0E0,0E0,0E0,0E0,0E0,0E0],"parents":[2147483647,0,0,1,1,2,2,3,3,4,4,5,5,6,6,7,7,8,8,9,9,10,10,11,11,12,12,13,13,14,14,15,15,16,16,17,17,18,18,19,19,20,20,21,21,22,22,23,23,24,24,25,25,26,26,27,27,28,28,29,29],"right_children":[2,4,6,8,10,12,14,16,18,20,22,24,26,28,30,32,34,36,38,40,42,44,46,48,50,52,54,56,58,60,-1,-1,-1,-1,-1,-1,-1,-1,-1,-1,-1,-1,-1,-1,-1,-1,-1,-1,-1,-1,-1,-1,-1,-1,-1,-1,-1,-1,-1,-1,-1],"split_conditions":[5.769136E0,-1.3303198E2,1.6829524E2,-2.602119E2,-5.754035E0,5.3328056E1,2.3037122E2,-1E0,2.9889685E-1,2.22E2,1E0,2.2541792E2,5.9201474E0,1.5854514E-1,3.4E0,-1.509171E1,-1.1253197E-2,2.305E2,2.171E2,2.15E2,6.16E-2,2.6E0,-1.4285715E-1,2.262E2,-1E0,2.097E2,2.24E2,6.39E-2,1E0,7.1E-2,-9.2862856E-1,-7.9354095E-1,-4.905232E-1,-3.5467836E-1,-1.0437307E0,-3.0262014E-1,-4.3197918E-1,5.6731457E-1,-1.15014076E-1,-1.5058593E-1,-4.4339213E-1,-1.4929344E-1,1.2661918E-1,-1.2710415E-1,7.784062E-2,1.7168908E-1,-8.0232225E-2,1.5862143E-1,1.1135544E-2,1.4848088E-1,-1.4222822E-1,-2.7408567E-1,1.5940039E-1,3.4507397E-1,1.9707823E-1,4.7103754E-1,-1.5497023E-1,1.700565E-1,5.1664007E-1,4.991952E-1,7.3331535E-1],"split_indices":[14,14,14,14,2,14,14,6,2,11,15,13,2,17,8,2,17,12,12,11,5,8,8,12,16,11,12,3,15,5,0,0,0,0,0,0,0,0,0,0,0,0,0,0,0,0,0,0,0,0,0,0,0,0,0,0,0,0,0,0,0],"split_type":[0,0,0,0,0,0,0,0,0,0,0,0,0,0,0,0,0,0,0,0,0,0,0,0,0,0,0,0,0,0,0,0,0,0,0,0,0,0,0,0,0,0,0,0,0,0,0,0,0,0,0,0,0,0,0,0,0,0,0,0,0],"sum_hessian":[6.57E3,3.36E3,3.21E3,1.15E3,2.21E3,2.398E3,8.12E2,2.49E2,9.01E2,7.71E2,1.439E3,9.07E2,1.491E3,4.28E2,3.84E2,1.44E2,1.05E2,8.48E2,5.3E1,2.53E2,5.18E2,1.05E3,3.89E2,6.32E2,2.75E2,8.31E2,6.6E2,2.28E2,2E2,3.83E2,1E0,7.8E1,6.6E1,9.7E1,8E0,5.86E2,2.62E2,8E0,4.5E1,8.9E1,1.64E2,4.63E2,5.5E1,9.14E2,1.36E2,1.64E2,2.25E2,4.15E2,2.17E2,6.8E1,2.07E2,3.3E1,7.98E2,3.21E2,3.39E2,2.2E2,8E0,1.6E2,4E1,3.08E2,7.5E1],"tree_param":{"num_deleted":"0","num_feature":"20","num_nodes":"61","size_leaf_vector":"1"}},{"base_weights":[-1.3094462E-1,-3.8705592E0,3.5232837E0,-7.301703E0,-2.4863663E0,2.355315E0,8.203924E0,-1.1242087E1,-6.4726286E0,-3.213026E0,8.0509335E-1,6.549921E-1,4.0705314E0,7.279752E0,1.2017023E1,2.3422039E0,-1.2351844E1,-7.824076E0,-4.1393046E0,-3.3285556E0,7.277122E0,5.757851E-1,1.972252E1,5.1086124E-2,3.1023278E0,2.6447175E0,5.369082E0,1.0057358E1,5.9657183E0,1.2702306E1,-2.0770506E1,-1.475346E-1,3.6502495E-1,-8.527256E-1,-5.109389E-1,-2.8329825E-1,-4.9927568E-1,-1.6233282E-1,-4.5541507E-1,-3.5383743E-1,-1.5125321E-1,-2.2566913E-1,6.147108E-1,-1.24207936E-1,8.695445E-2,1.1630923E0,1.3913076E-1,6.778645E-2,-4.998593E-2,2.4369055E-2,2.770966E-1,-2.0986803E-1,1.472105E-1,2.8544876E-1,-1.4536321E-1,6.3878196E-1,3.4756145E-1,7.666503E-2,3.8329974E-1,6.6107357E-1,-3.2187977E-1,-1.3389468E0,-2.1884118E-1],"categories":[],"categories_nodes":[],"categories_segments":[],"categories_sizes":[],"default_left":[0,0,0,0,0,0,0,0,0,0,0,0,0,0,0,0,0,0,0,0,0,0,0,0,0,0,0,0,0,0,0,0,0,0,0,0,0,0,0,0,0,0,0,0,0,0,0,0,0,0,0,0,0,0,0,0,0,0,0,0,0,0,0],"id":3,"left_children":[1,3,5,7,9,11,13,15,17,19,21,23,25,27,29,31,33,35,37,39,41,43,45,47,49,51,53,55,57,59,61,-1,-1,-1,-1,-1,-1,-1,-1,-1,-1,-1,-1,-1,-1,-1,-1,-1,-1,-1,-1,-1,-1,-1,-1,-1,-1,-1,-1,-1,-1,-1,-1],"loss_changes":[8.989101E4,1.5422035E4,1.816886E4,2.9784922E3,5.546714E3,7.7666826E3,2.2524258E3,2.456045E3,2.4083184E3,2.3256602E3,1.8105715E3,1.9788306E3,2.440877E3,1.8999785E3,3.1398281E3,3.627101E2,1.3203574E3,2.2244238E3,1.239E3,2.116041E3,1.2977236E3,1.4851323E3,2.3505017E2,1.4750995E3,1.6878494E3,1.3115195E3,1.9660566E3,1.3550039E3,2.754081E3,1.3371504E3,1.7829419E2,0E0,0E0,0E0,0E0,0E0,0E0,0E0,0E0,0E0,0E0,0E0,0E0,0E0,0E0,0E0,0E0,0E0,0E0,0E0,0E0,0E0,0E0,0E0,0E0,0E0,0E0,0E0,0E0,0E0,0E0,0E0,0E0],"parents":[2147483647,0,0,1,1,2,2,3,3,4,4,5,5,6,6,7,7,8,8,9,9,10,10,11,11,12,12,13,13,14,14,15,15,16,16,17,17,18,18,19,19,20,20,21,21,22,22,23,23,24,24,25,25,26,26,27,27,28,28,29,29,30,30],"right_children":[2,4,6,8,10,12,14,16,18,20,22,24,26,28,30,32,34,36,38,40,42,44,46,48,50,52,54,56,58,60,62,-1,-1,-1,-1,-1,-1,-1,-1,-1,-1,-1,-1,-1,-1,-1,-1,-1,-1,-1,-1,-1,-1,-1,-1,-1,-1,-1,-1,-1,-1,-1,-1],"split_conditions":[-4.5614082E-1,-1.0029648E1,1.1661751E1,-1.8913536E1,8.3333336E-2,4.6352584E-2,2.333E2,-1.046E-1,2.278E2,5.01E-2,1.232E-1,1E0,5.1377273E0,-2.25E0,2.1E0,1.02E1,-6.87E-2,2.233E2,2.364E2,-2.6666668E-1,0E0,-6.079938E0,-5.5E-3,2.241E2,-6.326531E-2,2.096E2,6.01E-2,2.244E2,8E-1,2.425E2,1.2879787E1,-1.475346E-1,3.6502495E-1,-8.527256E-1,-5.109389E-1,-2.8329825E-1,-4.9927568E-1,-1.6233282E-1,-4.5541507E-1,-3.5383743E-1,-1.5125321E-1,-2.2566913E-1,6.147108E-1,-1.24207936E-1,8.695445E-2,1.1630923E0,1.3913076E-1,6.778645E-2,-4.998593E-2,2.4369055E-2,2.770966E-1,-2.0986803E-1,1.472105E-1,2.8544876E-1,-1.4536321E-1,6.3878196E-1,3.4756145E-1,7.666503E-2,3.8329974E-1,6.6107357E-1,-3.2187977E-1,-1.3389468E0,-2.1884118E-1],"split_indices":[2,2,2,2,17,17,12,5,11,3,5,19,2,8,8,10,4,12,12,17,15,2,4,12,17,12,3,12,6,11,2,0,0,0,0,0,0,0,0,0,0,0,0,0,0,0,0,0,0,0,0,0,0,0,0,0,0,0,0,0,0,0,0],"split_type":[0,0,0,0,0,0,0,0,0,0,0,0,0,0,0,0,0,0,0,0,0,0,0,0,0,0,0,0,0,0,0,0,0,0,0,0,0,0,0,0,0,0,0,0,0,0,0,0,0,0,0,0,0,0,0,0,0,0,0,0,0,0,0],"sum_hessian":[6.576E3,3.25E3,3.326E3,9.33E2,2.317E3,2.663E3,6.63E2,1.6E2,7.73E2,1.898E3,4.19E2,1.338E3,1.325E3,5.36E2,1.27E2,1.2E1,1.48E2,4.88E2,2.85E2,1.878E3,2E1,4.15E2,4E0,1.074E3,2.64E2,6.33E2,6.92E2,1.7E2,3.66E2,1.25E2,2E0,6E0,6E0,4.4E1,1.04E2,2.46E2,2.42E2,2.43E2,4.2E1,1.39E2,1.739E3,6E0,1.4E1,1.14E2,3.01E2,3E0,1E0,4.79E2,5.95E2,1.28E2,1.36E2,2.6E1,6.07E2,6.65E2,2.7E1,8.9E1,8.1E1,1.02E2,2.64E2,1.22E2,3E0,1E0,1E0],"tree_param":{"num_deleted":"0","num_feature":"20","num_nodes":"63","size_leaf_vector":"1"}},{"base_weights":[-1.7543887E-1,-3.0023398E0,5.2903156E0,-6.8693614E0,-1.2288966E0,3.8829625E0,8.474688E0,-7.96999E0,-2.8141024E0,-2.9841697E0,-2.1106072E-1,2.7144854E0,5.545419E0,7.5122538E0,1.1831775E1,-9.533465E0,-5.530163E0,-6.220025E0,1.9756266E-1,-3.793044E0,-7.8247577E-1,-1.8383068E0,1.0262054E0,-5.1560597E0,3.031218E0,1.1362141E0,6.258378E0,9.509298E0,6.4589715E0,7.93589E0,1.5060751E1,-8.2801056E-1,-4.4877586E-1,-3.0874252E-1,6.811916E-2,-2.4193366E-1,-6.6417885E-1,-1.1608695E-1,3.0715996E-1,-1.9350189E-1,9.001476E-1,4.6890408E-2,-2.4296291E-1,-6.443384E-1,-8.63527E-2,7.7945225E-2,-9.944464E-2,-8.500153E-1,-2.8916849E-2,1.7263497E-1,-9.277711E-2,-5.1608708E-2,5.6825227E-1,3.8237557E-1,2.1811049E-1,3.698218E-3,5.2976716E-1,2.7218553E-1,4.4669E-1,6.000456E-1,1.9380583E-1,6.447572E-1,1.1593968E0],"categories":[],"categories_nodes":[],"categories_segments":[],"categories_sizes":[],"default_left":[0,0,0,0,0,0,0,0,0,0,0,0,0,0,0,0,0,0,0,0,0,0,0,0,0,0,0,0,0,0,0,0,0,0,0,0,0,0,0,0,0,0,0,0,0,0,0,0,0,0,0,0,0,0,0,0,0,0,0,0,0,0,0],"id":4,"left_children":[1,3,5,7,9,11,13,15,17,19,21,23,25,27,29,31,33,35,37,39,41,43,45,47,49,51,53,55,57,59,61,-1,-1,-1,-1,-1,-1,-1,-1,-1,-1,-1,-1,-1,-1,-1,-1,-1,-1,-1,-1,-1,-1,-1,-1,-1,-1,-1,-1,-1,-1,-1,-1],"loss_changes":[1.02163414E5,2.9878473E4,1.0068473E4,6.09234E3,5.3394575E3,3.0250273E3,2.1404922E3,4.0556172E3,3.016933E3,1.9506738E3,3.8131326E3,2.3115522E3,2.020498E3,1.0723398E3,1.7925957E3,2.4193281E3,1.8880283E3,1.2822266E3,2.3659424E3,1.4155518E3,2.0804712E3,9.8320654E2,1.7313071E3,1.9420762E3,1.8312812E3,2.0301178E3,1.4285273E3,1.8846992E3,8.4585156E2,1.1252007E3,1.1442109E3,0E0,0E0,0E0,0E0,0E0,0E0,0E0,0E0,0E0,0E0,0E0,0E0,0E0,0E0,0E0,0E0,0E0,0E0,0E0,0E0,0E0,0E0,0E0,0E0,0E0,0E0,0E0,0E0,0E0,0E0,0E0,0E0],"parents":[2147483647,0,0,1,1,2,2,3,3,4,4,5,5,6,6,7,7,8,8,9,9,10,10,11,11,12,12,13,13,14,14,15,15,16,16,17,17,18,18,19,19,20,20,21,21,22,22,23,23,24,24,25,25,26,26,27,27,28,28,29,29,30,30],"right_children":[2,4,6,8,10,12,14,16,18,20,22,24,26,28,30,32,34,36,38,40,42,44,46,48,50,52,54,56,58,60,62,-1,-1,-1,-1,-1,-1,-1,-1,-1,-1,-1,-1,-1,-1,-1,-1,-1,-1,-1,-1,-1,-1,-1,-1,-1,-1,-1,-1,-1,-1,-1,-1],"split_conditions":[5.3328056E1,-1.1862702E2,1.8409457E2,1E0,-4.5642265E1,6.7366004E0,2.333E2,-4.966479E0,-6.134276E0,1E0,-1.0060238E0,2.097E2,-2.2E0,-2.25E0,7.138308E0,-6.6E0,2.3041649E2,-1.12E-2,-1.4557599E2,1.4730846E1,1E0,-9.1E0,1E0,0E0,7.747139E0,-2.267843E0,2.259E2,2.158E2,2.651269E2,3E0,3.4407758E2,-8.2801056E-1,-4.4877586E-1,-3.0874252E-1,6.811916E-2,-2.4193366E-1,-6.6417885E-1,-1.1608695E-1,3.0715996E-1,-1.9350189E-1,9.001476E-1,4.6890408E-2,-2.4296291E-1,-6.443384E-1,-8.63527E-2,7.7945225E-2,-9.944464E-2,-8.500153E-1,-2.8916849E-2,1.7263497E-1,-9.277711E-2,-5.1608708E-2,5.6825227E-1,3.8237557E-1,2.1811049E-1,3.698218E-3,5.2976716E-1,2.7218553E-1,4.4669E-1,6.000456E-1,1.9380583E-1,6.447572E-1,1.1593968E0],"split_indices":[14,14,14,19,14,2,12,0,0,15,2,11,7,8,0,6,13,3,14,2,16,6,18,16,0,1,12,12,14,16,14,0,0,0,0,0,0,0,0,0,0,0,0,0,0,0,0,0,0,0,0,0,0,0,0,0,0,0,0,0,0,0,0],"split_type":[0,0,0,0,0,0,0,0,0,0,0,0,0,0,0,0,0,0,0,0,0,0,0,0,0,0,0,0,0,0,0,0,0,0,0,0,0,0,0,0,0,0,0,0,0,0,0,0,0,0,0,0,0,0,0,0,0,0,0,0,0,0,0],"sum_hessian":[6.61E3,4.357E3,2.253E3,1.369E3,2.988E3,1.564E3,6.89E2,1.076E3,2.93E2,1.096E3,1.892E3,9.2E2,6.44E2,5.38E2,1.51E2,6.54E2,4.22E2,1.37E2,1.56E2,8.01E2,2.95E2,8.17E2,1.075E3,3.5E1,8.85E2,9E1,5.54E2,1.83E2,3.55E2,7E1,8.1E1,4.6E1,6.08E2,3.86E2,3.6E1,1.16E2,2.1E1,1.1E2,4.6E1,7.99E2,2E0,2.08E2,8.7E1,7E0,8.1E2,9.14E2,1.61E2,9E0,2.6E1,8.15E2,7E1,7.5E1,1.5E1,3.18E2,2.36E2,1.9E1,1.64E2,2.54E2,1.01E2,3.4E1,3.6E1,6.6E1,1.5E1],"tree_param":{"num_deleted":"0","num_feature":"20","num_nodes":"63","size_leaf_vector":"1"}},{"base_weights":[1.9653672E-2,-3.264948E0,3.3271003E0,-6.34294E0,-2.0277133E0,2.2582748E0,7.6168165E0,-9.536255E0,-5.423255E0,-2.6918356E0,8.207126E-1,6.65118E-1,3.688784E0,7.0765066E0,1.23642E1,-8.264335E0,-1.4966459E1,-9.947514E0,-4.696E0,-2.9859972E0,1.9263743E0,3.6566164E0,-1.9566E0,-8.6521335E-2,3.5813472E0,3.7972152E0,-9.124356E0,3.1805403E0,7.6333795E0,6.2096467E0,1.4209463E1,-6.549564E-1,-3.4763512E-1,-8.0977744E-1,2.5905702E-1,-1.5721318E-1,-6.239613E-1,4.7194954E-2,-2.602549E-1,-1.528112E-1,7.779526E-1,-1.1316445E-1,2.9372242E-1,8.7874524E-2,4.0261155E-1,-9.834863E-3,-2.5740346E-1,2.0057492E-1,-1.9998096E-2,1.17505744E-1,4.4466892E-1,9.354604E-2,2.1873967E-1,-8.078724E-1,1.9767317E-1,2.647899E-1,-3.738846E-1,-1.6281521E-1,3.9268598E-1,5.99008E-1,-1.2541343E-2,3.531399E-1,8.682435E-1],"categories":[],"categories_nodes":[],"categories_segments":[],"categories_sizes":[],"default_left":[0,0,0,0,0,0,0,0,0,0,0,0,0,0,0,0,0,0,0,0,0,0,0,0,0,0,0,0,0,0,0,0,0,0,0,0,0,0,0,0,0,0,0,0,0,0,0,0,0,0,0,0,0,0,0,0,0,0,0,0,0,0,0],"id":5,"left_children":[1,3,5,7,9,11,13,15,17,19,21,23,25,27,29,31,33,35,37,39,41,43,45,47,49,51,53,55,57,59,61,-1,-1,-1,-1,-1,-1,-1,-1,-1,-1,-1,-1,-1,-1,-1,-1,-1,-1,-1,-1,-1,-1,-1,-1,-1,-1,-1,-1,-1,-1,-1,-1],"loss_changes":[7.208028E4,1.2664629E4,1.5140676E4,2.7500312E3,4.4968975E3,6.0324053E3,1.602875E3,1.3405527E3,2.3979707E3,2.623581E3,3.551441E3,2.7490186E3,1.9727832E3,1.2644395E3,6.6131055E2,1.0123418E3,1.0496768E3,1.7175967E3,1.8482617E3,2.4074219E3,1.9320632E3,1.8474133E3,1.2795894E3,1.2835214E3,1.6599683E3,1.5316348E3,1.1676082E3,1.7530132E3,1.2708809E3,6.3676917E2,1.0048877E3,0E0,0E0,0E0,0E0,0E0,0E0,0E0,0E0,0E0,0E0,0E0,0E0,0E0,0E0,0E0,0E0,0E0,0E0,0E0,0E0,0E0,0E0,0E0,0E0,0E0,0E0,0E0,0E0,0E0,0E0,0E0,0E0],"parents":[2147483647,0,0,1,1,2,2,3,3,4,4,5,5,6,6,7,7,8,8,9,9,10,10,11,11,12,12,13,13,14,14,15,15,16,16,17,17,18,18,19,19,20,20,21,21,22,22,23,23,24,24,25,25,26,26,27,27,28,28,29,29,30,30],"right_children":[2,4,6,8,10,12,14,16,18,20,22,24,26,28,30,32,34,36,38,40,42,44,46,48,50,52,54,56,58,60,62,-1,-1,-1,-1,-1,-1,-1,-1,-1,-1,-1,-1,-1,-1,-1,-1,-1,-1,-1,-1,-1,-1,-1,-1,-1,-1,-1,-1,-1,-1,-1,-1],"split_conditions":[-2.6117122E-1,-1.0029648E1,1.1882034E1,-1.7586868E1,8.1527345E-2,3.5472706E-2,3.4040403E-1,3.8E0,2.1146106E2,1.23E1,2.2154382E2,7.588938E0,7.05E-2,0E0,1E0,-6.2E0,2.9E-3,2.0553775E2,-6.35E-2,8.639735E0,-7.4397035E-2,2.1800797E2,1.23E-2,-5.37E-2,1E0,0E0,1.325223E-1,2.2915988E2,-1.8392077E-1,2.99E-2,6.1536956E0,-6.549564E-1,-3.4763512E-1,-8.0977744E-1,2.5905702E-1,-1.5721318E-1,-6.239613E-1,4.7194954E-2,-2.602549E-1,-1.528112E-1,7.779526E-1,-1.1316445E-1,2.9372242E-1,8.7874524E-2,4.0261155E-1,-9.834863E-3,-2.5740346E-1,2.0057492E-1,-1.9998096E-2,1.17505744E-1,4.4466892E-1,9.354604E-2,2.1873967E-1,-8.078724E-1,1.9767317E-1,2.647899E-1,-3.738846E-1,-1.6281521E-1,3.9268598E-1,5.99008E-1,-1.2541343E-2,3.531399E-1,8.682435E-1],"split_indices":[2,2,2,2,17,17,17,8,13,10,13,2,3,16,6,6,3,13,3,0,17,13,4,4,19,15,17,13,17,3,0,0,0,0,0,0,0,0,0,0,0,0,0,0,0,0,0,0,0,0,0,0,0,0,0,0,0,0,0,0,0,0,0],"split_type":[0,0,0,0,0,0,0,0,0,0,0,0,0,0,0,0,0,0,0,0,0,0,0,0,0,0,0,0,0,0,0,0,0,0,0,0,0,0,0,0,0,0,0,0,0,0,0,0,0,0,0,0,0,0,0,0,0,0,0,0,0,0,0],"sum_hessian":[6.633E3,3.328E3,3.305E3,9.53E2,2.375E3,2.647E3,6.58E2,2.11E2,7.42E2,1.926E3,4.49E2,1.253E3,1.394E3,5.93E2,6.5E1,1.73E2,3.8E1,1.01E2,6.41E2,1.811E3,1.15E2,2.22E2,2.27E2,9.97E2,2.56E2,1.383E3,1.1E1,7.5E1,5.18E2,1.6E1,4.9E1,3.5E1,1.38E2,3.6E1,2E0,2.8E1,7.3E1,5.3E1,5.88E2,1.805E3,6E0,5.6E1,5.9E1,1.56E2,6.6E1,1.47E2,8E1,7E1,9.27E2,2.09E2,4.7E1,3.2E2,1.063E3,7E0,4E0,6.3E1,1.2E1,1E1,5.08E2,8E0,8E0,1.6E1,3.3E1],"tree_param":{"num_deleted":"0","num_feature":"20","num_nodes":"63","size_leaf_vector":"1"}},{"base_weights":[9.361296E-2,-2.556015E0,4.522547E0,-5.319336E0,-6.5645856E-1,3.0269272E0,7.398148E0,-7.2152886E0,-3.9339113E0,-1.4609376E0,9.239724E-1,1.6505495E0,4.253448E0,9.484065E0,6.181181E0,-5.6007214E0,-8.742782E0,-4.944144E0,8.070151E-2,-2.0641277E0,5.9392545E-2,2.7778246E0,-2.1923074E-1,2.3098257E0,-4.630669E0,3.8204389E0,8.711579E0,5.200547E0,1.0653339E1,4.318392E0,8.377453E0,-3.3690414E-1,-2.419691E-2,9.235968E-1,-4.4729254E-1,-5.938486E-1,-2.2803211E-1,1.5842839E-1,-9.936413E-2,-2.0411451E-1,-7.045188E-2,1.6861385E-1,-4.060521E-2,1.5320621E-1,-5.108097E-1,-2.8741693E-2,5.063537E-1,-4.2637917E-1,1.3556793E-1,-5.817606E-2,-6.880217E-1,-2.3648857E-1,2.0662363E-1,6.629889E-1,2.0866239E-1,1.2839024E-1,8.070776E-1,7.6464075E-1,4.5996162E-1,-4.0819222E-1,2.4189611E-1,4.932234E-1,2.6316413E-1],"categories":[],"categories_nodes":[],"categories_segments":[],"categories_sizes":[],"default_left":[0,0,0,0,0,0,0,0,0,0,0,0,0,0,0,0,0,0,0,0,0,0,0,0,0,0,0,0,0,0,0,0,0,0,0,0,0,0,0,0,0,0,0,0,0,0,0,0,0,0,0,0,0,0,0,0,0,0,0,0,0,0,0],"id":6,"left_children":[1,3,5,7,9,11,13,15,17,19,21,23,25,27,29,31,33,35,37,39,41,43,45,47,49,51,53,55,57,59,61,-1,-1,-1,-1,-1,-1,-1,-1,-1,-1,-1,-1,-1,-1,-1,-1,-1,-1,-1,-1,-1,-1,-1,-1,-1,-1,-1,-1,-1,-1,-1,-1],"loss_changes":[7.7122414E4,2.1580738E4,1.055759E4,4.37134E3,3.1010806E3,2.727791E3,2.07625E3,1.6921992E3,3.934421E3,1.4820725E3,1.7448174E3,3.178605E3,1.6191523E3,1.4872461E3,2.1485195E3,2.010333E3,2.160287E3,2.0063672E3,1.2578859E3,1.5238931E3,1.3308358E3,1.1994414E3,1.882202E3,3.0387622E3,2.2947493E3,2.1058848E3,1.4927568E3,1.9172814E3,1.4851758E3,1.9266011E3,1.078E3,0E0,0E0,0E0,0E0,0E0,0E0,0E0,0E0,0E0,0E0,0E0,0E0,0E0,0E0,0E0,0E0,0E0,0E0,0E0,0E0,0E0,0E0,0E0,0E0,0E0,0E0,0E0,0E0,0E0,0E0,0E0,0E0],"parents":[2147483647,0,0,1,1,2,2,3,3,4,4,5,5,6,6,7,7,8,8,9,9,10,10,11,11,12,12,13,13,14,14,15,15,16,16,17,17,18,18,19,19,20,20,21,21,22,22,23,23,24,24,25,25,26,26,27,27,28,28,29,29,30,30],"right_children":[2,4,6,8,10,12,14,16,18,20,22,24,26,28,30,32,34,36,38,40,42,44,46,48,50,52,54,56,58,60,62,-1,-1,-1,-1,-1,-1,-1,-1,-1,-1,-1,-1,-1,-1,-1,-1,-1,-1,-1,-1,-1,-1,-1,-1,-1,-1,-1,-1,-1,-1,-1,-1],"split_conditions":[4.144977E1,-9.3225716E1,1.6583012E2,-6.4605026E0,1.3674254E0,3.9550807E0,1.1202077E-1,-3.71E-2,1E0,1E0,2.231E2,5E0,9.24E-2,0E0,1.1661751E1,2.321E2,-1.0745918E1,-1.509171E1,2.1397545E0,-4.57E-2,2.192E2,6.6004395E0,1.7757009E-1,2.088E2,2.8983765E0,-5E0,7.384907E0,2.348E2,2.199E2,-1.0462539E1,5.36E-2,-3.3690414E-1,-2.419691E-2,9.235968E-1,-4.4729254E-1,-5.938486E-1,-2.2803211E-1,1.5842839E-1,-9.936413E-2,-2.0411451E-1,-7.045188E-2,1.6861385E-1,-4.060521E-2,1.5320621E-1,-5.108097E-1,-2.8741693E-2,5.063537E-1,-4.2637917E-1,1.3556793E-1,-5.817606E-2,-6.880217E-1,-2.3648857E-1,2.0662363E-1,6.629889E-1,2.0866239E-1,1.2839024E-1,8.070776E-1,7.6464075E-1,4.5996162E-1,-4.0819222E-1,2.4189611E-1,4.932234E-1,2.6316413E-1],"split_indices":[14,14,14,0,2,2,17,3,19,15,11,16,5,15,2,11,1,2,1,5,11,1,17,11,1,7,0,12,11,1,4,0,0,0,0,0,0,0,0,0,0,0,0,0,0,0,0,0,0,0,0,0,0,0,0,0,0,0,0,0,0,0,0],"split_type":[0,0,0,0,0,0,0,0,0,0,0,0,0,0,0,0,0,0,0,0,0,0,0,0,0,0,0,0,0,0,0,0,0,0,0,0,0,0,0,0,0,0,0,0,0,0,0,0,0,0,0,0,0,0,0,0,0,0,0,0,0,0,0],"sum_hessian":[6.57E3,4.111E3,2.459E3,1.674E3,2.437E3,1.619E3,8.4E2,7.05E2,9.69E2,1.615E3,8.22E2,7.64E2,8.55E2,3.07E2,5.33E2,3.45E2,3.6E2,7.74E2,1.95E2,1.156E3,4.59E2,3.13E2,5.09E2,6.92E2,7.2E1,7.81E2,7.4E1,6.7E1,2.4E2,2.9E2,2.43E2,2.82E2,6.3E1,2E0,3.58E2,3.9E1,7.35E2,7.8E1,1.17E2,2.82E2,8.74E2,9.5E1,3.64E2,3.07E2,6E0,4.93E2,1.6E1,2.4E1,6.68E2,5.3E1,1.9E1,2.7E1,7.54E2,3.6E1,3.8E1,5.5E1,1.2E1,5.5E1,1.85E2,1.1E1,2.79E2,1.63E2,8E1],"tree_param":{"num_deleted":"0","num_feature":"20","num_nodes":"63","size_leaf_vector":"1"}},{"base_weights":[-1.5988852E-1,-2.6615996E0,4.4528446E0,-6.2853146E0,-1.271143E0,3.5672402E0,8.542005E0,-7.361443E0,-3.173162E0,-2.8149874E0,-3.8078335E-1,2.3391407E0,4.8109922E0,7.34884E0,1.3127746E1,-1.0030028E1,-6.6914377E0,-3.7235959E0,5.8712263E0,-2.0659641E1,-2.7175736E0,7.093736E-2,-3.2430696E0,3.8618975E0,9.358549E-1,-1.1713585E1,4.9285545E0,6.6135926E0,1.2665337E1,8.494076E0,1.6108759E1,-6.0215586E-1,-2.1456686E-1,-3.919189E-1,-2.2391236E-1,-1.2785684E-1,-3.4305942E-1,-3.2253653E-1,5.5533254E-1,-2.8709137E-1,-1.1247419E0,-1.7162077E-1,-3.5295203E-2,-1.2759607E-1,2.478906E-2,4.508921E-2,-2.620165E-1,1.2204086E-1,3.2517695E-1,1.4123936E-1,-3.4583095E-2,-7.4949265E-1,1.9860046E-1,2.2786525E-1,4.2875537E-1,2.5436834E-1,4.9912983E-1,8.390023E-1,2.059534E-1,6.0058254E-1,-1.36301145E-2,9.7182494E-1,4.8281595E-1],"categories":[],"categories_nodes":[],"categories_segments":[],"categories_sizes":[],"default_left":[0,0,0,0,0,0,0,0,0,0,0,0,0,0,0,0,0,0,0,0,0,0,0,0,0,0,0,0,0,0,0,0,0,0,0,0,0,0,0,0,0,0,0,0,0,0,0,0,0,0,0,0,0,0,0,0,0,0,0,0,0,0,0],"id":7,"left_children":[1,3,5,7,9,11,13,15,17,19,21,23,25,27,29,31,33,35,37,39,41,43,45,47,49,51,53,55,57,59,61,-1,-1,-1,-1,-1,-1,-1,-1,-1,-1,-1,-1,-1,-1,-1,-1,-1,-1,-1,-1,-1,-1,-1,-1,-1,-1,-1,-1,-1,-1,-1,-1],"loss_changes":[7.626637E4,2.158249E4,8.385605E3,3.9553438E3,4.2573677E3,2.9092344E3,2.1632754E3,1.5098711E3,1.5502117E3,1.9133701E3,2.5421777E3,2.0563218E3,1.9013184E3,1.2061855E3,1.0234658E3,1.9700039E3,1.762082E3,1.0438184E3,1.2328379E3,3.510132E1,1.619669E3,1.8944697E3,2.223324E3,1.7184673E3,1.548311E3,4.1927124E2,1.2375352E3,1.4506377E3,1.302333E3,1.0825852E3,8.85917E2,0E0,0E0,0E0,0E0,0E0,0E0,0E0,0E0,0E0,0E0,0E0,0E0,0E0,0E0,0E0,0E0,0E0,0E0,0E0,0E0,0E0,0E0,0E0,0E0,0E0,0E0,0E0,0E0,0E0,0E0,0E0,0E0],"parents":[2147483647,0,0,1,1,2,2,3,3,4,4,5,5,6,6,7,7,8,8,9,9,10,10,11,11,12,12,13,13,14,14,15,15,16,16,17,17,18,18,19,19,20,20,21,21,22,22,23,23,24,24,25,25,26,26,27,27,28,28,29,29,30,30],"right_children":[2,4,6,8,10,12,14,16,18,20,22,24,26,28,30,32,34,36,38,40,42,44,46,48,50,52,54,56,58,60,62,-1,-1,-1,-1,-1,-1,-1,-1,-1,-1,-1,-1,-1,-1,-1,-1,-1,-1,-1,-1,-1,-1,-1,-1,-1,-1,-1,-1,-1,-1,-1,-1],"split_conditions":[5.175272E1,-1.3303198E2,2.2660802E2,-5.754035E0,-5.1812824E1,6.099949E0,1E0,-6.52E-2,5.3E0,-4.7006625E-1,1E0,-1.2E-3,-1.285E-1,3.4407758E2,6.8106465E0,2.298E2,-5E-1,2.7084975E0,-2.9929943E0,-2.1249672E1,1E0,-6.888249E0,-1.26E-2,6E-1,1E0,4.59E-2,9.24E-2,-2.4343681E0,-5.344672E0,4.944041E0,5.16E-2,-6.0215586E-1,-2.1456686E-1,-3.919189E-1,-2.2391236E-1,-1.2785684E-1,-3.4305942E-1,-3.2253653E-1,5.5533254E-1,-2.8709137E-1,-1.1247419E0,-1.7162077E-1,-3.5295203E-2,-1.2759607E-1,2.478906E-2,4.508921E-2,-2.620165E-1,1.2204086E-1,3.2517695E-1,1.4123936E-1,-3.4583095E-2,-7.4949265E-1,1.9860046E-1,2.2786525E-1,4.2875537E-1,2.5436834E-1,4.9912983E-1,8.390023E-1,2.059534E-1,6.0058254E-1,-1.36301145E-2,9.7182494E-1,4.8281595E-1],"split_indices":[14,14,14,2,14,2,19,5,7,17,18,4,5,14,0,11,6,1,2,2,15,2,4,7,16,3,5,1,1,0,4,0,0,0,0,0,0,0,0,0,0,0,0,0,0,0,0,0,0,0,0,0,0,0,0,0,0,0,0,0,0,0,0],"split_type":[0,0,0,0,0,0,0,0,0,0,0,0,0,0,0,0,0,0,0,0,0,0,0,0,0,0,0,0,0,0,0,0,0,0,0,0,0,0,0,0,0,0,0,0,0,0,0,0,0,0,0,0,0,0,0,0,0,0,0,0,0,0,0],"sum_hessian":[6.607E3,4.284E3,2.323E3,1.187E3,3.097E3,1.911E3,4.12E2,8.81E2,3.06E2,1.132E3,1.965E3,9.63E2,9.48E2,3.29E2,8.3E1,1.74E2,7.07E2,2.89E2,1.7E1,5E0,1.127E3,1.698E3,2.67E2,4.61E2,5.02E2,6E0,9.42E2,2.91E2,3.8E1,3.4E1,4.9E1,1.28E2,4.6E1,4.64E2,2.43E2,2.12E2,7.7E1,5E0,1.2E1,1E0,4E0,8.31E2,2.96E2,2.36E2,1.462E3,8.7E1,1.8E2,3.01E2,1.6E2,2.32E2,2.7E2,5E0,1E0,8.57E2,8.5E1,2.02E2,8.9E1,2.5E1,1.3E1,2.4E1,1E1,3.1E1,1.8E1],"tree_param":{"num_deleted":"0","num_feature":"20","num_nodes":"63","size_leaf_vector":"1"}},{"base_weights":[-1.64453E-3,-3.3761485E0,3.1309106E0,-7.205583E0,-2.3492541E0,1.9489629E0,6.5866213E0,-7.3753996E0,4.7907953E0,-4.1841745E0,-1.361337E0,9.156593E-1,3.4784868E0,5.7100534E0,9.958156E0,-8.140863E0,-4.425692E0,-4.2154858E-1,9.150108E0,-2.9291144E-1,-4.9524856E0,2.0149734E0,-1.6887708E0,2.0838113E0,-5.173822E-1,3.5694673E0,-7.9523057E-1,7.381147E0,3.8872302E0,1.1454145E1,4.643504E0,-5.61971E-1,-3.5423934E-1,-1.920965E-1,-1.1583594E0,1.12698175E-1,4.9066386E-1,-1.5419556E-1,1.8233712E-1,-2.6767167E-1,5.803376E-2,-2.7787551E-2,3.0552566E-1,-6.1555006E-2,-2.1158932E-1,1.2598743E-1,-2.099934E-1,-1.5954052E-1,2.8197838E-2,2.9627353E-1,1.518961E-1,-6.210552E-1,3.7906122E-1,8.3103895E-2,3.1847224E-1,5.004448E-1,9.54923E-1,1.4773826E-1,1.2524637E0],"categories":[],"categories_nodes":[],"categories_segments":[],"categories_sizes":[],"default_left":[0,0,0,0,0,0,0,0,0,0,0,0,0,0,0,0,0,0,0,0,0,0,0,0,0,0,0,0,0,0,0,0,0,0,0,0,0,0,0,0,0,0,0,0,0,0,0,0,0,0,0,0,0,0,0,0,0,0,0],"id":8,"left_children":[1,3,5,7,9,11,13,15,17,19,21,23,25,27,29,31,33,-1,35,37,39,41,43,45,47,49,-1,51,53,55,57,-1,-1,-1,-1,-1,-1,-1,-1,-1,-1,-1,-1,-1,-1,-1,-1,-1,-1,-1,-1,-1,-1,-1,-1,-1,-1,-1,-1],"loss_changes":[6.993655E4,1.2507848E4,1.4000977E4,1.4063594E3,4.549743E3,4.0396377E3,2.5261406E3,1.4632109E3,6.5352246E2,2.626496E3,1.8109243E3,2.5589658E3,1.8749238E3,2.0914004E3,1.3699805E3,1.6416094E3,1.4317336E3,0E0,1.4467773E1,1.6165999E3,1.8052891E3,1.5300289E3,1.7301113E3,2.3170647E3,1.9878352E3,1.2681338E3,0E0,1.5284062E3,1.8397202E3,1.3445117E3,1.3388461E3,0E0,0E0,0E0,0E0,0E0,0E0,0E0,0E0,0E0,0E0,0E0,0E0,0E0,0E0,0E0,0E0,0E0,0E0,0E0,0E0,0E0,0E0,0E0,0E0,0E0,0E0,0E0,0E0],"parents":[2147483647,0,0,1,1,2,2,3,3,4,4,5,5,6,6,7,7,8,8,9,9,10,10,11,11,12,12,13,13,14,14,15,15,16,16,18,18,19,19,20,20,21,21,22,22,23,23,24,24,25,25,27,27,28,28,29,29,30,30],"right_children":[2,4,6,8,10,12,14,16,18,20,22,24,26,28,30,32,34,-1,36,38,40,42,44,46,48,50,-1,52,54,56,58,-1,-1,-1,-1,-1,-1,-1,-1,-1,-1,-1,-1,-1,-1,-1,-1,-1,-1,-1,-1,-1,-1,-1,-1,-1,-1,-1,-1],"split_conditions":[-1.8126571E0,-1.8977905E2,1.6583012E2,8.7E0,-4.6005626E0,5.1377273E0,2.794877E2,1E0,4.88258E0,-6.2E0,-2.92E-2,1.6E-3,2.4182959E2,1.6055046E-1,4.89E-2,-1.6529045E1,2.3283435E2,-4.2154858E-1,-1.73E-2,2.2082481E2,-1.7583414E1,-3.39E-2,1E0,2.381E2,2.9419792E1,0E0,-7.9523057E-1,-8.651536E0,-4.7E0,1.2639227E1,2.2784555E2,-5.61971E-1,-3.5423934E-1,-1.920965E-1,-1.1583594E0,1.12698175E-1,4.9066386E-1,-1.5419556E-1,1.8233712E-1,-2.6767167E-1,5.803376E-2,-2.7787551E-2,3.0552566E-1,-6.1555006E-2,-2.1158932E-1,1.2598743E-1,-2.099934E-1,-1.5954052E-1,2.8197838E-2,2.9627353E-1,1.518961E-1,-6.210552E-1,3.7906122E-1,8.3103895E-2,3.1847224E-1,5.004448E-1,9.54923E-1,1.4773826E-1,1.2524637E0],"split_indices":[14,14,14,9,0,2,14,19,1,10,3,4,13,17,3,2,13,0,4,13,14,3,18,12,14,16,0,0,10,0,13,0,0,0,0,0,0,0,0,0,0,0,0,0,0,0,0,0,0,0,0,0,0,0,0,0,0,0,0],"split_type":[0,0,0,0,0,0,0,0,0,0,0,0,0,0,0,0,0,0,0,0,0,0,0,0,0,0,0,0,0,0,0,0,0,0,0,0,0,0,0,0,0,0,0,0,0,0,0,0,0,0,0,0,0,0,0,0,0,0,0],"sum_hessian":[6.614E3,3.184E3,3.43E3,6.72E2,2.512E3,2.557E3,8.73E2,6.63E2,9E0,8.78E2,1.634E3,1.527E3,1.03E3,6.95E2,1.78E2,5.25E2,1.38E2,2E0,7E0,1.45E2,7.33E2,1.44E2,1.49E3,8.41E2,6.86E2,1.026E3,4E0,3.61E2,3.34E2,1.38E2,4E1,1.31E2,3.94E2,1.35E2,3E0,1E0,6E0,8.5E1,6E1,6.88E2,4.5E1,8.9E1,5.5E1,1.264E3,2.26E2,7.87E2,5.4E1,1.97E2,4.89E2,1.87E2,8.39E2,3E0,3.58E2,1.77E2,1.57E2,1.18E2,2E1,3.8E1,2E0],"tree_param":{"num_deleted":"0","num_feature":"20","num_nodes":"59","size_leaf_vector":"1"}},{"base_weights":[1.2875143E-1,-2.2391856E0,3.7791953E0,-5.691119E0,-1.124329E0,2.5759416E0,6.279818E0,-6.4470716E0,-2.2658563E0,-1.954589E0,3.2757363E-1,2.1930628E0,6.7440386E0,5.9440517E0,1.1592445E1,-5.867981E0,-9.582006E0,-5.219564E0,-1.6261627E-1,-2.665319E0,-3.0492436E-2,1.6927167E0,-1.3970476E0,-3.4108567E0,2.412614E0,1.2474158E1,4.975897E0,4.510598E0,7.5176315E0,1.354022E1,-8.243126E-2,-3.5366043E-1,-2.0456398E-1,5.9079397E-1,-5.016672E-1,4.3714926E-1,-3.1790265E-1,-1.0905632E-1,4.5442972E-1,-2.3320691E-1,-1.0014138E-1,-4.3881437E-1,1.6844597E-2,1.01602934E-1,-3.036421E-1,-2.079836E-1,4.2110058E-3,-6.625187E-1,-9.900685E-3,1.4011823E-1,-4.456039E-2,8.102792E-1,2.5999445E-1,-1.007084E0,2.688211E-1,2.4026981E-1,-3.4168884E-1,6.122709E-1,3.3870065E-1,4.4102007E-1,1.0329326E0,-3.5669205E-1,4.3762192E-1],"categories":[],"categories_nodes":[],"categories_segments":[],"categories_sizes":[],"default_left":[0,0,0,0,0,0,0,0,0,0,0,0,0,0,0,0,0,0,0,0,0,0,0,0,0,0,0,0,0,0,0,0,0,0,0,0,0,0,0,0,0,0,0,0,0,0,0,0,0,0,0,0,0,0,0,0,0,0,0,0,0,0,0],"id":9,"left_children":[1,3,5,7,9,11,13,15,17,19,21,23,25,27,29,31,33,35,37,39,41,43,45,47,49,51,53,55,57,59,61,-1,-1,-1,-1,-1,-1,-1,-1,-1,-1,-1,-1,-1,-1,-1,-1,-1,-1,-1,-1,-1,-1,-1,-1,-1,-1,-1,-1,-1,-1,-1,-1],"loss_changes":[5.698985E4,1.5383396E4,7.788871E3,2.512584E3,3.6459412E3,2.7827812E3,1.4330547E3,1.3942852E3,1.1049504E3,2.6310137E3,2.5945093E3,1.9853984E3,1.4272842E3,1.757082E3,1.1153779E3,1.4207422E3,1.3064414E3,1.2319076E3,1.9805579E3,1.8511592E3,1.6737521E3,1.6329764E3,1.993245E3,1.9257584E3,1.9945156E3,8.386079E2,1.2551531E3,1.4307549E3,1.242457E3,1.2288857E3,5.6082477E2,0E0,0E0,0E0,0E0,0E0,0E0,0E0,0E0,0E0,0E0,0E0,0E0,0E0,0E0,0E0,0E0,0E0,0E0,0E0,0E0,0E0,0E0,0E0,0E0,0E0,0E0,0E0,0E0,0E0,0E0,0E0,0E0],"parents":[2147483647,0,0,1,1,2,2,3,3,4,4,5,5,6,6,7,7,8,8,9,9,10,10,11,11,12,12,13,13,14,14,15,15,16,16,17,17,18,18,19,19,20,20,21,21,22,22,23,23,24,24,25,25,26,26,27,27,28,28,29,29,30,30],"right_children":[2,4,6,8,10,12,14,16,18,20,22,24,26,28,30,32,34,36,38,40,42,44,46,48,50,52,54,56,58,60,62,-1,-1,-1,-1,-1,-1,-1,-1,-1,-1,-1,-1,-1,-1,-1,-1,-1,-1,-1,-1,-1,-1,-1,-1,-1,-1,-1,-1,-1,-1,-1,-1],"split_conditions":[3.586163E1,-1.5346133E2,1.6583012E2,-5.036266E0,-2.6117122E-1,1.3372013E1,2.379E2,-1.1253197E-2,-1.9536726E2,1E0,2.261E2,-7.2658663E0,-1.45E-2,1.1661751E1,6E0,-2.0918918E2,2.104E2,-9.093479E0,2.2529951E2,-1.0470395E2,-2.7296588E-1,1.0747188E1,-3.7640423E1,-4.1E0,6E0,-6.666667E-1,-1.33E-2,1.1423001E1,1.2879787E1,6E0,9E0,-3.5366043E-1,-2.0456398E-1,5.9079397E-1,-5.016672E-1,4.3714926E-1,-3.1790265E-1,-1.0905632E-1,4.5442972E-1,-2.3320691E-1,-1.0014138E-1,-4.3881437E-1,1.6844597E-2,1.01602934E-1,-3.036421E-1,-2.079836E-1,4.2110058E-3,-6.625187E-1,-9.900685E-3,1.4011823E-1,-4.456039E-2,8.102792E-1,2.5999445E-1,-1.007084E0,2.688211E-1,2.4026981E-1,-3.4168884E-1,6.122709E-1,3.3870065E-1,4.4102007E-1,1.0329326E0,-3.5669205E-1,4.3762192E-1],"split_indices":[14,14,14,2,2,2,11,17,14,15,12,2,5,2,6,14,12,0,13,14,17,0,14,7,16,8,5,2,2,16,6,0,0,0,0,0,0,0,0,0,0,0,0,0,0,0,0,0,0,0,0,0,0,0,0,0,0,0,0,0,0,0,0],"split_type":[0,0,0,0,0,0,0,0,0,0,0,0,0,0,0,0,0,0,0,0,0,0,0,0,0,0,0,0,0,0,0,0,0,0,0,0,0,0,0,0,0,0,0,0,0,0,0,0,0,0,0,0,0,0,0,0,0,0,0,0,0,0,0],"sum_hessian":[6.591E3,3.998E3,2.593E3,9.75E2,3.023E3,1.752E3,8.41E2,7.98E2,1.77E2,1.923E3,1.1E3,1.606E3,1.46E2,7.93E2,4.8E1,6.76E2,1.22E2,7.3E1,1.04E2,1.404E3,5.19E2,6.14E2,4.86E2,6E1,1.546E3,3.3E1,1.13E2,4.17E2,3.76E2,4.1E1,7E0,4.01E2,2.75E2,2E0,1.2E2,5E0,6.8E1,8.6E1,1.8E1,3.48E2,1.056E3,2E1,4.99E2,5.89E2,2.5E1,1.69E2,3.17E2,1.4E1,4.6E1,1.383E3,1.63E2,2.1E1,1.2E1,1E0,1.12E2,4.07E2,1E1,4.9E1,3.27E2,2.6E1,1.5E1,4E0,3E0],"tree_param":{"num_deleted":"0","num_feature":"20","num_nodes":"63","size_leaf_vector":"1"}},{"base_weights":[-1.5038855E-3,-2.4349666E0,3.6795297E0,-5.327795E0,-1.1987915E0,2.4921954E0,6.047231E0,-6.1064343E0,-2.5106292E0,-1.9894701E0,5.077336E-1,-3.7963104E0,2.684783E0,5.185358E0,8.6129265E0,-9.262268E0,-5.4174037E0,-4.701798E0,2.139553E0,-1.2721263E1,-1.9082351E0,2.7247884E0,-4.2886057E-1,-8.6122875E0,5.778995E0,2.3724809E0,6.0616126E0,5.5016665E0,-1.8104403E0,7.1111336E0,1.324148E1,1.0942007E-2,-5.039986E-1,2.5674477E-1,-2.8039595E-1,-1.9700056E-1,-6.0129005E-1,-1.5931027E-1,2.2450367E-1,-1.2291626E0,-1.6998981E-1,-1.17569745E-1,-1.8985028E-3,1.1111219E-1,8.246643E-1,7.408276E-1,-3.1421226E-2,-5.1666653E-1,6.5949744E-1,3.343111E-1,-4.929394E-2,1.03194594E-1,3.2909808E-1,3.8767213E-1,-1.2898056E-1,-4.427677E-1,2.8158662E-1,4.4661498E-1,-1.6967687E-1,6.0841656E-1,2.677513E-1,7.2155154E-1,-4.1325416E-2],"categories":[],"categories_nodes":[],"categories_segments":[],"categories_sizes":[],"default_left":[0,0,0,0,0,0,0,0,0,0,0,0,0,0,0,0,0,0,0,0,0,0,0,0,0,0,0,0,0,0,0,0,0,0,0,0,0,0,0,0,0,0,0,0,0,0,0,0,0,0,0,0,0,0,0,0,0,0,0,0,0,0,0],"id":10,"left_children":[1,3,5,7,9,11,13,15,17,19,21,23,25,27,29,31,33,35,37,39,41,43,45,47,49,51,53,55,57,59,61,-1,-1,-1,-1,-1,-1,-1,-1,-1,-1,-1,-1,-1,-1,-1,-1,-1,-1,-1,-1,-1,-1,-1,-1,-1,-1,-1,-1,-1,-1,-1,-1],"loss_changes":[5.860996E4,1.4079645E4,7.3054297E3,2.570871E3,3.726463E3,2.1126426E3,1.8769629E3,1.9568555E3,2.6287183E3,1.6208076E3,1.8180891E3,2.4477217E3,1.7626045E3,1.4549375E3,1.4142324E3,1.2736543E3,1.5566777E3,9.2900073E2,1.0533254E3,1.464418E3,1.5531309E3,1.762362E3,1.883451E3,1.4495869E3,1.17062744E2,1.9920693E3,2.0959673E3,1.2169648E3,5.235092E2,1.409082E3,8.82126E2,0E0,0E0,0E0,0E0,0E0,0E0,0E0,0E0,0E0,0E0,0E0,0E0,0E0,0E0,0E0,0E0,0E0,0E0,0E0,0E0,0E0,0E0,0E0,0E0,0E0,0E0,0E0,0E0,0E0,0E0,0E0,0E0],"parents":[2147483647,0,0,1,1,2,2,3,3,4,4,5,5,6,6,7,7,8,8,9,9,10,10,11,11,12,12,13,13,14,14,15,15,16,16,17,17,18,18,19,19,20,20,21,21,22,22,23,23,24,24,25,25,26,26,27,27,28,28,29,29,30,30],"right_children":[2,4,6,8,10,12,14,16,18,20,22,24,26,28,30,32,34,36,38,40,42,44,46,48,50,52,54,56,58,60,62,-1,-1,-1,-1,-1,-1,-1,-1,-1,-1,-1,-1,-1,-1,-1,-1,-1,-1,-1,-1,-1,-1,-1,-1,-1,-1,-1,-1,-1,-1,-1,-1],"split_conditions":[3.586163E1,-1.3303198E2,1.6583012E2,1E0,1.0858948E0,2.088E2,5.39E-2,-1.6529045E1,-6.670876E0,-4.7006625E-1,2.21E2,4.471837E0,8.89E-2,5E-2,2.794877E2,-1.019E-1,-1.1E1,2E0,-1.9536726E2,7.3E0,1E0,2.387E2,1.1792328E0,3.05E-2,1.3372013E1,1.3793062E1,1.357E-1,-1.342E-1,2.157E2,5.3956833E-2,5.7E0,1.0942007E-2,-5.039986E-1,2.5674477E-1,-2.8039595E-1,-1.9700056E-1,-6.0129005E-1,-1.5931027E-1,2.2450367E-1,-1.2291626E0,-1.6998981E-1,-1.17569745E-1,-1.8985028E-3,1.1111219E-1,8.246643E-1,7.408276E-1,-3.1421226E-2,-5.1666653E-1,6.5949744E-1,3.343111E-1,-4.929394E-2,1.03194594E-1,3.2909808E-1,3.8767213E-1,-1.2898056E-1,-4.427677E-1,2.8158662E-1,4.4661498E-1,-1.6967687E-1,6.0841656E-1,2.677513E-1,7.2155154E-1,-4.1325416E-2],"split_indices":[14,14,14,19,2,11,5,2,2,17,11,2,5,5,14,5,10,16,14,10,19,12,2,3,2,2,5,5,11,17,7,0,0,0,0,0,0,0,0,0,0,0,0,0,0,0,0,0,0,0,0,0,0,0,0,0,0,0,0,0,0,0,0],"split_type":[0,0,0,0,0,0,0,0,0,0,0,0,0,0,0,0,0,0,0,0,0,0,0,0,0,0,0,0,0,0,0,0,0,0,0,0,0,0,0,0,0,0,0,0,0,0,0,0,0,0,0,0,0,0,0,0,0,0,0,0,0,0,0],"sum_hessian":[6.541E3,3.938E3,2.603E3,1.178E3,2.76E3,1.735E3,8.68E2,9.22E2,2.56E2,1.886E3,8.74E2,5.1E1,1.684E3,6.52E2,2.16E2,1.63E2,7.59E2,1.74E2,8.2E1,1.3E1,1.873E3,2.59E2,6.15E2,3.4E1,1.7E1,1.543E3,1.41E2,6.24E2,2.8E1,1.65E2,5.1E1,1.3E1,1.5E2,1.3E1,7.46E2,1.59E2,1.5E1,2.5E1,5.7E1,5E0,8E0,1.514E3,3.59E2,2.51E2,8E0,7E0,6.08E2,3.2E1,2E0,1.5E1,2E0,1.439E3,1.04E2,1.18E2,2.3E1,5E0,6.19E2,3E0,2.5E1,4.1E1,1.24E2,4.7E1,4E0],"tree_param":{"num_deleted":"0","num_feature":"20","num_nodes":"63","size_leaf_vector":"1"}},{"base_weights":[-2.3979455E-2,-2.5097134E0,2.4617617E0,-4.934808E0,-1.5180182E0,1.0148088E0,4.0728693E0,-8.301225E0,-4.219376E0,-2.1032367E0,1.1759424E0,2.0324829E0,-1.4609018E-1,3.3681316E0,5.8837857E0,-6.74823E0,-1.2871375E1,-7.847607E0,-3.503829E0,-2.2844017E0,6.2418814E0,3.6240933E0,-8.891357E-1,-4.8448727E-2,3.079806E0,2.5363367E0,-1.0238959E0,1.6844797E1,3.2439096E0,4.357323E0,7.839479E0,-3.0268443E-1,-1.1172701E0,-3.7020314E-1,-8.628298E-1,-6.1342087E-2,-4.7136703E-1,-1.8864602E-1,1.6014875E-1,-1.8132763E-1,-7.673211E-2,4.383486E-1,-2.955006E-2,-1.0679554E-1,3.4496543E-1,3.0527854E-2,-2.2398022E-1,6.545814E-2,-1.355746E-1,5.235821E-1,1.3937104E-1,7.875218E-1,9.5185794E-2,-2.092378E-1,-1.646188E-2,1.2728128E-1,1.0050694E0,6.274926E-2,1.957474E-1,2.3925467E-1,-3.7194857E-1,2.3642552E-1,5.4019874E-1],"categories":[],"categories_nodes":[],"categories_segments":[],"categories_sizes":[],"default_left":[0,0,0,0,0,0,0,0,0,0,0,0,0,0,0,0,0,0,0,0,0,0,0,0,0,0,0,0,0,0,0,0,0,0,0,0,0,0,0,0,0,0,0,0,0,0,0,0,0,0,0,0,0,0,0,0,0,0,0,0,0,0,0],"id":11,"left_children":[1,3,5,7,9,11,13,15,17,19,21,23,25,27,29,31,33,35,37,39,41,43,45,47,49,51,53,55,57,59,61,-1,-1,-1,-1,-1,-1,-1,-1,-1,-1,-1,-1,-1,-1,-1,-1,-1,-1,-1,-1,-1,-1,-1,-1,-1,-1,-1,-1,-1,-1,-1,-1],"loss_changes":[4.0595316E4,7.892783E3,7.6538496E3,2.2602168E3,3.6805762E3,2.0465112E3,1.9634297E3,1.0913135E3,2.0182861E3,2.912462E3,2.1114172E3,2.011742E3,1.9098633E3,1.8220186E3,1.261459E3,1.2296709E3,8.552212E2,1.3376514E3,1.2032158E3,1.8832412E3,7.125807E2,3.617999E3,1.2250393E3,1.124317E3,1.2978267E3,1.641919E3,1.3402058E3,4.1449487E2,1.4792119E3,1.276938E3,1.691957E3,0E0,0E0,0E0,0E0,0E0,0E0,0E0,0E0,0E0,0E0,0E0,0E0,0E0,0E0,0E0,0E0,0E0,0E0,0E0,0E0,0E0,0E0,0E0,0E0,0E0,0E0,0E0,0E0,0E0,0E0,0E0,0E0],"parents":[2147483647,0,0,1,1,2,2,3,3,4,4,5,5,6,6,7,7,8,8,9,9,10,10,11,11,12,12,13,13,14,14,15,15,16,16,17,17,18,18,19,19,20,20,21,21,22,22,23,23,24,24,25,25,26,26,27,27,28,28,29,29,30,30],"right_children":[2,4,6,8,10,12,14,16,18,20,22,24,26,28,30,32,34,36,38,40,42,44,46,48,50,52,54,56,58,60,62,-1,-1,-1,-1,-1,-1,-1,-1,-1,-1,-1,-1,-1,-1,-1,-1,-1,-1,-1,-1,-1,-1,-1,-1,-1,-1,-1,-1,-1,-1,-1,-1],"split_conditions":[-2.6117122E-1,-9.871115E0,6.7366004E0,-1.8913536E1,8.497858E-2,2.261E2,1.3793062E1,3.25E0,2.1207825E2,6.582995E0,2.2044716E2,-3.5966884E-2,-1.8E0,-1.56614485E1,2.271E2,1.12E-2,2.231E2,2.0553775E2,1.541267E0,-4.769819E0,-2.857143E-1,2.1379877E2,1.3333334E0,2.942489E0,-1.25E1,-4.2325575E-2,2.281E2,-4.09E-2,-2.3486784E-2,2.372E2,1.7102549E1,-3.0268443E-1,-1.1172701E0,-3.7020314E-1,-8.628298E-1,-6.1342087E-2,-4.7136703E-1,-1.8864602E-1,1.6014875E-1,-1.8132763E-1,-7.673211E-2,4.383486E-1,-2.955006E-2,-1.0679554E-1,3.4496543E-1,3.0527854E-2,-2.2398022E-1,6.545814E-2,-1.355746E-1,5.235821E-1,1.3937104E-1,7.875218E-1,9.5185794E-2,-2.092378E-1,-1.646188E-2,1.2728128E-1,1.0050694E0,6.274926E-2,1.957474E-1,2.3925467E-1,-3.7194857E-1,2.3642552E-1,5.4019874E-1],"split_indices":[2,2,2,2,17,12,2,8,13,0,13,17,8,1,12,4,11,13,0,0,8,13,8,0,10,2,12,4,17,11,2,0,0,0,0,0,0,0,0,0,0,0,0,0,0,0,0,0,0,0,0,0,0,0,0,0,0,0,0,0,0,0,0],"split_type":[0,0,0,0,0,0,0,0,0,0,0,0,0,0,0,0,0,0,0,0,0,0,0,0,0,0,0,0,0,0,0,0,0,0,0,0,0,0,0,0,0,0,0,0,0,0,0,0,0,0,0,0,0,0,0,0,0,0,0,0,0,0,0],"sum_hessian":[6.568E3,3.284E3,3.284E3,9.52E2,2.332E3,1.731E3,1.553E3,1.65E2,7.87E2,1.916E3,4.16E2,9.22E2,8.09E2,1.12E3,4.33E2,1.25E2,4E1,1.28E2,6.59E2,1.876E3,4E1,1.9E2,2.26E2,3.09E2,6.13E2,1.99E2,6.1E2,9E0,1.111E3,2.45E2,1.88E2,1.21E2,4E0,1.9E1,2.1E1,2.5E1,1.03E2,6.34E2,2.5E1,6.71E2,1.205E3,2.9E1,1.1E1,6.9E1,1.21E2,1.6E2,6.6E1,2.05E2,1.04E2,2.2E1,5.91E2,8E0,1.91E2,1.09E2,5.01E2,2E0,7E0,2.81E2,8.3E2,2.37E2,8E0,9.3E1,9.5E1],"tree_param":{"num_deleted":"0","num_feature":"20","num_nodes":"63","size_leaf_vector":"1"}},{"base_weights":[-1.1804057E-2,-1.9552233E0,3.7136605E0,-4.6214767E0,-7.4076563E-1,3.037675E0,7.0571322E0,-5.3663936E0,-1.9073341E0,-1.5227622E0,1.3742168E-1,2.2393308E0,4.358709E0,6.041078E0,1.0675949E1,-5.604001E0,2.7397318E0,-3.1806357E0,3.2182002E0,-2.1314652E0,1.4973097E-1,8.986908E0,-8.182082E-2,6.008774E0,1.8294294E0,-9.099415E0,4.4672174E0,6.320694E0,-6.525862E0,1.6363392E1,7.7431483E0,-2.55893E-1,-4.3504342E-1,2.6440424E-1,-1.5703091E-1,-3.9156094E-1,-1.1930261E-1,-4.4307277E-1,2.6434013E-1,-2.2151163E-1,-8.682487E-2,3.847322E-1,-1.9273868E-2,2.6263055E-1,1.0233399E0,-1.4363587E-1,2.0946693E-2,-2.1772318E-1,4.0525952E-1,-2.069663E-2,1.1829566E-1,-4.929905E-1,-1.324361E-1,3.4469828E-1,1.9016452E-1,4.1623005E-1,2.2897556E-1,3.219945E-1,-8.9300746E-1,-4.6876233E-2,8.892483E-1,5.2186483E-1,-1.5833916E-2],"categories":[],"categories_nodes":[],"categories_segments":[],"categories_sizes":[],"default_left":[0,0,0,0,0,0,0,0,0,0,0,0,0,0,0,0,0,0,0,0,0,0,0,0,0,0,0,0,0,0,0,0,0,0,0,0,0,0,0,0,0,0,0,0,0,0,0,0,0,0,0,0,0,0,0,0,0,0,0,0,0,0,0],"id":12,"left_children":[1,3,5,7,9,11,13,15,17,19,21,23,25,27,29,31,33,35,37,39,41,43,45,47,49,51,53,55,57,59,61,-1,-1,-1,-1,-1,-1,-1,-1,-1,-1,-1,-1,-1,-1,-1,-1,-1,-1,-1,-1,-1,-1,-1,-1,-1,-1,-1,-1,-1,-1,-1,-1],"loss_changes":[4.7813902E4,1.4049725E4,5.0955156E3,2.7353828E3,2.0487532E3,1.9782344E3,1.3327324E3,2.066621E3,1.9289833E3,1.6068047E3,2.7286335E3,1.8075903E3,1.0760176E3,1.0919092E3,1.2410664E3,1.5136758E3,4.811493E2,8.533994E2,1.5211404E3,1.0427925E3,1.7070443E3,1.3500525E3,1.9200457E3,2.533745E3,1.2803286E3,3.3145142E0,1.1080537E3,9.842051E2,1.1437203E3,6.807261E2,1.2193105E3,0E0,0E0,0E0,0E0,0E0,0E0,0E0,0E0,0E0,0E0,0E0,0E0,0E0,0E0,0E0,0E0,0E0,0E0,0E0,0E0,0E0,0E0,0E0,0E0,0E0,0E0,0E0,0E0,0E0,0E0,0E0,0E0],"parents":[2147483647,0,0,1,1,2,2,3,3,4,4,5,5,6,6,7,7,8,8,9,9,10,10,11,11,12,12,13,13,14,14,15,15,16,16,17,17,18,18,19,19,20,20,21,21,22,22,23,23,24,24,25,25,26,26,27,27,28,28,29,29,30,30],"right_children":[2,4,6,8,10,12,14,16,18,20,22,24,26,28,30,32,34,36,38,40,42,44,46,48,50,52,54,56,58,60,62,-1,-1,-1,-1,-1,-1,-1,-1,-1,-1,-1,-1,-1,-1,-1,-1,-1,-1,-1,-1,-1,-1,-1,-1,-1,-1,-1,-1,-1,-1,-1,-1],"split_conditions":[5.4702175E1,-1.1862702E2,2.3037122E2,1E0,-1.0983671E0,2.1E0,1E0,2.2904327E0,-1.4557599E2,1E0,-6.58E-2,-3.4E0,-5E0,2.8E0,-2.4E0,4.564184E-3,5.2E0,-6.99E-2,-1.240005E1,2.1191457E2,-6E0,2.4761906E0,-5.959612E1,-4.65E-2,-2.3E0,4.7023096E0,0E0,1.3E0,3.69E-2,-3.4E0,5.36E-2,-2.55893E-1,-4.3504342E-1,2.6440424E-1,-1.5703091E-1,-3.9156094E-1,-1.1930261E-1,-4.4307277E-1,2.6434013E-1,-2.2151163E-1,-8.682487E-2,3.847322E-1,-1.9273868E-2,2.6263055E-1,1.0233399E0,-1.4363587E-1,2.0946693E-2,-2.1772318E-1,4.0525952E-1,-2.069663E-2,1.1829566E-1,-4.929905E-1,-1.324361E-1,3.4469828E-1,1.9016452E-1,4.1623005E-1,2.2897556E-1,3.219945E-1,-8.9300746E-1,-4.6876233E-2,8.892483E-1,5.2186483E-1,-1.5833916E-2],"split_indices":[14,14,14,19,2,6,19,2,14,15,4,8,16,8,8,17,9,5,2,13,16,8,14,5,7,2,16,7,5,7,4,0,0,0,0,0,0,0,0,0,0,0,0,0,0,0,0,0,0,0,0,0,0,0,0,0,0,0,0,0,0,0,0],"split_type":[0,0,0,0,0,0,0,0,0,0,0,0,0,0,0,0,0,0,0,0,0,0,0,0,0,0,0,0,0,0,0,0,0,0,0,0,0,0,0,0,0,0,0,0,0,0,0,0,0,0,0,0,0,0,0,0,0,0,0,0,0,0,0],"sum_hessian":[6.602E3,4.339E3,2.263E3,1.357E3,2.982E3,1.884E3,3.79E2,1.064E3,2.93E2,1.577E3,1.405E3,1.176E3,7.08E2,2.98E2,8.1E1,1.034E3,3E1,2.35E2,5.8E1,1.156E3,4.21E2,3.3E1,1.372E3,1.14E2,1.062E3,5E0,7.03E2,2.92E2,6E0,2.6E1,5.5E1,8.96E2,1.38E2,2.1E1,9E0,3.3E1,2.02E2,8E0,5E1,1.68E2,9.88E2,2.7E1,3.94E2,2.6E1,7E0,2.08E2,1.164E3,1.9E1,9.5E1,2.05E2,8.57E2,4E0,1E0,1.49E2,5.54E2,1.34E2,1.58E2,3E0,3E0,2E0,2.4E1,4.1E1,1.4E1],"tree_param":{"num_deleted":"0","num_feature":"20","num_nodes":"63","size_leaf_vector":"1"}},{"base_weights":[4.796899E-3,-1.9577043E0,2.761591E0,-3.7747567E0,-8.476883E-1,1.984721E0,5.117844E0,-6.8950167E0,-3.2776651E0,-2.0241578E0,5.2181277E-2,1.7534269E0,5.203427E0,4.686527E0,1.0960643E1,-5.778328E0,-1.2796372E1,6.8618307E0,-3.4380448E0,-1.4016759E0,-4.279955E0,-2.1956835E0,7.75908E-1,7.79262E-1,2.619012E0,4.456432E0,1.6785042E1,-9.667637E0,4.83882E0,7.8970723E0,1.898267E1,1.4166744E-1,-3.2846665E-1,-2.4477188E-1,-8.448557E-1,1.9586904E-2,9.410877E-1,-2.2272468E-1,-9.3507074E-2,-2.0496951E-1,-4.1075423E-2,-5.176309E-1,-1.7151242E-1,7.2834715E-3,-1.874737E-1,3.0464247E-2,5.0457317E-1,1.43143E-1,2.8431911E-3,8.976506E-5,1.7138313E-1,1.1512342E-2,3.1557828E-1,6.1652984E-2,9.4153017E-1,6.2016893E-2,-5.846178E-1,7.535919E-1,2.2991982E-1,4.2434582E-1,-3.039404E-1,1.0437925E0,-4.6057105E-2],"categories":[],"categories_nodes":[],"categories_segments":[],"categories_sizes":[],"default_left":[0,0,0,0,0,0,0,0,0,0,0,0,0,0,0,0,0,0,0,0,0,0,0,0,0,0,0,0,0,0,0,0,0,0,0,0,0,0,0,0,0,0,0,0,0,0,0,0,0,0,0,0,0,0,0,0,0,0,0,0,0,0,0],"id":13,"left_children":[1,3,5,7,9,11,13,15,17,19,21,23,25,27,29,31,33,35,37,39,41,43,45,47,49,51,53,55,57,59,61,-1,-1,-1,-1,-1,-1,-1,-1,-1,-1,-1,-1,-1,-1,-1,-1,-1,-1,-1,-1,-1,-1,-1,-1,-1,-1,-1,-1,-1,-1,-1,-1],"loss_changes":[3.57128E4,7.7741875E3,5.014574E3,2.245043E3,2.5356187E3,1.5289463E3,1.6623008E3,1.2440537E3,2.0774424E3,1.4515522E3,2.2109521E3,1.6245356E3,1.1190925E3,1.434919E3,9.8059033E2,1.1766338E3,9.216714E2,1.5402631E3,1.9742236E3,1.2722101E3,1.1203237E3,1.2047148E3,1.5894988E3,1.3680525E3,2.160853E3,1.0256047E3,2.3128076E2,1.6910162E2,1.4781982E3,3.4011597E2,4.7140723E2,0E0,0E0,0E0,0E0,0E0,0E0,0E0,0E0,0E0,0E0,0E0,0E0,0E0,0E0,0E0,0E0,0E0,0E0,0E0,0E0,0E0,0E0,0E0,0E0,0E0,0E0,0E0,0E0,0E0,0E0,0E0,0E0],"parents":[2147483647,0,0,1,1,2,2,3,3,4,4,5,5,6,6,7,7,8,8,9,9,10,10,11,11,12,12,13,13,14,14,15,15,16,16,17,17,18,18,19,19,20,20,21,21,22,22,23,23,24,24,25,25,26,26,27,27,28,28,29,29,30,30],"right_children":[2,4,6,8,10,12,14,16,18,20,22,24,26,28,30,32,34,36,38,40,42,44,46,48,50,52,54,56,58,60,62,-1,-1,-1,-1,-1,-1,-1,-1,-1,-1,-1,-1,-1,-1,-1,-1,-1,-1,-1,-1,-1,-1,-1,-1,-1,-1,-1,-1,-1,-1,-1,-1],"split_conditions":[1.7591944E0,-7.3955684E0,1.1661751E1,-1.7586868E1,-4.701258E-2,2E0,3.8529554E-1,3.8E0,-1.114E-1,6.4E0,2.199E2,4.6352584E-2,6.4E0,-1.172E-1,1E0,-1.019E-1,2.229E2,-1.5E0,2.278E2,-7.1238585E0,-1.9906507E0,2.144E2,1.0557867E1,0E0,0E0,2.217E2,4.2391863E0,-3.5E0,-8.63E-2,1.049E-1,1.4158264E0,1.4166744E-1,-3.2846665E-1,-2.4477188E-1,-8.448557E-1,1.9586904E-2,9.410877E-1,-2.2272468E-1,-9.3507074E-2,-2.0496951E-1,-4.1075423E-2,-5.176309E-1,-1.7151242E-1,7.2834715E-3,-1.874737E-1,3.0464247E-2,5.0457317E-1,1.43143E-1,2.8431911E-3,8.976506E-5,1.7138313E-1,1.1512342E-2,3.1557828E-1,6.1652984E-2,9.4153017E-1,6.2016893E-2,-5.846178E-1,7.535919E-1,2.2991982E-1,4.2434582E-1,-3.039404E-1,1.0437925E0,-4.6057105E-2],"split_indices":[2,2,2,2,17,15,17,8,4,10,11,17,7,5,15,5,11,7,11,0,0,11,1,16,15,11,2,7,5,5,1,0,0,0,0,0,0,0,0,0,0,0,0,0,0,0,0,0,0,0,0,0,0,0,0,0,0,0,0,0,0,0,0],"split_type":[0,0,0,0,0,0,0,0,0,0,0,0,0,0,0,0,0,0,0,0,0,0,0,0,0,0,0,0,0,0,0,0,0,0,0,0,0,0,0,0,0,0,0,0,0,0,0,0,0,0,0,0,0,0,0,0,0,0,0,0,0,0,0],"sum_hessian":[6.599E3,3.855E3,2.744E3,1.461E3,2.394E3,2.065E3,6.79E2,1.99E2,1.262E3,1.037E3,1.357E3,1.928E3,1.37E2,6.34E2,4.5E1,1.69E2,3E1,1.9E1,1.243E3,8.14E2,2.23E2,3.3E2,1.027E3,9.08E2,1.02E3,1.3E2,7E0,6E0,6.28E2,3.4E1,1.1E1,1.4E1,1.55E2,1.1E1,1.9E1,1.3E1,6E0,7.53E2,4.9E2,1.43E2,6.71E2,2.6E1,1.97E2,1.32E2,1.98E2,1.01E3,1.7E1,2.33E2,6.75E2,2.41E2,7.79E2,4E1,9E1,1E0,6E0,1E0,5E0,1.3E1,6.15E2,3.3E1,1E0,1E1,1E0],"tree_param":{"num_deleted":"0","num_feature":"20","num_nodes":"63","size_leaf_vector":"1"}},{"base_weights":[-2.9361187E-2,-1.8439351E0,3.3064017E0,-3.6600091E0,-6.660807E-1,2.0757942E0,5.3700438E0,-6.781419E0,-3.0716352E0,-2.3180747E-1,-3.1962793E0,1.5003799E0,3.9128325E0,6.655493E0,4.0057898E0,-3.304202E0,-8.017857E0,-3.7563188E0,-1.650129E0,-5.4328585E-1,3.0447268E0,-1.3453627E1,-2.741622E0,7.054215E0,1.1574285E0,2.6186569E0,6.6758E0,6.334294E0,1.5526564E1,3.06653E0,9.69982E0,-3.1416327E-1,1.6578414E-1,-3.3247504E-1,-6.182539E-1,-2.2099257E-1,-6.1734777E-2,-3.3731934E-1,-4.8289906E-2,2.4416449E-2,-5.931396E-2,6.179393E-1,1.12582006E-1,1.1272899E-1,-9.438788E-1,-3.3238575E-2,-2.2607096E-1,-1.939051E-1,4.3283063E-1,5.338627E-2,7.2301805E-1,1.8106835E-1,-1.0296867E-1,-2.0794366E-1,4.0155512E-1,3.3853176E-1,-1.08238995E-1,9.5269626E-1,-8.46412E-1,1.3378017E-1,5.7498467E-1,-8.912633E-2,5.6249946E-1],"categories":[],"categories_nodes":[],"categories_segments":[],"categories_sizes":[],"default_left":[0,0,0,0,0,0,0,0,0,0,0,0,0,0,0,0,0,0,0,0,0,0,0,0,0,0,0,0,0,0,0,0,0,0,0,0,0,0,0,0,0,0,0,0,0,0,0,0,0,0,0,0,0,0,0,0,0,0,0,0,0,0,0],"id":14,"left_children":[1,3,5,7,9,11,13,15,17,19,21,23,25,27,29,31,33,35,37,39,41,43,45,47,49,51,53,55,57,59,61,-1,-1,-1,-1,-1,-1,-1,-1,-1,-1,-1,-1,-1,-1,-1,-1,-1,-1,-1,-1,-1,-1,-1,-1,-1,-1,-1,-1,-1,-1,-1,-1],"loss_changes":[4.0270574E4,9.214817E3,5.9415195E3,3.0921309E3,2.8726143E3,1.5480049E3,1.5078086E3,1.1257373E3,1.3836494E3,2.280586E3,1.7492654E3,2.1269988E3,1.2340361E3,1.1810234E3,2.2539253E3,1.440749E3,1.0896416E3,1.6058125E3,1.6186715E3,1.3537551E3,1.4052228E3,1.4057693E3,1.3572593E3,1.1722356E3,1.2458932E3,1.1332279E3,1.663353E3,1.6278516E3,2.0397456E3,1.182435E3,1.0880283E3,0E0,0E0,0E0,0E0,0E0,0E0,0E0,0E0,0E0,0E0,0E0,0E0,0E0,0E0,0E0,0E0,0E0,0E0,0E0,0E0,0E0,0E0,0E0,0E0,0E0,0E0,0E0,0E0,0E0,0E0,0E0,0E0],"parents":[2147483647,0,0,1,1,2,2,3,3,4,4,5,5,6,6,7,7,8,8,9,9,10,10,11,11,12,12,13,13,14,14,15,15,16,16,17,17,18,18,19,19,20,20,21,21,22,22,23,23,24,24,25,25,26,26,27,27,28,28,29,29,30,30],"right_children":[2,4,6,8,10,12,14,16,18,20,22,24,26,28,30,32,34,36,38,40,42,44,46,48,50,52,54,56,58,60,62,-1,-1,-1,-1,-1,-1,-1,-1,-1,-1,-1,-1,-1,-1,-1,-1,-1,-1,-1,-1,-1,-1,-1,-1,-1,-1,-1,-1,-1,-1,-1,-1],"split_conditions":[5.175272E1,-9.3225716E1,1.6583012E2,-2.602119E2,1E0,3.4E0,1.6055046E-1,2.1644325E2,2.295E2,7.588938E0,2.0737706E2,-3.8E0,1.5645827E-1,5.668056E0,3.8529554E-1,2.1356187E2,3.25E0,1E0,-2.5993112E-1,2.22E2,2.1E2,-2.1E0,-5E-1,2.154E2,1.9351908E1,7.4E0,-3.4E0,4.2E0,8.68035E0,8.3E0,7.2793193E0,-3.1416327E-1,1.6578414E-1,-3.3247504E-1,-6.182539E-1,-2.2099257E-1,-6.1734777E-2,-3.3731934E-1,-4.8289906E-2,2.4416449E-2,-5.931396E-2,6.179393E-1,1.12582006E-1,1.1272899E-1,-9.438788E-1,-3.3238575E-2,-2.2607096E-1,-1.939051E-1,4.3283063E-1,5.338627E-2,7.2301805E-1,1.8106835E-1,-1.0296867E-1,-2.0794366E-1,4.0155512E-1,3.3853176E-1,-1.08238995E-1,9.5269626E-1,-8.46412E-1,1.3378017E-1,5.7498467E-1,-8.912633E-2,5.6249946E-1],"split_indices":[14,14,14,14,18,6,17,13,11,2,13,8,17,1,17,13,8,19,17,12,12,10,9,12,2,6,7,10,2,6,2,0,0,0,0,0,0,0,0,0,0,0,0,0,0,0,0,0,0,0,0,0,0,0,0,0,0,0,0,0,0,0,0],"split_type":[0,0,0,0,0,0,0,0,0,0,0,0,0,0,0,0,0,0,0,0,0,0,0,0,0,0,0,0,0,0,0,0,0,0,0,0,0,0,0,0,0,0,0,0,0,0,0,0,0,0,0,0,0,0,0,0,0,0,0,0,0,0,0],"sum_hessian":[6.651E3,4.308E3,2.343E3,1.694E3,2.614E3,1.469E3,8.74E2,2.67E2,1.427E3,2.232E3,3.82E2,1.12E3,3.49E2,4.48E2,4.26E2,7.1E1,1.96E2,9.62E2,4.65E2,2.039E3,1.93E2,1.5E1,3.67E2,6.4E1,1.056E3,2.39E2,1.1E2,4.34E2,1.4E1,3.67E2,5.9E1,4.9E1,2.2E1,1.51E2,4.5E1,7.61E2,2.01E2,5.4E1,4.11E2,7.83E2,1.256E3,1.4E1,1.79E2,4E0,1.1E1,1.7E2,1.97E2,8E0,5.6E1,1.05E3,6E0,1.97E2,4.2E1,1.2E1,9.8E1,4.13E2,2.1E1,1.3E1,1E0,3.52E2,1.5E1,7E0,5.2E1],"tree_param":{"num_deleted":"0","num_feature":"20","num_nodes":"63","size_leaf_vector":"1"}},{"base_weights":[1.4819643E-1,-1.7587026E0,3.0296922E0,-3.546785E0,-4.6667165E-1,2.0374274E0,5.065284E0,-7.085925E0,-2.9523442E0,-7.4242294E-2,-2.79605E0,1.8313379E0,6.8293366E0,4.280841E0,7.3064466E0,-1.1492453E1,-5.9932885E0,-4.4090667E0,-2.0530474E0,1.2473632E0,-8.751545E-1,-5.897573E-1,-4.8193316E0,6.8708034E0,1.6950991E0,1.063116E1,2.9456885E0,4.091027E0,1.864614E1,7.7255597E0,-4.765745E0,2.9719433E-1,-6.210051E-1,-1.22303426E-1,-3.853345E-1,-8.280476E-2,-2.890476E-1,-1.4240813E-2,-1.6151047E-1,-9.352143E-3,1.5101758E-1,-5.7545174E-2,1.8037055E-1,-4.3112096E-1,2.809892E-2,-5.1131E-1,-1.7552161E-1,9.5625347E-1,1.3520528E-1,1.04076445E-1,-3.363196E-2,6.1861646E-1,8.251365E-2,6.504108E-2,5.613682E-1,3.2478878E-1,1.4884005E-1,4.1452715E-1,1.6570977E0,4.135274E-1,2.4923993E-2,3.3998024E-2,-4.0845805E-1],"categories":[],"categories_nodes":[],"categories_segments":[],"categories_sizes":[],"default_left":[0,0,0,0,0,0,0,0,0,0,0,0,0,0,0,0,0,0,0,0,0,0,0,0,0,0,0,0,0,0,0,0,0,0,0,0,0,0,0,0,0,0,0,0,0,0,0,0,0,0,0,0,0,0,0,0,0,0,0,0,0,0,0],"id":15,"left_children":[1,3,5,7,9,11,13,15,17,19,21,23,25,27,29,31,33,35,37,39,41,43,45,47,49,51,53,55,57,59,61,-1,-1,-1,-1,-1,-1,-1,-1,-1,-1,-1,-1,-1,-1,-1,-1,-1,-1,-1,-1,-1,-1,-1,-1,-1,-1,-1,-1,-1,-1,-1,-1],"loss_changes":[3.5984766E4,9.103071E3,5.2574375E3,3.4566777E3,2.092205E3,1.720666E3,1.4701074E3,1.0722129E3,1.8472539E3,2.075732E3,1.4702622E3,1.1445381E3,1.0317598E3,1.6551953E3,1.1499326E3,8.1786426E2,1.1480889E3,2.0298779E3,1.8266318E3,1.8825219E3,1.513384E3,1.4758346E3,1.1813535E3,2.194916E3,1.5028574E3,5.425232E2,4.8941864E2,1.6633477E3,9.261377E2,8.348154E2,1.5382672E2,0E0,0E0,0E0,0E0,0E0,0E0,0E0,0E0,0E0,0E0,0E0,0E0,0E0,0E0,0E0,0E0,0E0,0E0,0E0,0E0,0E0,0E0,0E0,0E0,0E0,0E0,0E0,0E0,0E0,0E0,0E0,0E0],"parents":[2147483647,0,0,1,1,2,2,3,3,4,4,5,5,6,6,7,7,8,8,9,9,10,10,11,11,12,12,13,13,14,14,15,15,16,16,17,17,18,18,19,19,20,20,21,21,22,22,23,23,24,24,25,25,26,26,27,27,28,28,29,29,30,30],"right_children":[2,4,6,8,10,12,14,16,18,20,22,24,26,28,30,32,34,36,38,40,42,44,46,48,50,52,54,56,58,60,62,-1,-1,-1,-1,-1,-1,-1,-1,-1,-1,-1,-1,-1,-1,-1,-1,-1,-1,-1,-1,-1,-1,-1,-1,-1,-1,-1,-1,-1,-1,-1,-1],"split_conditions":[3.586163E1,-9.3225716E1,1.6583012E2,-2.602119E2,1E0,6.2E0,5.39E-2,-7.1E-2,-6.4605026E0,2.219E2,-6E-1,-4.571429E0,-2.0999677E0,8.8E0,1.295E-1,-7.2E0,-2.75E-2,-1.1015942E1,3.6E0,1E-1,8.206923E0,-7.57E-2,-8.7E-3,-4.2E0,1E0,5.87E-2,2.302E2,-2.25E0,1E0,1.4444444E0,8.259051E0,2.9719433E-1,-6.210051E-1,-1.22303426E-1,-3.853345E-1,-8.280476E-2,-2.890476E-1,-1.4240813E-2,-1.6151047E-1,-9.352143E-3,1.5101758E-1,-5.7545174E-2,1.8037055E-1,-4.3112096E-1,2.809892E-2,-5.1131E-1,-1.7552161E-1,9.5625347E-1,1.3520528E-1,1.04076445E-1,-3.363196E-2,6.1861646E-1,8.251365E-2,6.504108E-2,5.613682E-1,3.2478878E-1,1.4884005E-1,4.1452715E-1,1.6570977E0,4.135274E-1,2.4923993E-2,3.3998024E-2,-4.0845805E-1],"split_indices":[14,14,14,14,18,7,5,5,0,12,9,8,1,10,5,6,5,0,10,7,2,5,3,6,18,3,12,8,15,8,0,0,0,0,0,0,0,0,0,0,0,0,0,0,0,0,0,0,0,0,0,0,0,0,0,0,0,0,0,0,0,0,0],"split_type":[0,0,0,0,0,0,0,0,0,0,0,0,0,0,0,0,0,0,0,0,0,0,0,0,0,0,0,0,0,0,0,0,0,0,0,0,0,0,0,0,0,0,0,0,0,0,0,0,0,0,0,0,0,0,0,0,0,0,0,0,0,0,0],"sum_hessian":[6.547E3,3.94E3,2.607E3,1.652E3,2.288E3,1.754E3,8.53E2,2.36E2,1.416E3,1.959E3,3.29E2,1.683E3,7.1E1,6.34E2,2.19E2,4.5E1,1.91E2,5.39E2,8.77E2,7.39E2,1.22E3,1.58E2,1.71E2,4.3E1,1.64E3,3.5E1,3.6E1,6.27E2,7E0,2.12E2,7E0,2E0,4.3E1,6.3E1,1.28E2,1.8E2,3.59E2,3.51E2,5.26E2,4.09E2,3.3E2,1.15E3,7E1,1.9E1,1.39E2,3.2E1,1.39E2,1E1,3.3E1,1.41E3,2.3E2,2.9E1,6E0,3.1E1,5E0,1.97E2,4.3E2,5E0,2E0,1.97E2,1.5E1,3E0,4E0],"tree_param":{"num_deleted":"0","num_feature":"20","num_nodes":"63","size_leaf_vector":"1"}},{"base_weights":[3.9254952E-2,-1.638619E0,2.5846255E0,-4.0901E0,-5.8297133E-1,1.6518095E0,4.537824E0,-6.4522166E0,-3.4378543E0,-1.229686E0,1.194534E0,2.1156723E0,-2.7027896E-1,3.7977033E0,7.6781054E0,-4.2759023E0,-8.646272E0,-4.1562247E0,-9.91414E-1,-1.5340685E0,2.2952132E0,1.3817731E0,-7.9474754E0,1.8230026E0,6.1067567E0,4.421418E-1,-6.2126503E0,2.3226376E0,5.492755E0,2.498448E0,1.0148881E1,-1.6050069E-1,-6.1523855E-1,-3.3920416E-1,-7.220606E-1,-2.84746E-1,-1.6223943E-1,-3.9008686E-1,5.9160837E-3,4.2927513E-1,-7.8832716E-2,3.621074E-1,-5.4587703E-3,3.21781E-2,1.7230837E-1,-9.113682E-1,-1.9292782E-1,1.3833508E-1,5.0616372E-2,4.3475595E-1,1.8122084E-3,-1.7090283E-1,7.935227E-2,-4.9230573E-1,1.6353193E-1,1.3767727E-1,-4.3849275E-1,5.1768845E-1,2.3267816E-1,2.7915093E-1,-1.9047481E-1,2.866651E-1,6.9282824E-1],"categories":[],"categories_nodes":[],"categories_segments":[],"categories_sizes":[],"default_left":[0,0,0,0,0,0,0,0,0,0,0,0,0,0,0,0,0,0,0,0,0,0,0,0,0,0,0,0,0,0,0,0,0,0,0,0,0,0,0,0,0,0,0,0,0,0,0,0,0,0,0,0,0,0,0,0,0,0,0,0,0,0,0],"id":16,"left_children":[1,3,5,7,9,11,13,15,17,19,21,23,25,27,29,31,33,35,37,39,41,43,45,47,49,51,53,55,57,59,61,-1,-1,-1,-1,-1,-1,-1,-1,-1,-1,-1,-1,-1,-1,-1,-1,-1,-1,-1,-1,-1,-1,-1,-1,-1,-1,-1,-1,-1,-1,-1,-1],"loss_changes":[2.8089086E4,1.0256052E4,4.753324E3,1.8158477E3,3.1879907E3,1.5786792E3,1.932457E3,1.1901924E3,1.6426113E3,2.1847622E3,1.2776707E3,1.6545342E3,1.4632936E3,1.699957E3,2.0222861E3,1.0815833E3,1.2725215E3,9.96875E2,1.6182621E3,8.202749E2,1.9276758E3,1.1041765E3,5.6017316E2,1.01469385E3,1.5238154E3,1.3710669E3,1.3071189E3,1.7831296E3,1.249043E3,1.0525054E3,1.6886846E3,0E0,0E0,0E0,0E0,0E0,0E0,0E0,0E0,0E0,0E0,0E0,0E0,0E0,0E0,0E0,0E0,0E0,0E0,0E0,0E0,0E0,0E0,0E0,0E0,0E0,0E0,0E0,0E0,0E0,0E0,0E0,0E0],"parents":[2147483647,0,0,1,1,2,2,3,3,4,4,5,5,6,6,7,7,8,8,9,9,10,10,11,11,12,12,13,13,14,14,15,15,16,16,17,17,18,18,19,19,20,20,21,21,22,22,23,23,24,24,25,25,26,26,27,27,28,28,29,29,30,30],"right_children":[2,4,6,8,10,12,14,16,18,20,22,24,26,28,30,32,34,36,38,40,42,44,46,48,50,52,54,56,58,60,62,-1,-1,-1,-1,-1,-1,-1,-1,-1,-1,-1,-1,-1,-1,-1,-1,-1,-1,-1,-1,-1,-1,-1,-1,-1,-1,-1,-1,-1,-1,-1,-1],"split_conditions":[3.586163E1,-1.3303198E2,1.6583012E2,-2.602119E2,1E0,2.7719307E0,1E0,-1.8795986E-1,1E0,5.1E0,8E0,9.24E-2,5E0,1.1661751E1,-1.01E-2,2.25E-2,-5.8E-3,-3.31E-2,-1.21E1,-1.3133717E1,-4.1E0,-1.8126571E0,-1.5E0,2.241E2,1.295E-1,-2.3E0,5.7803283E0,1.31E1,1.2879787E1,3.16E-2,-3.7825644E0,-1.6050069E-1,-6.1523855E-1,-3.3920416E-1,-7.220606E-1,-2.84746E-1,-1.6223943E-1,-3.9008686E-1,5.9160837E-3,4.2927513E-1,-7.8832716E-2,3.621074E-1,-5.4587703E-3,3.21781E-2,1.7230837E-1,-9.113682E-1,-1.9292782E-1,1.3833508E-1,5.0616372E-2,4.3475595E-1,1.8122084E-3,-1.7090283E-1,7.935227E-2,-4.9230573E-1,1.6353193E-1,1.3767727E-1,-4.3849275E-1,5.1768845E-1,2.3267816E-1,2.7915093E-1,-1.9047481E-1,2.866651E-1,6.9282824E-1],"split_indices":[14,14,14,14,15,1,19,17,19,6,16,5,16,2,5,4,4,5,9,1,10,14,6,12,5,7,2,9,2,4,1,0,0,0,0,0,0,0,0,0,0,0,0,0,0,0,0,0,0,0,0,0,0,0,0,0,0,0,0,0,0,0,0],"split_type":[0,0,0,0,0,0,0,0,0,0,0,0,0,0,0,0,0,0,0,0,0,0,0,0,0,0,0,0,0,0,0,0,0,0,0,0,0,0,0,0,0,0,0,0,0,0,0,0,0,0,0,0,0,0,0,0,0,0,0,0,0,0,0],"sum_hessian":[6.575E3,3.963E3,2.612E3,1.192E3,2.771E3,1.769E3,8.43E2,2.56E2,9.36E2,2.032E3,7.39E2,1.425E3,3.44E2,6.84E2,1.59E2,1.3E2,1.26E2,7.23E2,2.13E2,1.871E3,1.61E2,7.25E2,1.4E1,1.329E3,9.6E1,3.08E2,3.6E1,3.67E2,3.17E2,5.2E1,1.07E2,1.16E2,1.4E1,9.7E1,2.9E1,2.67E2,4.56E2,2.9E1,1.84E2,7E0,1.864E3,5.2E1,1.09E2,5.35E2,1.9E2,3E0,1.1E1,6.13E2,7.16E2,6.7E1,2.9E1,7E1,2.38E2,2.6E1,1E1,3.54E2,1.3E1,4.5E1,2.72E2,3.5E1,1.7E1,5E1,5.7E1],"tree_param":{"num_deleted":"0","num_feature":"20","num_nodes":"63","size_leaf_vector":"1"}},{"base_weights":[2.7493438E-2,-2.126846E0,2.0826414E0,-4.121904E0,-1.0399728E0,1.2312582E0,4.6650887E0,-6.4820805E0,-3.4401598E0,-1.4124653E0,1.4444035E0,7.754397E-1,2.5258515E0,4.4514093E0,1.4045234E1,-1.0660806E1,-5.3096905E0,1.0606328E0,-3.9006443E0,-2.1433048E0,-3.4768018E-1,-8.1262076E-1,5.678966E0,-7.8825986E-1,1.1621823E0,2.7025297E0,-1.4215585E1,-1.2554812E-1,4.771178E0,2.1903004E1,1.4851449E0,-2.3532727E-1,-6.879324E-1,-2.3938666E-1,-7.32186E-1,9.888121E-2,-4.5233965E-1,-1.8969247E-1,-9.997077E-1,-1.5166675E-1,-2.932675E-2,2.4039786E-1,-3.7829358E-2,-4.5689455E-1,-2.0753117E-3,2.1055706E-1,8.185771E-1,-2.3800687E-1,2.065187E-2,1.0540231E-1,1.8896883E-2,9.490373E-2,2.7936947E-1,-9.089373E-1,2.3908447E-1,-2.0268595E-1,1.9763803E-1,4.805934E-1,2.1784762E-1,1.2370409E0,3.044281E-1,2.96322E-1,-2.2188802E-1],"categories":[],"categories_nodes":[],"categories_segments":[],"categories_sizes":[],"default_left":[0,0,0,0,0,0,0,0,0,0,0,0,0,0,0,0,0,0,0,0,0,0,0,0,0,0,0,0,0,0,0,0,0,0,0,0,0,0,0,0,0,0,0,0,0,0,0,0,0,0,0,0,0,0,0,0,0,0,0,0,0,0,0],"id":17,"left_children":[1,3,5,7,9,11,13,15,17,19,21,23,25,27,29,31,33,35,37,39,41,43,45,47,49,51,53,55,57,59,61,-1,-1,-1,-1,-1,-1,-1,-1,-1,-1,-1,-1,-1,-1,-1,-1,-1,-1,-1,-1,-1,-1,-1,-1,-1,-1,-1,-1,-1,-1,-1,-1],"loss_changes":[2.8938053E4,6.914999E3,7.348748E3,1.7878672E3,1.914866E3,1.483322E3,1.5990801E3,1.1730684E3,1.8176143E3,1.398435E3,2.5851426E3,1.127564E3,1.9758086E3,1.1890146E3,1.743968E3,9.3129346E2,8.9453955E2,7.7790173E2,1.2888008E3,1.4752407E3,1.5489305E3,1.135914E3,1.4063708E3,1.7673861E3,1.1074358E3,1.4955552E3,6.1394995E2,8.8111926E2,1.4800215E3,3.4302686E2,2.3674304E2,0E0,0E0,0E0,0E0,0E0,0E0,0E0,0E0,0E0,0E0,0E0,0E0,0E0,0E0,0E0,0E0,0E0,0E0,0E0,0E0,0E0,0E0,0E0,0E0,0E0,0E0,0E0,0E0,0E0,0E0,0E0,0E0],"parents":[2147483647,0,0,1,1,2,2,3,3,4,4,5,5,6,6,7,7,8,8,9,9,10,10,11,11,12,12,13,13,14,14,15,15,16,16,17,17,18,18,19,19,20,20,21,21,22,22,23,23,24,24,25,25,26,26,27,27,28,28,29,29,30,30],"right_children":[2,4,6,8,10,12,14,16,18,20,22,24,26,28,30,32,34,36,38,40,42,44,46,48,50,52,54,56,58,60,62,-1,-1,-1,-1,-1,-1,-1,-1,-1,-1,-1,-1,-1,-1,-1,-1,-1,-1,-1,-1,-1,-1,-1,-1,-1,-1,-1,-1,-1,-1,-1,-1],"split_conditions":[-3.1160328E0,-1.3788356E2,1.6583012E2,-2.602119E2,6.36E-2,2.9E0,7.26759E0,-6.64E-2,-5.6E-2,2.2296796E2,9.4E-3,0E0,2.4014989E2,-2.04E-2,3.78E-2,-2.6E0,2.3283435E2,2.2927988E2,6.2E0,-1.7171444E0,-1.2661029E2,2.0839676E2,1.9E0,-2.5E0,3.7E-3,1.5645827E-1,-1.6645546E0,6.099949E0,-2.39E-2,2.338E2,2.9E0,-2.3532727E-1,-6.879324E-1,-2.3938666E-1,-7.32186E-1,9.888121E-2,-4.5233965E-1,-1.8969247E-1,-9.997077E-1,-1.5166675E-1,-2.932675E-2,2.4039786E-1,-3.7829358E-2,-4.5689455E-1,-2.0753117E-3,2.1055706E-1,8.185771E-1,-2.3800687E-1,2.065187E-2,1.0540231E-1,1.8896883E-2,9.490373E-2,2.7936947E-1,-9.089373E-1,2.3908447E-1,-2.0268595E-1,1.9763803E-1,4.805934E-1,2.1784762E-1,1.2370409E0,3.044281E-1,2.96322E-1,-2.2188802E-1],"split_indices":[14,14,14,14,5,6,1,5,3,13,3,15,13,3,5,7,13,13,8,2,14,13,6,7,5,17,1,2,4,11,7,0,0,0,0,0,0,0,0,0,0,0,0,0,0,0,0,0,0,0,0,0,0,0,0,0,0,0,0,0,0,0,0],"split_type":[0,0,0,0,0,0,0,0,0,0,0,0,0,0,0,0,0,0,0,0,0,0,0,0,0,0,0,0,0,0,0,0,0,0,0,0,0,0,0,0,0,0,0,0,0,0,0,0,0,0,0,0,0,0,0,0,0,0,0,0,0,0,0],"sum_hessian":[6.534E3,3.19E3,3.344E3,1.124E3,2.066E3,2.516E3,8.28E2,2.5E2,8.74E2,1.797E3,2.69E2,1.862E3,6.54E2,8.11E2,1.7E1,5.3E1,1.97E2,8.1E1,7.93E2,1.065E3,7.32E2,1.76E2,9.3E1,3.69E2,1.493E3,6.48E2,6E0,5.3E1,7.58E2,1E1,7E0,1.9E1,3.4E1,1.88E2,9E0,7.5E1,6E0,7.89E2,4E0,6.77E2,3.88E2,5.3E1,6.79E2,1.4E1,1.62E2,8.3E1,1E1,8.5E1,2.84E2,6.76E2,8.17E2,5.08E2,1.4E2,5E0,1E0,2.7E1,2.6E1,5.8E1,7E2,8E0,2E0,4E0,3E0],"tree_param":{"num_deleted":"0","num_feature":"20","num_nodes":"63","size_leaf_vector":"1"}},{"base_weights":[1.0127908E-1,-1.4668447E0,2.5266774E0,-4.5594816E0,-8.585486E-1,1.5296326E0,3.942839E0,-4.1333885E0,-1.0300367E1,-2.2861266E0,-3.167822E-1,-5.0721364E0,1.7656516E0,4.6482534E0,1.6472168E0,-4.7792673E0,-9.0151215E-1,-1.1710116E1,3.5385463E-1,-5.7247515E0,-1.691267E0,-1.829808E0,6.2606E-2,-9.26322E0,1.2545357E0,1.2624532E-1,2.2103431E0,4.1956964E0,7.9828463E0,1.4058664E1,1.0275272E0,-2.5172088E-1,2.0221794E-1,-1.21898316E-1,2.3077385E-1,-1.2717707E-1,-6.4400494E-1,2.1043356E-1,-3.6869213E-1,-4.817909E-2,-2.2315097E-1,-1.5360572E-3,-1.6878374E-1,2.1299094E-2,-1.0447615E-1,-7.3819035E-1,-2.6123384E-1,2.6575935E-1,-9.8277256E-2,-5.3428715E-1,4.075883E-2,8.4696597E-1,1.0659915E-1,7.937048E-2,2.4281517E-1,7.901328E-1,2.80709E-1,8.653641E-2,1.3049072E0,1.8086543E-2,4.2165348E-1],"categories":[],"categories_nodes":[],"categories_segments":[],"categories_sizes":[],"default_left":[0,0,0,0,0,0,0,0,0,0,0,0,0,0,0,0,0,0,0,0,0,0,0,0,0,0,0,0,0,0,0,0,0,0,0,0,0,0,0,0,0,0,0,0,0,0,0,0,0,0,0,0,0,0,0,0,0,0,0,0,0],"id":18,"left_children":[1,3,5,7,9,11,13,15,17,19,21,23,25,27,29,31,33,35,-1,37,39,41,43,45,47,49,51,53,55,57,59,-1,-1,-1,-1,-1,-1,-1,-1,-1,-1,-1,-1,-1,-1,-1,-1,-1,-1,-1,-1,-1,-1,-1,-1,-1,-1,-1,-1,-1,-1],"loss_changes":[2.5193123E4,7.5643096E3,3.6665215E3,1.5743301E3,2.6002664E3,2.3897988E3,1.731541E3,1.2836182E3,1.1852769E3,1.8824038E3,1.4001595E3,1.4169482E3,1.075769E3,1.2054707E3,1.9391304E3,1.1775547E3,8.9281885E2,4.1767725E2,0E0,2.2588667E3,1.5891003E3,1.3598782E3,1.5266338E3,6.3372314E2,2.9811102E2,2.3625051E3,1.3038691E3,1.2415039E3,1.7079658E3,1.7358948E3,1.1950809E3,0E0,0E0,0E0,0E0,0E0,0E0,0E0,0E0,0E0,0E0,0E0,0E0,0E0,0E0,0E0,0E0,0E0,0E0,0E0,0E0,0E0,0E0,0E0,0E0,0E0,0E0,0E0,0E0,0E0,0E0],"parents":[2147483647,0,0,1,1,2,2,3,3,4,4,5,5,6,6,7,7,8,8,9,9,10,10,11,11,12,12,13,13,14,14,15,15,16,16,17,17,19,19,20,20,21,21,22,22,23,23,24,24,25,25,26,26,27,27,28,28,29,29,30,30],"right_children":[2,4,6,8,10,12,14,16,18,20,22,24,26,28,30,32,34,36,-1,38,40,42,44,46,48,50,52,54,56,58,60,-1,-1,-1,-1,-1,-1,-1,-1,-1,-1,-1,-1,-1,-1,-1,-1,-1,-1,-1,-1,-1,-1,-1,-1,-1,-1,-1,-1,-1,-1],"split_conditions":[3.586163E1,-1.8977905E2,1.4208694E2,2.366E2,-5.287305E0,2.094E2,-6E-1,2.311E2,1.541267E0,2.1284561E2,0E0,4.471837E0,-2.4E0,-6.473491E-1,2.094E2,6.1E0,9.92866E0,-2.9E0,3.5385463E-1,2.0490207E2,5.8E0,1.6E0,1.02E1,0E0,2.93E-2,-8.1951685E0,-2E0,0E0,-2.8E0,2.4E0,1.89E1,-2.5172088E-1,2.0221794E-1,-1.21898316E-1,2.3077385E-1,-1.2717707E-1,-6.4400494E-1,2.1043356E-1,-3.6869213E-1,-4.817909E-2,-2.2315097E-1,-1.5360572E-3,-1.6878374E-1,2.1299094E-2,-1.0447615E-1,-7.3819035E-1,-2.6123384E-1,2.6575935E-1,-9.8277256E-2,-5.3428715E-1,4.075883E-2,8.4696597E-1,1.0659915E-1,7.937048E-2,2.4281517E-1,7.901328E-1,2.80709E-1,8.653641E-2,1.3049072E0,1.8086543E-2,4.2165348E-1],"split_indices":[14,14,14,11,0,11,10,11,0,13,15,2,7,1,11,9,1,7,0,13,10,10,10,15,4,2,15,15,6,7,9,0,0,0,0,0,0,0,0,0,0,0,0,0,0,0,0,0,0,0,0,0,0,0,0,0,0,0,0,0,0],"split_type":[0,0,0,0,0,0,0,0,0,0,0,0,0,0,0,0,0,0,0,0,0,0,0,0,0,0,0,0,0,0,0,0,0,0,0,0,0,0,0,0,0,0,0,0,0,0,0,0,0,0,0,0,0,0,0,0,0,0,0,0,0],"sum_hessian":[6.622E3,4.022E3,2.6E3,6.6E2,3.362E3,1.527E3,1.073E3,6.16E2,4.4E1,9.24E2,2.438E3,5.2E1,1.475E3,8.2E2,2.53E2,5.13E2,1.03E2,4.1E1,3E0,1.35E2,7.89E2,4.88E2,1.95E3,3.1E1,2.1E1,3.15E2,1.16E3,7.24E2,9.6E1,1.1E1,2.42E2,4.99E2,1.4E1,8.1E1,2.2E1,5E0,3.6E1,1.9E1,1.16E2,6.26E2,1.63E2,2.26E2,2.62E2,1.669E3,2.81E2,1.2E1,1.9E1,9E0,1.2E1,1.8E1,2.97E2,5E0,1.155E3,1.47E2,5.77E2,2.1E1,7.5E1,6E0,5E0,2.23E2,1.9E1],"tree_param":{"num_deleted":"0","num_feature":"20","num_nodes":"61","size_leaf_vector":"1"}},{"base_weights":[2.1312195E-1,-1.2052901E0,2.7250652E0,-2.9703722E0,-2.9809976E-1,2.2638907E0,5.123042E0,-3.11752E0,1.1049744E1,-6.4573175E-1,1.7572267E0,-5.3003244E0,2.3434966E0,7.4445686E0,3.5999727E0,-3.980299E0,-1.8665453E0,1.2902229E1,-6.6094065E-1,8.961386E0,-7.27185E-1,9.909273E-1,6.095846E0,3.8384168E0,-9.211715E0,2.048642E0,3.895064E0,-1.1557528E0,8.552547E0,2.519841E0,8.426287E0,-6.680723E-2,-2.3877946E-1,7.10792E-2,-1.44679E-1,-8.2209945E-2,7.125724E-1,-1.6903356E-1,1.19463004E-1,7.004668E-1,1.7788346E-1,-2.0179098E-2,-1.3006164E-1,-1.2532273E-2,2.2350578E-1,-2.7390248E-1,3.8639167E-1,-4.2816505E-1,3.6662933E-1,-9.1579026E-1,-2.704688E-1,9.7604446E-2,5.9086406E-1,2.1266022E-1,-6.184196E-1,-1.7740159E-1,4.0521154E-1,4.5573902E-1,-1.434881E-1,9.660172E-2,5.563478E-1,5.2553195E-1,-8.730186E-2],"categories":[],"categories_nodes":[],"categories_segments":[],"categories_sizes":[],"default_left":[0,0,0,0,0,0,0,0,0,0,0,0,0,0,0,0,0,0,0,0,0,0,0,0,0,0,0,0,0,0,0,0,0,0,0,0,0,0,0,0,0,0,0,0,0,0,0,0,0,0,0,0,0,0,0,0,0,0,0,0,0,0,0],"id":19,"left_children":[1,3,5,7,9,11,13,15,17,19,21,23,25,27,29,31,33,35,37,39,41,43,45,47,49,51,53,55,57,59,61,-1,-1,-1,-1,-1,-1,-1,-1,-1,-1,-1,-1,-1,-1,-1,-1,-1,-1,-1,-1,-1,-1,-1,-1,-1,-1,-1,-1,-1,-1,-1,-1],"loss_changes":[2.3369246E4,6.7116177E3,2.6060352E3,2.9701416E3,1.980292E3,1.2089033E3,1.3203574E3,1.5133242E3,3.3393555E2,1.8611152E3,1.3271567E3,7.8600745E2,8.9189746E2,1.4392314E3,1.188196E3,1.7453105E3,1.9526558E3,2.7857446E2,3.2964474E1,4.9571338E2,1.4247086E3,1.478446E3,1.1756404E3,3.6612714E2,4.2017554E2,1.5379121E3,1.8757051E3,4.274984E2,8.802822E2,9.448324E2,9.0886523E2,0E0,0E0,0E0,0E0,0E0,0E0,0E0,0E0,0E0,0E0,0E0,0E0,0E0,0E0,0E0,0E0,0E0,0E0,0E0,0E0,0E0,0E0,0E0,0E0,0E0,0E0,0E0,0E0,0E0,0E0,0E0,0E0],"parents":[2147483647,0,0,1,1,2,2,3,3,4,4,5,5,6,6,7,7,8,8,9,9,10,10,11,11,12,12,13,13,14,14,15,15,16,16,17,17,18,18,19,19,20,20,21,21,22,22,23,23,24,24,25,25,26,26,27,27,28,28,29,29,30,30],"right_children":[2,4,6,8,10,12,14,16,18,20,22,24,26,28,30,32,34,36,38,40,42,44,46,48,50,52,54,56,58,60,62,-1,-1,-1,-1,-1,-1,-1,-1,-1,-1,-1,-1,-1,-1,-1,-1,-1,-1,-1,-1,-1,-1,-1,-1,-1,-1,-1,-1,-1,-1,-1,-1],"split_conditions":[4.868888E1,-1.08957275E2,2.3037122E2,7.501504E0,6.16E-2,-9.265568E0,-2.25E0,-4.769819E0,-1.1862702E2,-1.018E-1,4E0,6.192951E1,9.7E0,2.178E2,3.4040403E-1,-5.04E-2,1.4158264E0,-3.3E0,8.1357E0,2.223E2,1E0,3.3561714E0,6.54E-2,-6.09E-2,-1.2111111E0,2.3896753E2,2.3676361E2,3.4407758E2,1.116E-1,2.4E2,1E0,-6.680723E-2,-2.3877946E-1,7.10792E-2,-1.44679E-1,-8.2209945E-2,7.125724E-1,-1.6903356E-1,1.19463004E-1,7.004668E-1,1.7788346E-1,-2.0179098E-2,-1.3006164E-1,-1.2532273E-2,2.2350578E-1,-2.7390248E-1,3.8639167E-1,-4.2816505E-1,3.6662933E-1,-9.1579026E-1,-2.704688E-1,9.7604446E-2,5.9086406E-1,2.1266022E-1,-6.184196E-1,-1.7740159E-1,4.0521154E-1,4.5573902E-1,-1.434881E-1,9.660172E-2,5.563478E-1,5.2553195E-1,-8.730186E-2],"split_indices":[14,14,14,0,5,2,8,0,14,4,16,14,9,12,17,3,1,8,0,11,18,2,5,4,8,13,13,14,5,12,18,0,0,0,0,0,0,0,0,0,0,0,0,0,0,0,0,0,0,0,0,0,0,0,0,0,0,0,0,0,0,0,0],"split_type":[0,0,0,0,0,0,0,0,0,0,0,0,0,0,0,0,0,0,0,0,0,0,0,0,0,0,0,0,0,0,0,0,0,0,0,0,0,0,0,0,0,0,0,0,0,0,0,0,0,0,0,0,0,0,0,0,0,0,0,0,0,0,0],"sum_hessian":[6.557E3,4.191E3,2.366E3,1.422E3,2.769E3,1.986E3,3.8E2,1.408E3,1.4E1,2.369E3,4E2,2E1,1.966E3,1.49E2,2.31E2,8.32E2,5.76E2,1.2E1,2E0,1.9E1,2.35E3,3.41E2,5.9E1,6E0,1.4E1,1.654E3,3.12E2,1.7E1,1.32E2,1.9E2,4.1E1,1.93E2,6.39E2,1.37E2,4.39E2,1E0,1.1E1,1E0,1E0,9E0,1E1,2.005E3,3.45E2,2.52E2,8.9E1,7E0,5.2E1,1E0,5E0,3E0,1.1E1,1.639E3,1.5E1,3.06E2,6E0,1.4E1,3E0,1.26E2,6E0,1.79E2,1.1E1,3.4E1,7E0],"tree_param":{"num_deleted":"0","num_feature":"20","num_nodes":"63","size_leaf_vector":"1"}},{"base_weights":[4.572086E-2,-2.0005794E0,1.6821878E0,-3.573004E0,-1.2728133E0,1.1583047E0,3.9000766E0,-9.778929E0,-3.2954855E0,-1.7740988E0,6.482231E-1,5.066148E-1,2.20378E0,5.828266E0,2.8617249E0,-1.4560462E1,9.0417486E-1,-7.895367E0,-2.9029672E0,-2.1698616E0,2.1293458E-1,1.616763E0,-2.1109436E0,9.031094E-1,-1.7644912E0,8.4913645E0,1.8631266E0,-1.1441422E0,6.357802E0,3.019428E0,-1.1935463E1,-7.896783E-1,4.3750602E-1,3.8153914E-1,-5.692277E-1,-4.9863982E-1,1.2411509E-2,-1.0880222E-1,-2.5747555E-1,-1.16853274E-1,1.7684838E-1,2.2535959E-1,-4.435394E-2,1.3917992E-1,-6.8292506E-2,-2.0220459E-1,3.2985568E-1,4.1344766E-2,6.282506E-1,5.317889E-1,-1.16501234E-1,3.2091627E-1,9.532381E-1,9.618307E-2,-7.4281096E-1,-1.7265283E-1,3.9001614E-1,2.5879055E-1,5.5646574E-1,1.3038062E-1,4.0783736E-1,-1.5436445E-1,-8.4025747E-1],"categories":[],"categories_nodes":[],"categories_segments":[],"categories_sizes":[],"default_left":[0,0,0,0,0,0,0,0,0,0,0,0,0,0,0,0,0,0,0,0,0,0,0,0,0,0,0,0,0,0,0,0,0,0,0,0,0,0,0,0,0,0,0,0,0,0,0,0,0,0,0,0,0,0,0,0,0,0,0,0,0,0,0],"id":20,"left_children":[1,3,5,7,9,11,13,15,17,19,21,23,25,27,29,31,33,35,37,39,41,43,45,47,49,51,53,55,57,59,61,-1,-1,-1,-1,-1,-1,-1,-1,-1,-1,-1,-1,-1,-1,-1,-1,-1,-1,-1,-1,-1,-1,-1,-1,-1,-1,-1,-1,-1,-1,-1,-1],"loss_changes":[2.1997645E4,3.33583E3,4.2364688E3,1.557419E3,1.9242363E3,2.01152E3,1.3788125E3,2.0053484E3,1.5749814E3,1.2461108E3,1.1097712E3,1.6413699E3,2.413079E3,9.0446387E2,1.0978108E3,9.1429395E2,1.1614719E3,1.1698003E3,1.3230068E3,1.2687686E3,1.2510656E3,1.0722288E3,1.8447476E3,1.3681406E3,1.9252417E3,1.1489419E3,1.1186108E3,3.9867102E2,1.2170117E3,9.328799E2,1.6355676E2,0E0,0E0,0E0,0E0,0E0,0E0,0E0,0E0,0E0,0E0,0E0,0E0,0E0,0E0,0E0,0E0,0E0,0E0,0E0,0E0,0E0,0E0,0E0,0E0,0E0,0E0,0E0,0E0,0E0,0E0,0E0,0E0],"parents":[2147483647,0,0,1,1,2,2,3,3,4,4,5,5,6,6,7,7,8,8,9,9,10,10,11,11,12,12,13,13,14,14,15,15,16,16,17,17,18,18,19,19,20,20,21,21,22,22,23,23,24,24,25,25,26,26,27,27,28,28,29,29,30,30],"right_children":[2,4,6,8,10,12,14,16,18,20,22,24,26,28,30,32,34,36,38,40,42,44,46,48,50,52,54,56,58,60,62,-1,-1,-1,-1,-1,-1,-1,-1,-1,-1,-1,-1,-1,-1,-1,-1,-1,-1,-1,-1,-1,-1,-1,-1,-1,-1,-1,-1,-1,-1,-1,-1],"split_conditions":[-1.880826E1,-6.5588217E0,1.8409457E2,-2.25E0,1E0,5.0236335E0,-2.25E0,2.295E2,-2.1249672E1,3E0,1E0,1E0,-2.9351838E0,2.159E2,3.6666667E0,-5.331335E0,-9.1E0,1E0,-7.9752455E0,4.2E0,-3.5E0,2.304E2,2E0,2.464E2,-4.0833335E0,2.6E0,2.4182959E2,3.2196783E2,3.4E0,2.3209396E2,-1.1302951E1,-7.896783E-1,4.3750602E-1,3.8153914E-1,-5.692277E-1,-4.9863982E-1,1.2411509E-2,-1.0880222E-1,-2.5747555E-1,-1.16853274E-1,1.7684838E-1,2.2535959E-1,-4.435394E-2,1.3917992E-1,-6.8292506E-2,-2.0220459E-1,3.2985568E-1,4.1344766E-2,6.282506E-1,5.317889E-1,-1.16501234E-1,3.2091627E-1,9.532381E-1,9.618307E-2,-7.4281096E-1,-1.7265283E-1,3.9001614E-1,2.5879055E-1,5.5646574E-1,1.3038062E-1,4.0783736E-1,-1.5436445E-1,-8.4025747E-1],"split_indices":[14,0,14,8,19,2,8,11,2,7,16,18,0,12,8,2,9,15,0,8,6,12,15,11,8,8,13,14,6,13,1,0,0,0,0,0,0,0,0,0,0,0,0,0,0,0,0,0,0,0,0,0,0,0,0,0,0,0,0,0,0,0,0],"split_type":[0,0,0,0,0,0,0,0,0,0,0,0,0,0,0,0,0,0,0,0,0,0,0,0,0,0,0,0,0,0,0,0,0,0,0,0,0,0,0,0,0,0,0,0,0,0,0,0,0,0,0,0,0,0,0,0,0,0,0,0,0,0,0],"sum_hessian":[6.567E3,2.918E3,3.649E3,9.22E2,1.996E3,2.953E3,6.96E2,3.8E1,8.84E2,1.583E3,4.13E2,1.82E3,1.133E3,2.42E2,4.54E2,2.6E1,1.2E1,6.8E1,8.16E2,1.32E3,2.63E2,3.06E2,1.07E2,1.55E3,2.7E2,5.7E1,1.076E3,1.7E1,2.25E2,4.5E2,4E0,2.5E1,1E0,8E0,4E0,5.4E1,1.4E1,6.18E2,1.98E2,1.283E3,3.7E1,5.3E1,2.1E2,2.2E2,8.6E1,8.8E1,1.9E1,1.541E3,9E0,1.1E1,2.59E2,4.9E1,8E0,1.073E3,3E0,1.4E1,3E0,1.82E2,4.3E1,4.18E2,3.2E1,2E0,2E0],"tree_param":{"num_deleted":"0","num_feature":"20","num_nodes":"63","size_leaf_vector":"1"}},{"base_weights":[1.4927906E-1,-1.898726E0,1.647767E0,-4.2087255E0,-1.3789029E0,1.1180383E0,3.9824133E0,-4.9516573E0,-1.3975186E0,-2.9329324E0,-8.276374E-1,6.971026E-1,2.898016E0,5.9452915E0,2.8143282E0,-6.621938E0,-2.599778E0,1.533007E0,-3.285626E0,-2.0375874E0,-7.859537E0,-5.691629E0,-6.2168765E-1,4.1017504E0,4.739777E-1,1.7349043E0,5.2935944E0,5.0193486E0,9.752384E0,2.5321379E0,1.3640862E1,3.5532445E-1,-3.5685328E-1,-6.23995E-1,-8.825598E-2,4.5454288E-1,1.4965998E-2,-2.3246892E-1,1.9779031E-1,-7.959799E-3,-2.5705191E-1,4.0202314E-1,-4.538242E-1,-3.9027843E-1,4.516852E-1,-4.3676697E-2,1.4620465E-1,5.4531807E-1,1.3492411E-1,-1.0709906E-2,7.817549E-2,-1.5671076E-1,1.1348065E-1,1.2893013E0,2.4720041E-1,5.509182E-1,2.1685319E-1,2.632129E-1,7.1975887E-1,1.8487927E-1,2.6388377E-2,7.883641E-1,1.3573258E-1],"categories":[],"categories_nodes":[],"categories_segments":[],"categories_sizes":[],"default_left":[0,0,0,0,0,0,0,0,0,0,0,0,0,0,0,0,0,0,0,0,0,0,0,0,0,0,0,0,0,0,0,0,0,0,0,0,0,0,0,0,0,0,0,0,0,0,0,0,0,0,0,0,0,0,0,0,0,0,0,0,0,0,0],"id":21,"left_children":[1,3,5,7,9,11,13,15,17,19,21,23,25,27,29,31,33,35,37,39,41,43,45,47,49,51,53,55,57,59,61,-1,-1,-1,-1,-1,-1,-1,-1,-1,-1,-1,-1,-1,-1,-1,-1,-1,-1,-1,-1,-1,-1,-1,-1,-1,-1,-1,-1,-1,-1,-1,-1],"loss_changes":[2.0184285E4,3.3311943E3,4.6926455E3,1.0582334E3,1.9422427E3,2.318426E3,1.5928193E3,1.5658887E3,6.026168E2,2.6041265E3,1.6763757E3,1.9017682E3,1.6403203E3,8.7111426E2,1.3158325E3,1.7126143E3,1.371634E3,3.982119E2,6.7017633E2,2.9372478E3,1.8337793E3,2.1872485E3,1.440271E3,1.4410684E3,1.76459E3,1.048538E3,1.2551392E3,8.1993604E2,9.660923E2,1.00719556E3,2.1276794E2,0E0,0E0,0E0,0E0,0E0,0E0,0E0,0E0,0E0,0E0,0E0,0E0,0E0,0E0,0E0,0E0,0E0,0E0,0E0,0E0,0E0,0E0,0E0,0E0,0E0,0E0,0E0,0E0,0E0,0E0,0E0,0E0],"parents":[2147483647,0,0,1,1,2,2,3,3,4,4,5,5,6,6,7,7,8,8,9,9,10,10,11,11,12,12,13,13,14,14,15,15,16,16,17,17,18,18,19,19,20,20,21,21,22,22,23,23,24,24,25,25,26,26,27,27,28,28,29,29,30,30],"right_children":[2,4,6,8,10,12,14,16,18,20,22,24,26,28,30,32,34,36,38,40,42,44,46,48,50,52,54,56,58,60,62,-1,-1,-1,-1,-1,-1,-1,-1,-1,-1,-1,-1,-1,-1,-1,-1,-1,-1,-1,-1,-1,-1,-1,-1,-1,-1,-1,-1,-1,-1,-1,-1],"split_conditions":[-2.4261019E1,-2.0918918E2,1.8409457E2,1E0,-6.5588217E0,1E0,-2.25E0,-7E-1,-9.093479E0,5.2272726E-2,-1E0,-1.2941177E-1,4.164924E0,1E0,5.668056E0,-2.25E0,-7.74E-2,-3.5160174E0,-1.7463124E0,-2.77E-2,-1.3799008E1,1.21E1,2E0,-3.78E-2,8.121335E1,-4.2E0,-2.284371E1,1.541267E0,2.4E-2,3.42E-2,2.318115E-1,3.5532445E-1,-3.5685328E-1,-6.23995E-1,-8.825598E-2,4.5454288E-1,1.4965998E-2,-2.3246892E-1,1.9779031E-1,-7.959799E-3,-2.5705191E-1,4.0202314E-1,-4.538242E-1,-3.9027843E-1,4.516852E-1,-4.3676697E-2,1.4620465E-1,5.4531807E-1,1.3492411E-1,-1.0709906E-2,7.817549E-2,-1.5671076E-1,1.1348065E-1,1.2893013E0,2.4720041E-1,5.509182E-1,2.1685319E-1,2.632129E-1,7.1975887E-1,1.8487927E-1,2.6388377E-2,7.883641E-1,1.3573258E-1],"split_indices":[14,14,14,19,0,19,8,6,0,17,15,17,0,19,1,8,3,1,0,3,0,10,15,4,14,6,14,0,3,3,17,0,0,0,0,0,0,0,0,0,0,0,0,0,0,0,0,0,0,0,0,0,0,0,0,0,0,0,0,0,0,0,0],"split_type":[0,0,0,0,0,0,0,0,0,0,0,0,0,0,0,0,0,0,0,0,0,0,0,0,0,0,0,0,0,0,0,0,0,0,0,0,0,0,0,0,0,0,0,0,0,0,0,0,0,0,0,0,0,0,0,0,0,0,0,0,0,0,0],"sum_hessian":[6.575E3,2.778E3,3.797E3,5.09E2,2.269E3,3.096E3,7.01E2,4.02E2,1.07E2,5.93E2,1.676E3,2.505E3,5.91E2,2.6E2,4.41E2,2.34E2,1.68E2,4.2E1,6.5E1,5.03E2,9E1,6.7E1,1.609E3,1.53E2,2.352E3,3.99E2,1.92E2,2.11E2,4.9E1,4.31E2,1E1,8E0,2.26E2,1.2E1,1.56E2,5E0,3.7E1,5.5E1,1E1,3.14E2,1.89E2,6E0,8.4E1,5.9E1,8E0,1.503E3,1.06E2,2.5E1,1.28E2,1.442E3,9.1E2,3.9E1,3.6E2,2E0,1.9E2,2E1,1.91E2,2.6E1,2.3E1,2.72E2,1.59E2,8E0,2E0],"tree_param":{"num_deleted":"0","num_feature":"20","num_nodes":"63","size_leaf_vector":"1"}},{"base_weights":[5.913966E-2,-1.2607528E0,2.5362277E0,-2.3467917E0,-3.6827797E-1,-8.124476E0,2.6246526E0,-3.0889015E0,-8.426402E-1,1.1283144E-2,-2.6754034E0,-1.3032459E1,2.5305772E-1,2.3472652E0,5.7631283E0,-3.292734E0,5.0398936E0,3.6447756E0,-1.2132674E0,-4.3163176E0,1.6662712E-1,3.7091618E0,-3.5378852E0,-1.501669E1,2.198518E-1,3.167979E0,-2.8305689E-1,3.6438243E0,1.6883668E0,4.203023E0,1.045405E1,2.2087064E-1,-1.7485403E-1,3.7158513E-1,-4.681107E-1,3.391798E-1,-1.9610621E-1,7.179753E-2,-8.6497806E-2,1.6028763E-1,-3.1270406E-1,-2.657856E-3,1.3298532E-1,3.8593093E-1,-2.144151E-1,2.3140347E-1,-2.108941E-1,-8.58169E-1,-1.785527E-1,2.1322437E-1,-5.7864018E-2,1.6701066E-1,5.0440997E-1,5.576369E-2,2.0212038E-1,2.874666E-1,-3.7071932E-2,4.2421722E-1,1.2257414E0],"categories":[],"categories_nodes":[],"categories_segments":[],"categories_sizes":[],"default_left":[0,0,0,0,0,0,0,0,0,0,0,0,0,0,0,0,0,0,0,0,0,0,0,0,0,0,0,0,0,0,0,0,0,0,0,0,0,0,0,0,0,0,0,0,0,0,0,0,0,0,0,0,0,0,0,0,0,0,0],"id":22,"left_children":[1,3,5,7,9,11,13,15,17,19,21,23,25,27,29,31,33,35,37,39,41,43,45,47,-1,49,-1,51,53,55,57,-1,-1,-1,-1,-1,-1,-1,-1,-1,-1,-1,-1,-1,-1,-1,-1,-1,-1,-1,-1,-1,-1,-1,-1,-1,-1,-1,-1],"loss_changes":[2.144451E4,4.1466094E3,2.1706162E3,2.151752E3,2.0579138E3,7.845171E2,1.9557109E3,2.1573242E3,1.0671805E3,1.3580256E3,1.8413044E3,4.810387E2,1.5584969E2,1.770793E3,1.2953154E3,2.002207E3,1.1718839E3,1.190412E3,8.114573E2,1.0403683E3,1.0686234E3,1.3157192E3,1.6464973E3,2.0898145E2,0E0,3.3391293E1,0E0,1.3359111E3,1.8585769E3,1.0670098E3,1.03831E3,0E0,0E0,0E0,0E0,0E0,0E0,0E0,0E0,0E0,0E0,0E0,0E0,0E0,0E0,0E0,0E0,0E0,0E0,0E0,0E0,0E0,0E0,0E0,0E0,0E0,0E0,0E0,0E0],"parents":[2147483647,0,0,1,1,2,2,3,3,4,4,5,5,6,6,7,7,8,8,9,9,10,10,11,11,12,12,13,13,14,14,15,15,16,16,17,17,18,18,19,19,20,20,21,21,22,22,23,23,25,25,27,27,28,28,29,29,30,30],"right_children":[2,4,6,8,10,12,14,16,18,20,22,24,26,28,30,32,34,36,38,40,42,44,46,48,-1,50,-1,52,54,56,58,-1,-1,-1,-1,-1,-1,-1,-1,-1,-1,-1,-1,-1,-1,-1,-1,-1,-1,-1,-1,-1,-1,-1,-1,-1,-1,-1,-1],"split_conditions":[5.3328056E1,-7.711975E1,-9.265568E0,-5.427848E0,1E0,-2.7E0,2.794877E2,6E0,-5E0,-1.0521179E1,-7.2E0,4E0,-1.0758182E1,-4E-4,5.9E-2,-5.7E0,1E0,2.296E2,-2.74E-2,-8E-2,5.4E0,-6.5E-3,-7.607091E0,3.24E-2,2.198518E-1,1.58E-2,-2.8305689E-1,9.81E-2,1.0215195E1,4.8E-2,-3.7E0,2.2087064E-1,-1.7485403E-1,3.7158513E-1,-4.681107E-1,3.391798E-1,-1.9610621E-1,7.179753E-2,-8.6497806E-2,1.6028763E-1,-3.1270406E-1,-2.657856E-3,1.3298532E-1,3.8593093E-1,-2.144151E-1,2.3140347E-1,-2.108941E-1,-8.58169E-1,-1.785527E-1,2.1322437E-1,-5.7864018E-2,1.6701066E-1,5.0440997E-1,5.576369E-2,2.0212038E-1,2.874666E-1,-3.7071932E-2,4.2421722E-1,1.2257414E0],"split_indices":[14,14,2,2,18,7,14,9,16,0,10,6,2,4,5,10,16,11,3,4,6,4,0,5,0,3,0,5,0,3,10,0,0,0,0,0,0,0,0,0,0,0,0,0,0,0,0,0,0,0,0,0,0,0,0,0,0,0,0],"split_type":[0,0,0,0,0,0,0,0,0,0,0,0,0,0,0,0,0,0,0,0,0,0,0,0,0,0,0,0,0,0,0,0,0,0,0,0,0,0,0,0,0,0,0,0,0,0,0,0,0,0,0,0,0,0,0,0,0,0,0],"sum_hessian":[6.557E3,4.278E3,2.279E3,1.929E3,2.349E3,1.8E1,2.261E3,1.291E3,6.38E2,2.018E3,3.31E2,1.1E1,7E0,2.079E3,1.82E2,1.26E3,3.1E1,4.8E1,5.9E2,6.9E1,1.949E3,3.9E1,2.92E2,1E1,1E0,5E0,2E0,6.99E2,1.38E3,1.38E2,4.4E1,3.2E1,1.228E3,2.7E1,4E0,3.4E1,1.4E1,9.6E1,4.94E2,1.4E1,5.5E1,1.792E3,1.57E2,2.6E1,1.3E1,2.2E1,2.7E2,8E0,2E0,4E0,1E0,6.69E2,3E1,1.111E3,2.69E2,1.05E2,3.3E1,4E1,4E0],"tree_param":{"num_deleted":"0","num_feature":"20","num_nodes":"59","size_leaf_vector":"1"}},{"base_weights":[-8.271811E-2,-1.8486156E0,1.3773791E0,-5.14937E0,-1.5193135E0,5.1221347E-1,2.599768E0,-2.6799836E0,-7.3582573E0,-2.7874935E0,-9.577017E-1,8.7946546E-1,-1.6857533E0,1.5075545E0,4.1268106E0,-1.9276005E0,-1.0644165E1,-6.411578E0,-1.6331852E1,-1.9355415E0,-5.568196E0,-1.3209721E-1,-1.9944643E0,5.088487E0,6.0898626E-1,-1.3765626E0,-1.996189E1,4.1975074E0,5.9771085E-1,4.7329273E0,-1.3745005E0,-1.4127113E-1,1.4968698E-1,-1.0478547E0,-2.0785902E-1,-6.1581576E-1,-2.3800957E-1,-4.9271217E-1,-1.0238171E0,-1.7792145E-2,-1.8479715E-1,-3.6796507E-1,-2.9836712E-2,-4.917947E-2,1.0929928E-1,-3.2942545E-1,-8.099447E-2,1.9389811E-1,6.556117E-1,-3.5007324E-2,5.8182E-2,-3.083208E-1,-1.757536E-2,-1.1735903E0,-1.4805558E-1,9.150203E-2,3.4090564E-1,-1.1167683E-3,2.2306608E-1,1.6937618E-1,3.4870452E-1,-5.8065295E-1,1.629455E-2],"categories":[],"categories_nodes":[],"categories_segments":[],"categories_sizes":[],"default_left":[0,0,0,0,0,0,0,0,0,0,0,0,0,0,0,0,0,0,0,0,0,0,0,0,0,0,0,0,0,0,0,0,0,0,0,0,0,0,0,0,0,0,0,0,0,0,0,0,0,0,0,0,0,0,0,0,0,0,0,0,0,0,0],"id":23,"left_children":[1,3,5,7,9,11,13,15,17,19,21,23,25,27,29,31,33,35,37,39,41,43,45,47,49,51,53,55,57,59,61,-1,-1,-1,-1,-1,-1,-1,-1,-1,-1,-1,-1,-1,-1,-1,-1,-1,-1,-1,-1,-1,-1,-1,-1,-1,-1,-1,-1,-1,-1,-1,-1],"loss_changes":[1.7107533E4,3.2562764E3,3.8397588E3,1.4639297E3,1.9431284E3,1.7192207E3,2.5039023E3,7.584573E2,1.1100889E3,1.9744658E3,1.6217726E3,2.0734395E3,1.6960193E3,2.1487878E3,2.0971953E3,5.386771E2,6.487754E2,1.2187534E3,1.4722412E2,1.7868057E3,1.7408745E3,2.0865137E3,1.4348113E3,1.0175752E3,1.2461025E3,1.4757017E3,2.2885413E2,1.3648542E3,1.5764156E3,1.6800029E3,1.1005868E3,0E0,0E0,0E0,0E0,0E0,0E0,0E0,0E0,0E0,0E0,0E0,0E0,0E0,0E0,0E0,0E0,0E0,0E0,0E0,0E0,0E0,0E0,0E0,0E0,0E0,0E0,0E0,0E0,0E0,0E0,0E0,0E0],"parents":[2147483647,0,0,1,1,2,2,3,3,4,4,5,5,6,6,7,7,8,8,9,9,10,10,11,11,12,12,13,13,14,14,15,15,16,16,17,17,18,18,19,19,20,20,21,21,22,22,23,23,24,24,25,25,26,26,27,27,28,28,29,29,30,30],"right_children":[2,4,6,8,10,12,14,16,18,20,22,24,26,28,30,32,34,36,38,40,42,44,46,48,50,52,54,56,58,60,62,-1,-1,-1,-1,-1,-1,-1,-1,-1,-1,-1,-1,-1,-1,-1,-1,-1,-1,-1,-1,-1,-1,-1,-1,-1,-1,-1,-1,-1,-1,-1,-1],"split_conditions":[-1.7583414E1,-2.602119E2,1.0425433E2,-1.9146742E-1,-6.378797E0,1E0,2.1E0,2.3108864E2,2E-4,-3.0844843E-3,0E0,-1.384167E-1,2.425E2,-2.8E0,4.89E-2,-2.8E-3,-1.8913536E1,-1.4909016E-1,-8.82353E-2,-3.91E-2,2.311E2,1E0,-1.8977905E2,5E0,-1.1253197E-2,2.162E2,3.6015353E0,3E0,1.5731987E1,5.711299E0,8.011456E0,-1.4127113E-1,1.4968698E-1,-1.0478547E0,-2.0785902E-1,-6.1581576E-1,-2.3800957E-1,-4.9271217E-1,-1.0238171E0,-1.7792145E-2,-1.8479715E-1,-3.6796507E-1,-2.9836712E-2,-4.917947E-2,1.0929928E-1,-3.2942545E-1,-8.099447E-2,1.9389811E-1,6.556117E-1,-3.5007324E-2,5.8182E-2,-3.083208E-1,-1.757536E-2,-1.1735903E0,-1.4805558E-1,9.150203E-2,3.4090564E-1,-1.1167683E-3,2.2306608E-1,1.6937618E-1,3.4870452E-1,-5.8065295E-1,1.629455E-2],"split_indices":[14,14,14,17,0,18,6,13,3,17,16,17,11,6,3,3,2,17,17,4,11,15,14,6,17,12,0,16,2,0,0,0,0,0,0,0,0,0,0,0,0,0,0,0,0,0,0,0,0,0,0,0,0,0,0,0,0,0,0,0,0,0,0],"split_type":[0,0,0,0,0,0,0,0,0,0,0,0,0,0,0,0,0,0,0,0,0,0,0,0,0,0,0,0,0,0,0,0,0,0,0,0,0,0,0,0,0,0,0,0,0,0,0,0,0,0,0,0,0,0,0,0,0,0,0,0,0,0,0],"sum_hessian":[6.633E3,3.002E3,3.631E3,2.71E2,2.731E3,2.127E3,1.504E3,1.29E2,1.42E2,8.37E2,1.894E3,1.823E3,3.04E2,8.78E2,6.26E2,1.19E2,1E1,1.3E2,1.2E1,6.42E2,1.95E2,1.055E3,8.39E2,1.09E2,1.714E3,3E2,4E0,2.21E2,6.57E2,5.64E2,6.2E1,1.01E2,1.8E1,3E0,7E0,2.7E1,1.03E2,6E0,6E0,3.39E2,3.03E2,1.43E2,5.2E1,7.72E2,2.83E2,6.2E1,7.77E2,9.6E1,1.3E1,5.1E2,1.204E3,5.2E1,2.48E2,3E0,1E0,1.17E2,1.04E2,5.67E2,9E1,3.54E2,2.1E2,8E0,5.4E1],"tree_param":{"num_deleted":"0","num_feature":"20","num_nodes":"63","size_leaf_vector":"1"}},{"base_weights":[1.063206E-2,-2.1893876E0,9.056249E-1,-2.7098987E0,-3.9410353E-1,2.6029468E-1,2.439847E0,-2.3201158E0,-5.8475246E0,-6.5556226E0,2.756068E-1,7.3472455E-2,2.9293387E0,2.0899553E0,6.6320333E0,-1.8925964E0,-6.124304E0,-7.290001E0,-1.2657207E0,-1.265792E1,5.2723737E0,8.942994E-1,-5.43013E0,1.3313947E0,-2.9063818E-1,1.680962E0,1.12066765E1,1.823295E0,7.034094E0,1.4772098E-1,9.692018E0,6.089639E-1,-9.874441E-2,2.3699029E-1,-3.675485E-1,-6.837973E-1,-3.1721604E-1,9.70028E-2,-8.32791E-1,-4.4533E-1,-1.1319755E0,-1.9295828E-1,6.8724334E-1,3.0242872E-1,1.7568199E-3,-5.76853E-1,-2.3215752E-2,2.0973432E-1,3.4214284E-2,-5.034479E-2,2.6341258E-2,-5.4392195E-1,1.1866069E-1,-3.618279E-1,6.07889E-1,7.480138E-2,2.8742477E-1,-4.2274448E-1,3.830006E-1,3.7773815E-1,-1.3534115E-1,6.2203443E-1,6.849503E-2],"categories":[],"categories_nodes":[],"categories_segments":[],"categories_sizes":[],"default_left":[0,0,0,0,0,0,0,0,0,0,0,0,0,0,0,0,0,0,0,0,0,0,0,0,0,0,0,0,0,0,0,0,0,0,0,0,0,0,0,0,0,0,0,0,0,0,0,0,0,0,0,0,0,0,0,0,0,0,0,0,0,0,0],"id":24,"left_children":[1,3,5,7,9,11,13,15,17,19,21,23,25,27,29,31,33,35,37,39,41,43,45,47,49,51,53,55,57,59,61,-1,-1,-1,-1,-1,-1,-1,-1,-1,-1,-1,-1,-1,-1,-1,-1,-1,-1,-1,-1,-1,-1,-1,-1,-1,-1,-1,-1,-1,-1,-1,-1],"loss_changes":[1.2930449E4,1.7734805E3,4.6210576E3,1.7866787E3,1.76792E3,1.6388037E3,2.0132725E3,2.1205732E3,1.0614541E3,3.0982112E3,1.3710037E3,1.4078912E3,2.2028071E3,1.6707793E3,2.101809E3,1.3904922E3,1.7939575E3,6.560405E2,2.0058021E3,8.467949E2,1.2135472E3,1.5497144E3,1.1470267E3,1.2756042E3,1.3963967E3,1.6603391E3,5.791406E2,1.5496084E3,6.9492896E2,7.6047986E2,1.6299404E3,0E0,0E0,0E0,0E0,0E0,0E0,0E0,0E0,0E0,0E0,0E0,0E0,0E0,0E0,0E0,0E0,0E0,0E0,0E0,0E0,0E0,0E0,0E0,0E0,0E0,0E0,0E0,0E0,0E0,0E0,0E0,0E0],"parents":[2147483647,0,0,1,1,2,2,3,3,4,4,5,5,6,6,7,7,8,8,9,9,10,10,11,11,12,12,13,13,14,14,15,15,16,16,17,17,18,18,19,19,20,20,21,21,22,22,23,23,24,24,25,25,26,26,27,27,28,28,29,29,30,30],"right_children":[2,4,6,8,10,12,14,16,18,20,22,24,26,28,30,32,34,36,38,40,42,44,46,48,50,52,54,56,58,60,62,-1,-1,-1,-1,-1,-1,-1,-1,-1,-1,-1,-1,-1,-1,-1,-1,-1,-1,-1,-1,-1,-1,-1,-1,-1,-1,-1,-1,-1,-1,-1,-1],"split_conditions":[-5.510428E0,2.2659422E2,7.3975506E0,2.01E-2,-1.35E1,2E0,9.81E-2,2.358E2,4.8E-2,2.316E2,2.376E2,-2.67E-2,3.5E0,3.8529554E-1,2.175407E2,2.034E2,-6.35E-2,-3.637019E-1,2.274E2,-2.3E0,-1.0909091E-1,-9.6E0,-3.67E-2,-2.0952382E0,1.541267E0,-2.0535715E-1,-3.6E0,6.2E0,-5.2E0,9.824473E0,1.232E-1,6.089639E-1,-9.874441E-2,2.3699029E-1,-3.675485E-1,-6.837973E-1,-3.1721604E-1,9.70028E-2,-8.32791E-1,-4.4533E-1,-1.1319755E0,-1.9295828E-1,6.8724334E-1,3.0242872E-1,1.7568199E-3,-5.76853E-1,-2.3215752E-2,2.0973432E-1,3.4214284E-2,-5.034479E-2,2.6341258E-2,-5.4392195E-1,1.1866069E-1,-3.618279E-1,6.07889E-1,7.480138E-2,2.8742477E-1,-4.2274448E-1,3.830006E-1,3.7773815E-1,-1.3534115E-1,6.2203443E-1,6.849503E-2],"split_indices":[2,13,2,4,9,15,5,12,4,12,12,4,7,17,13,12,3,17,11,7,17,9,4,8,0,17,8,7,8,2,5,0,0,0,0,0,0,0,0,0,0,0,0,0,0,0,0,0,0,0,0,0,0,0,0,0,0,0,0,0,0,0,0],"split_type":[0,0,0,0,0,0,0,0,0,0,0,0,0,0,0,0,0,0,0,0,0,0,0,0,0,0,0,0,0,0,0,0,0,0,0,0,0,0,0,0,0,0,0,0,0,0,0,0,0,0,0,0,0,0,0,0,0,0,0,0,0,0,0],"sum_hessian":[6.565E3,1.898E3,4.667E3,1.471E3,4.27E2,3.286E3,1.381E3,1.31E3,1.61E2,4.1E1,3.86E2,3.072E3,2.14E2,1.276E3,1.05E2,1.179E3,1.31E2,1.22E2,3.9E1,2.7E1,1.4E1,3.49E2,3.7E1,6.89E2,2.383E3,1.87E2,2.7E1,1.212E3,6.4E1,3.4E1,7.1E1,6E0,1.173E3,1.3E1,1.18E2,1.4E1,1.08E2,3.3E1,6E0,2.1E1,6E0,7E0,7E0,4.9E1,3E2,1.6E1,2.1E1,1.26E2,5.63E2,1.27E3,1.113E3,9E0,1.78E2,1E0,2.6E1,1.12E3,9.2E1,2E0,6.2E1,9E0,2.5E1,5.3E1,1.8E1],"tree_param":{"num_deleted":"0","num_feature":"20","num_nodes":"63","size_leaf_vector":"1"}},{"base_weights":[-8.1697434E-2,-2.2752895E0,1.0141178E0,-6.056024E0,-2.0223794E0,5.977076E-1,3.4221945E0,-9.093328E0,-1.6336092E0,1.1503588E1,-2.0874367E0,2.3982468E-1,2.1785712E0,-6.025192E-1,3.5129833E0,-1.0050421E1,7.464564E0,8.461317E0,-3.702685E0,1.662498E1,-2.9939958E-1,-3.3006089E0,-1.330793E0,-2.0009647E-1,1.6011358E0,1.6534114E0,5.667102E0,5.8507433E0,2.7151248E0,-1.8788603E-3,-5.605393E-1,7.108586E-2,5.5096114E-1,-4.5430046E-1,5.710288E-1,5.694705E-2,-4.1012692E-1,9.014562E-1,1.6989963E-1,3.817648E-2,-1.9037692E-1,-7.45939E-2,2.0235518E-1,1.2557561E-2,-9.145262E-2,4.4152808E-1,6.7429595E-2,3.372662E-2,1.8862414E-1,1.4407726E-1,5.7135063E-1,2.0407262E-1,5.346691E-1,9.180763E-2,2.8182042E-1],"categories":[],"categories_nodes":[],"categories_segments":[],"categories_sizes":[],"default_left":[0,0,0,0,0,0,0,0,0,0,0,0,0,0,0,0,0,0,0,0,0,0,0,0,0,0,0,0,0,0,0,0,0,0,0,0,0,0,0,0,0,0,0,0,0,0,0,0,0,0,0,0,0,0,0],"id":25,"left_children":[1,3,5,7,9,11,13,15,17,19,21,23,25,-1,27,29,31,33,35,37,-1,39,41,43,45,47,49,51,53,-1,-1,-1,-1,-1,-1,-1,-1,-1,-1,-1,-1,-1,-1,-1,-1,-1,-1,-1,-1,-1,-1,-1,-1,-1,-1],"loss_changes":[1.5823931E4,2.084668E3,4.4000166E3,1.8253594E3,1.8340957E3,2.1176987E3,9.511992E2,1.3586646E3,1.2218982E3,9.953629E2,1.8755479E3,1.8292682E3,1.2565671E3,0E0,1.1853052E3,8.942075E2,9.173508E1,6.230382E2,1.0550994E3,8.731787E1,0E0,1.6222471E3,1.1001731E3,1.697719E3,1.3500992E3,1.2461926E3,1.4110825E3,1.3529463E3,1.2272947E3,0E0,0E0,0E0,0E0,0E0,0E0,0E0,0E0,0E0,0E0,0E0,0E0,0E0,0E0,0E0,0E0,0E0,0E0,0E0,0E0,0E0,0E0,0E0,0E0,0E0,0E0],"parents":[2147483647,0,0,1,1,2,2,3,3,4,4,5,5,6,6,7,7,8,8,9,9,10,10,11,11,12,12,14,14,15,15,16,16,17,17,18,18,19,19,21,21,22,22,23,23,24,24,25,25,26,26,27,27,28,28],"right_children":[2,4,6,8,10,12,14,16,18,20,22,24,26,-1,28,30,32,34,36,38,-1,40,42,44,46,48,50,52,54,-1,-1,-1,-1,-1,-1,-1,-1,-1,-1,-1,-1,-1,-1,-1,-1,-1,-1,-1,-1,-1,-1,-1,-1,-1,-1],"split_conditions":[-5.8204124E1,-7E0,1.8706282E2,-2.7895525E0,-6.8E0,1E0,-1.342E-1,1.38E-2,-1.21786375E1,-9.6E-3,-6.4605026E0,4.41E-2,4.8E0,-6.025192E-1,-4E-4,-5.08E-2,1.4187483E-2,1.153944E1,4.3E0,7.26759E0,-2.9939958E-1,-5.5E0,1.09E1,4.2E0,-7.4E0,4.164924E0,1.37E-2,6E0,-2.8448883E-1,-1.8788603E-3,-5.605393E-1,7.108586E-2,5.5096114E-1,-4.5430046E-1,5.710288E-1,5.694705E-2,-4.1012692E-1,9.014562E-1,1.6989963E-1,3.817648E-2,-1.9037692E-1,-7.45939E-2,2.0235518E-1,1.2557561E-2,-9.145262E-2,4.4152808E-1,6.7429595E-2,3.372662E-2,1.8862414E-1,1.4407726E-1,5.7135063E-1,2.0407262E-1,5.346691E-1,9.180763E-2,2.8182042E-1],"split_indices":[14,6,14,0,6,19,5,3,2,3,0,5,6,0,4,5,1,1,10,1,0,10,9,10,6,0,5,16,1,0,0,0,0,0,0,0,0,0,0,0,0,0,0,0,0,0,0,0,0,0,0,0,0,0,0],"split_type":[0,0,0,0,0,0,0,0,0,0,0,0,0,0,0,0,0,0,0,0,0,0,0,0,0,0,0,0,0,0,0,0,0,0,0,0,0,0,0,0,0,0,0,0,0,0,0,0,0,0,0,0,0,0,0],"sum_hessian":[6.581E3,2.192E3,4.389E3,1.36E2,2.056E3,3.743E3,6.46E2,8E1,5.6E1,9E0,2.047E3,3.053E3,6.9E2,3E0,6.43E2,7.6E1,4E0,9E0,4.7E1,7E0,2E0,7.85E2,1.262E3,2.308E3,7.45E2,6.01E2,8.9E1,1.62E2,4.81E2,8E0,6.8E1,2E0,2E0,1E0,8E0,2.3E1,2.4E1,6E0,1E0,8.7E1,6.98E2,1.226E3,3.6E1,1.808E3,5E2,2.4E1,7.21E2,4.12E2,1.89E2,6.1E1,2.8E1,1.2E2,4.2E1,3.71E2,1.1E2],"tree_param":{"num_deleted":"0","num_feature":"20","num_nodes":"55","size_leaf_vector":"1"}},{"base_weights":[9.420131E-3,-1.0081294E0,1.8678542E0,-2.5619204E0,-4.1217306E-1,1.4149942E0,3.7330346E0,-2.4889166E0,-1.9190834E1,-6.809147E-1,1.3548588E0,1.7326976E0,-6.089063E-1,1.4317794E1,3.2885065E0,-3.4513016E0,-1.4454762E0,-2.3645672E1,-3.4286927E-2,1.4447416E1,-7.0336586E-1,1.2345105E1,1.0461527E0,2.0995862E0,-1.5120286E-1,-5.6525517E0,4.987918E-1,7.2874093E-1,1.6987022E1,2.4192197E0,7.889642E0,3.137332E-1,-1.8284822E-1,2.1528592E-2,-1.6516115E-1,-3.590551E-1,-1.3370081E0,8.997704E-1,9.508603E-2,-3.411354E-2,-7.283144E-1,6.851544E-1,-3.0868057E-2,4.420257E-2,8.355536E-1,7.9962716E-2,1.8672155E-1,-4.318834E-1,2.8841278E-2,-4.450329E-1,-5.2731237E-3,-1.0446669E0,4.0246706E-2,2.1247582E-1,-9.306782E-2,9.734468E-1,2.647265E-1,-2.075413E-2,1.6947727E-1,9.2486954E-1,3.2928854E-1],"categories":[],"categories_nodes":[],"categories_segments":[],"categories_sizes":[],"default_left":[0,0,0,0,0,0,0,0,0,0,0,0,0,0,0,0,0,0,0,0,0,0,0,0,0,0,0,0,0,0,0,0,0,0,0,0,0,0,0,0,0,0,0,0,0,0,0,0,0,0,0,0,0,0,0,0,0,0,0,0,0],"id":26,"left_children":[1,3,5,7,9,11,13,15,17,19,21,23,25,27,29,31,33,35,-1,37,39,41,43,45,47,49,51,53,55,57,59,-1,-1,-1,-1,-1,-1,-1,-1,-1,-1,-1,-1,-1,-1,-1,-1,-1,-1,-1,-1,-1,-1,-1,-1,-1,-1,-1,-1,-1,-1],"loss_changes":[1.2437419E4,3.9344082E3,1.9602549E3,1.3822979E3,1.4602136E3,1.2060371E3,2.089086E3,1.1739321E3,3.9597144E2,9.163452E2,1.3645437E3,1.1200322E3,1.4274628E3,6.405217E2,1.7287847E3,1.2431094E3,1.9705726E3,1.1773926E1,0E0,1.4382587E2,7.6941223E2,2.020907E2,9.90791E2,1.103188E3,1.642255E3,8.278679E2,1.3921151E3,4.438647E1,3.3221777E2,1.01622925E3,8.325288E2,0E0,0E0,0E0,0E0,0E0,0E0,0E0,0E0,