{"learner":{"attributes":{"scikit_learn":"{\"_estimator_type\": \"classifier\"}"},"feature_names":[],"feature_types":[],"gradient_booster":{"model":{"gbtree_model_param":{"num_parallel_tree":"1","num_trees":"500"},"iteration_indptr":[0,1,2,3,4,5,6,7,8,9,10,11,12,13,14,15,16,17,18,19,20,21,22,23,24,25,26,27,28,29,30,31,32,33,34,35,36,37,38,39,40,41,42,43,44,45,46,47,48,49,50,51,52,53,54,55,56,57,58,59,60,61,62,63,64,65,66,67,68,69,70,71,72,73,74,75,76,77,78,79,80,81,82,83,84,85,86,87,88,89,90,91,92,93,94,95,96,97,98,99,100,101,102,103,104,105,106,107,108,109,110,111,112,113,114,115,116,117,118,119,120,121,122,123,124,125,126,127,128,129,130,131,132,133,134,135,136,137,138,139,140,141,142,143,144,145,146,147,148,149,150,151,152,153,154,155,156,157,158,159,160,161,162,163,164,165,166,167,168,169,170,171,172,173,174,175,176,177,178,179,180,181,182,183,184,185,186,187,188,189,190,191,192,193,194,195,196,197,198,199,200,201,202,203,204,205,206,207,208,209,210,211,212,213,214,215,216,217,218,219,220,221,222,223,224,225,226,227,228,229,230,231,232,233,234,235,236,237,238,239,240,241,242,243,244,245,246,247,248,249,250,251,252,253,254,255,256,257,258,259,260,261,262,263,264,265,266,267,268,269,270,271,272,273,274,275,276,277,278,279,280,281,282,283,284,285,286,287,288,289,290,291,292,293,294,295,296,297,298,299,300,301,302,303,304,305,306,307,308,309,310,311,312,313,314,315,316,317,318,319,320,321,322,323,324,325,326,327,328,329,330,331,332,333,334,335,336,337,338,339,340,341,342,343,344,345,346,347,348,349,350,351,352,353,354,355,356,357,358,359,360,361,362,363,364,365,366,367,368,369,370,371,372,373,374,375,376,377,378,379,380,381,382,383,384,385,386,387,388,389,390,391,392,393,394,395,396,397,398,399,400,401,402,403,404,405,406,407,408,409,410,411,412,413,414,415,416,417,418,419,420,421,422,423,424,425,426,427,428,429,430,431,432,433,434,435,436,437,438,439,440,441,442,443,444,445,446,447,448,449,450,451,452,453,454,455,456,457,458,459,460,461,462,463,464,465,466,467,468,469,470,471,472,473,474,475,476,477,478,479,480,481,482,483,484,485,486,487,488,489,490,491,492,493,494,495,496,497,498,499,500],"tree_info":[0,0,0,0,0,0,0,0,0,0,0,0,0,0,0,0,0,0,0,0,0,0,0,0,0,0,0,0,0,0,0,0,0,0,0,0,0,0,0,0,0,0,0,0,0,0,0,0,0,0,0,0,0,0,0,0,0,0,0,0,0,0,0,0,0,0,0,0,0,0,0,0,0,0,0,0,0,0,0,0,0,0,0,0,0,0,0,0,0,0,0,0,0,0,0,0,0,0,0,0,0,0,0,0,0,0,0,0,0,0,0,0,0,0,0,0,0,0,0,0,0,0,0,0,0,0,0,0,0,0,0,0,0,0,0,0,0,0,0,0,0,0,0,0,0,0,0,0,0,0,0,0,0,0,0,0,0,0,0,0,0,0,0,0,0,0,0,0,0,0,0,0,0,0,0,0,0,0,0,0,0,0,0,0,0,0,0,0,0,0,0,0,0,0,0,0,0,0,0,0,0,0,0,0,0,0,0,0,0,0,0,0,0,0,0,0,0,0,0,0,0,0,0,0,0,0,0,0,0,0,0,0,0,0,0,0,0,0,0,0,0,0,0,0,0,0,0,0,0,0,0,0,0,0,0,0,0,0,0,0,0,0,0,0,0,0,0,0,0,0,0,0,0,0,0,0,0,0,0,0,0,0,0,0,0,0,0,0,0,0,0,0,0,0,0,0,0,0,0,0,0,0,0,0,0,0,0,0,0,0,0,0,0,0,0,0,0,0,0,0,0,0,0,0,0,0,0,0,0,0,0,0,0,0,0,0,0,0,0,0,0,0,0,0,0,0,0,0,0,0,0,0,0,0,0,0,0,0,0,0,0,0,0,0,0,0,0,0,0,0,0,0,0,0,0,0,0,0,0,0,0,0,0,0,0,0,0,0,0,0,0,0,0,0,0,0,0,0,0,0,0,0,0,0,0,0,0,0,0,0,0,0,0,0,0,0,0,0,0,0,0,0,0,0,0,0,0,0,0,0,0,0,0,0,0,0,0,0,0,0,0,0,0,0,0,0,0,0,0,0,0,0,0,0,0,0,0,0,0,0,0,0,0,0,0,0,0,0,0,0,0,0,0,0,0,0,0,0,0,0,0,0,0,0,0,0,0,0,0,0,0,0,0,0,0,0,0,0,0,0],"trees":[{"base_weights":[-3.5469648E-3,-5.775344E-1,5.4900205E-1,-9.8162985E-1,-3.3403233E-1,3.3124888E-1,1.0083771E0,-1.4993528E0,-8.410243E-1,-4.1581628E-1,5.0685965E-2,-2.0955372E-1,3.9541316E-1,8.1785023E-1,1.2743081E0,-8.2013017E-1,-1.6075803E0,-8.64517E-1,4.9490694E-2,-6.8157196E-1,-2.543816E-1,-2.2599442E-1,5.5876267E-1,-4.000419E-1,5.423291E-1,5.0079274E-1,1.1475437E-1,8.5181254E-1,-1.9123073E-1,1.3069363E0,8.051819E-2,2.0653889E-2,-6.2194135E-2,-8.207001E-2,-2.4443721E-2,-4.7408126E-2,-2.5257427E-2,-2.902006E-2,-6.110047E-2,5.90134E-3,-1.5880486E-2,2.1935964E-2,-2.4330854E-2,1.6585736E-2,5.948881E-2,2.017351E-2,-3.04328E-2,5.7471152E-2,-1.3682629E-2,1.3410153E-2,3.196568E-2,2.6747861E-3,4.5309793E-2,3.2578602E-2,5.0623335E-2,1.753308E-2,-6.2307447E-2,6.643669E-2,-6.8634497E-3,5.3603977E-2,-4.717507E-2],"categories":[],"categories_nodes":[],"categories_segments":[],"categories_sizes":[],"default_left":[0,0,0,0,0,0,0,0,0,0,0,0,0,0,0,0,0,0,0,0,0,0,0,0,0,0,0,0,0,0,0,0,0,0,0,0,0,0,0,0,0,0,0,0,0,0,0,0,0,0,0,0,0,0,0,0,0,0,0,0,0],"id":0,"left_children":[1,3,5,7,9,11,13,15,17,19,21,23,25,27,29,31,33,35,-1,37,39,41,43,45,47,49,51,53,55,57,59,-1,-1,-1,-1,-1,-1,-1,-1,-1,-1,-1,-1,-1,-1,-1,-1,-1,-1,-1,-1,-1,-1,-1,-1,-1,-1,-1,-1,-1,-1],"loss_changes":[5.139908E2,7.788754E1,8.22646E1,2.045871E1,1.5674923E1,1.9573334E1,1.2387299E1,3.2721558E0,1.104599E1,1.7433952E1,1.2512752E1,8.842952E0,1.4803009E1,5.5506287E0,4.134308E0,6.065858E0,1.196106E0,6.5685883E0,0E0,7.7380753E0,6.086857E0,1.0219658E1,4.0974064E0,8.396853E0,6.555614E0,1.1588257E1,6.6642313E0,4.2389297E0,3.8300645E0,3.5155487E0,5.033776E0,0E0,0E0,0E0,0E0,0E0,0E0,0E0,0E0,0E0,0E0,0E0,0E0,0E0,0E0,0E0,0E0,0E0,0E0,0E0,0E0,0E0,0E0,0E0,0E0,0E0,0E0,0E0,0E0,0E0,0E0],"parents":[2147483647,0,0,1,1,2,2,3,3,4,4,5,5,6,6,7,7,8,8,9,9,10,10,11,11,12,12,13,13,14,14,15,15,16,16,17,17,19,19,20,20,21,21,22,22,23,23,24,24,25,25,26,26,27,27,28,28,29,29,30,30],"right_children":[2,4,6,8,10,12,14,16,18,20,22,24,26,28,30,32,34,36,-1,38,40,42,44,46,48,50,52,54,56,58,60,-1,-1,-1,-1,-1,-1,-1,-1,-1,-1,-1,-1,-1,-1,-1,-1,-1,-1,-1,-1,-1,-1,-1,-1,-1,-1,-1,-1,-1,-1],"split_conditions":[-1.8126571E0,-1.3019026E2,1.4208694E2,-2.602119E2,5.25E-2,-3.9E0,1.1661751E1,6.2792875E-2,1.09E1,-7.3167946E1,8E-1,9.852233E1,2.2971428E2,2.8E0,2.393E2,2.1444447E2,3.5E0,2.2583904E2,4.9490694E-2,1E0,2.152E2,-3E0,3.317774E-2,-6.5E0,3.6063077E0,4.144977E1,1.2092381E1,1.8706282E2,4.33E-2,3.4E0,8.6E0,2.0653889E-2,-6.2194135E-2,-8.207001E-2,-2.4443721E-2,-4.7408126E-2,-2.5257427E-2,-2.902006E-2,-6.110047E-2,5.90134E-3,-1.5880486E-2,2.1935964E-2,-2.4330854E-2,1.6585736E-2,5.948881E-2,2.017351E-2,-3.04328E-2,5.7471152E-2,-1.3682629E-2,1.3410153E-2,3.196568E-2,2.6747861E-3,4.5309793E-2,3.2578602E-2,5.0623335E-2,1.753308E-2,-6.2307447E-2,6.643669E-2,-6.8634497E-3,5.3603977E-2,-4.717507E-2],"split_indices":[14,14,14,14,5,7,2,1,9,14,7,14,12,8,11,13,7,13,0,18,12,10,17,7,2,14,2,14,5,8,9,0,0,0,0,0,0,0,0,0,0,0,0,0,0,0,0,0,0,0,0,0,0,0,0,0,0,0,0,0,0],"split_type":[0,0,0,0,0,0,0,0,0,0,0,0,0,0,0,0,0,0,0,0,0,0,0,0,0,0,0,0,0,0,0,0,0,0,0,0,0,0,0,0,0,0,0,0,0,0,0,0,0,0,0,0,0,0,0,0,0,0,0,0,0],"sum_hessian":[1.6186239E3,7.9388824E2,8.2473566E2,2.9736877E2,4.965195E2,5.6068207E2,2.6405362E2,6.1447987E1,2.3592079E2,4.0940646E2,8.7113014E1,5.922698E1,5.0145508E2,1.5621115E2,1.0784245E2,9.624384E0,5.1823605E1,2.33453E2,2.4677906E0,1.5349658E2,2.559099E2,5.6759186E1,3.0353825E1,4.762836E1,1.1598617E1,3.639991E2,1.3745595E2,1.5127557E2,4.935581E0,1.048811E2,2.9613488E0,2.4677906E0,7.156593E0,4.9849373E1,1.9742326E0,1.8804565E2,4.540735E1,1.3103969E2,2.2456896E1,3.701686E1,2.1889304E2,1.579386E1,4.0965324E1,2.3444012E1,6.909814E0,9.624384E0,3.8003975E1,6.416256E0,5.1823606E0,1.3696239E2,2.2703674E2,1.285719E2,8.884047E0,6.95917E1,8.168387E1,3.7016861E0,1.2338953E0,1.0340043E2,1.4806744E0,1.4806744E0,1.4806744E0],"tree_param":{"num_deleted":"0","num_feature":"20","num_nodes":"61","size_leaf_vector":"1"}},{"base_weights":[-1.8998979E-2,-6.466119E-1,3.987505E-1,-1.1343546E0,-4.7804394E-1,1.17961295E-1,7.749389E-1,-1.164631E0,5.098041E-1,-6.5057284E-1,-3.0480382E-1,-1.3320649E-1,2.6249E-1,6.343739E-1,1.0684608E0,-1.2738932E0,-7.8357536E-1,-1.709812E-2,5.3598713E-2,-7.278635E-1,6.8698995E-2,-4.0235567E-1,9.5963605E-2,4.5896062E-1,-1.8555152E-1,1.9116205E-1,8.413197E-1,7.8808737E-1,4.356089E-1,1.1072181E0,1.5929587E-1,-6.681666E-2,-3.1159714E-2,-4.3910652E-2,1.0446121E-2,-2.642478E-2,-4.7529247E-2,-2.2863846E-2,2.283026E-2,-5.976937E-2,-1.7702734E-2,2.9149378E-2,-9.845378E-3,-2.6517062E-2,3.6339536E-2,-3.2656353E-2,-5.4725846E-3,5.9610773E-3,3.327888E-2,4.981841E-2,-5.165567E-2,4.161804E-2,-5.6416285E-3,-2.8492374E-2,2.457693E-2,1.3004281E-2,5.6676116E-2,-4.21843E-2,3.799857E-2],"categories":[],"categories_nodes":[],"categories_segments":[],"categories_sizes":[],"default_left":[0,0,0,0,0,0,0,0,0,0,0,0,0,0,0,0,0,0,0,0,0,0,0,0,0,0,0,0,0,0,0,0,0,0,0,0,0,0,0,0,0,0,0,0,0,0,0,0,0,0,0,0,0,0,0,0,0,0,0],"id":1,"left_children":[1,3,5,7,9,11,13,15,17,19,21,23,25,27,29,31,33,-1,-1,35,37,39,41,43,45,47,49,51,53,55,57,-1,-1,-1,-1,-1,-1,-1,-1,-1,-1,-1,-1,-1,-1,-1,-1,-1,-1,-1,-1,-1,-1,-1,-1,-1,-1,-1,-1],"loss_changes":[4.2840274E2,5.3142548E1,1.0353435E2,8.905838E0,1.435701E1,2.0469547E1,1.661409E1,5.840927E0,2.1453524E0,1.3565178E1,9.61198E0,6.4789505E0,1.4605385E1,8.390381E0,4.554306E0,4.2890015E0,3.8656883E0,0E0,0E0,9.248917E0,5.208068E0,7.1275673E0,7.0673714E0,4.900585E0,6.69738E0,1.0832144E1,1.2347382E1,6.4741974E0,7.416031E0,2.570694E0,4.651919E0,0E0,0E0,0E0,0E0,0E0,0E0,0E0,0E0,0E0,0E0,0E0,0E0,0E0,0E0,0E0,0E0,0E0,0E0,0E0,0E0,0E0,0E0,0E0,0E0,0E0,0E0,0E0,0E0],"parents":[2147483647,0,0,1,1,2,2,3,3,4,4,5,5,6,6,7,7,8,8,9,9,10,10,11,11,12,12,13,13,14,14,15,15,16,16,19,19,20,20,21,21,22,22,23,23,24,24,25,25,26,26,27,27,28,28,29,29,30,30],"right_children":[2,4,6,8,10,12,14,16,18,20,22,24,26,28,30,32,34,-1,-1,36,38,40,42,44,46,48,50,52,54,56,58,-1,-1,-1,-1,-1,-1,-1,-1,-1,-1,-1,-1,-1,-1,-1,-1,-1,-1,-1,-1,-1,-1,-1,-1,-1,-1,-1,-1],"split_conditions":[-3.617737E1,-1.8977905E2,8.968773E1,8.7E0,-5.427848E0,-1.0983671E0,1.1661751E1,1E0,8.510157E0,2.8E0,1E0,-1.2941177E-1,5.81E-2,2.267E2,2.3370369E2,4.91E-2,6.522584E-3,-1.709812E-2,5.3598713E-2,-7.1428575E-2,2.1996797E2,-1E0,2.222E2,-2.3376623E-1,-5.9838805E-2,7.1E-2,2.3108864E2,1.35E1,2.1009982E2,-1.56614485E1,-1.5589569E-3,-6.681666E-2,-3.1159714E-2,-4.3910652E-2,1.0446121E-2,-2.642478E-2,-4.7529247E-2,-2.2863846E-2,2.283026E-2,-5.976937E-2,-1.7702734E-2,2.9149378E-2,-9.845378E-3,-2.6517062E-2,3.6339536E-2,-3.2656353E-2,-5.4725846E-3,5.9610773E-3,3.327888E-2,4.981841E-2,-5.165567E-2,4.161804E-2,-5.6416285E-3,-2.8492374E-2,2.457693E-2,1.3004281E-2,5.6676116E-2,-4.21843E-2,3.799857E-2],"split_indices":[14,14,14,9,2,2,2,19,1,9,19,17,4,12,13,5,17,0,0,17,13,15,12,17,17,5,13,9,13,1,17,0,0,0,0,0,0,0,0,0,0,0,0,0,0,0,0,0,0,0,0,0,0,0,0,0,0,0,0],"split_type":[0,0,0,0,0,0,0,0,0,0,0,0,0,0,0,0,0,0,0,0,0,0,0,0,0,0,0,0,0,0,0,0,0,0,0,0,0,0,0,0,0,0,0,0,0,0,0,0,0,0,0,0,0,0,0,0,0,0,0],"sum_hessian":[1.6319879E3,6.519588E2,9.800291E2,1.6597871E2,4.859801E2,5.619213E2,4.1810776E2,1.6326393E2,2.714781E0,2.4210936E2,2.4387073E2,2.052712E2,3.5665015E2,2.8485464E2,1.3325311E2,1.2506133E2,3.8202602E1,1.2351167E0,1.4796643E0,2.1860664E2,2.3502718E1,1.9612698E2,4.7743748E1,1.6040522E1,1.8923067E2,3.1870685E2,3.7943317E1,1.5895952E2,1.25895134E2,1.2759591E2,5.6572013E0,1.1314999E2,1.191135E1,3.49821E1,3.220501E0,1.1713069E2,1.0147596E2,9.900051E0,1.3602667E1,9.896259E0,1.8623073E2,1.7557041E1,3.0186707E1,3.2085922E0,1.283193E1,2.5425829E1,1.6380484E2,2.778282E2,4.0878643E1,3.5477177E1,2.4661424E0,1.5158629E2,7.373227E0,6.149844E0,1.1974529E2,4.17053E0,1.2342538E2,1.9674599E0,3.6897414E0],"tree_param":{"num_deleted":"0","num_feature":"20","num_nodes":"59","size_leaf_vector":"1"}},{"base_weights":[1.870645E-2,-5.931265E-1,4.434379E-1,-1.0916908E0,-4.3033084E-1,1.1070947E-1,6.806435E-1,-1.1189287E0,3.0459344E-2,-5.5056876E-1,-2.2033796E-1,4.74283E-2,5.531644E-1,5.270479E-1,1.0310961E0,-1.2542965E0,-8.773198E-1,-6.068273E-1,2.9380035E-1,-1.7898677E-1,-1.1494815E0,5.324697E-1,-2.170078E-3,3.349694E-1,1.1156195E0,8.425358E-1,4.2624965E-1,7.754664E-1,1.1466594E0,-2.6186733E-2,-6.525948E-2,-2.7757853E-2,-5.9445996E-2,-3.682948E-2,-1.49773285E-2,-5.955277E-2,2.6975814E-2,-3.46766E-2,-5.040252E-3,-7.663395E-2,1.3563E-2,1.3712289E-2,5.489043E-2,8.133226E-3,-8.169985E-3,5.54729E-2,7.6881847E-3,5.210804E-3,6.654992E-2,-2.8149644E-2,4.4922426E-2,5.18782E-3,2.5658792E-2,4.6700038E-2,8.148248E-3,2.2620346E-2,5.8747478E-2],"categories":[],"categories_nodes":[],"categories_segments":[],"categories_sizes":[],"default_left":[0,0,0,0,0,0,0,0,0,0,0,0,0,0,0,0,0,0,0,0,0,0,0,0,0,0,0,0,0,0,0,0,0,0,0,0,0,0,0,0,0,0,0,0,0,0,0,0,0,0,0,0,0,0,0,0,0],"id":2,"left_children":[1,3,5,7,9,11,13,15,-1,17,19,21,23,25,27,29,31,33,35,37,39,41,43,45,47,49,51,53,55,-1,-1,-1,-1,-1,-1,-1,-1,-1,-1,-1,-1,-1,-1,-1,-1,-1,-1,-1,-1,-1,-1,-1,-1,-1,-1,-1,-1],"loss_changes":[4.2141006E2,5.346245E1,7.546823E1,8.229202E0,1.25681305E1,1.1161099E1,2.9524628E1,4.1553955E0,0E0,1.5327728E1,6.888893E0,8.437051E0,5.7505236E0,1.2056572E1,4.108368E0,3.0592346E0,5.4667397E0,1.1714287E1,8.156788E0,7.089509E0,4.5987797E0,4.4484606E0,8.507699E0,5.0758424E0,2.8061447E0,7.854637E0,8.298134E0,5.2619553E0,1.7156067E0,0E0,0E0,0E0,0E0,0E0,0E0,0E0,0E0,0E0,0E0,0E0,0E0,0E0,0E0,0E0,0E0,0E0,0E0,0E0,0E0,0E0,0E0,0E0,0E0,0E0,0E0,0E0,0E0],"parents":[2147483647,0,0,1,1,2,2,3,3,4,4,5,5,6,6,7,7,9,9,10,10,11,11,12,12,13,13,14,14,15,15,16,16,17,17,18,18,19,19,20,20,21,21,22,22,23,23,24,24,25,25,26,26,27,27,28,28],"right_children":[2,4,6,8,10,12,14,16,-1,18,20,22,24,26,28,30,32,34,36,38,40,42,44,46,48,50,52,54,56,-1,-1,-1,-1,-1,-1,-1,-1,-1,-1,-1,-1,-1,-1,-1,-1,-1,-1,-1,-1,-1,-1,-1,-1,-1,-1,-1,-1],"split_conditions":[-3.018005E1,-1.8977905E2,5.4702175E1,8.7E0,-7.3167946E1,6.75E-2,1.8409457E2,-3E-1,3.0459344E-2,2E0,6.4E0,-1.2941177E-1,1E0,-6.309506E0,2.201E2,2.128E2,2.267E2,2.301E2,-1.21E1,-4.03E-2,8.3E0,8.5714287E-1,2.2082481E2,-3.202238E0,-1.57E-2,2.0592019E-1,2.1433455E2,4.67E-2,2.158E2,-2.6186733E-2,-6.525948E-2,-2.7757853E-2,-5.9445996E-2,-3.682948E-2,-1.49773285E-2,-5.955277E-2,2.6975814E-2,-3.46766E-2,-5.040252E-3,-7.663395E-2,1.3563E-2,1.3712289E-2,5.489043E-2,8.133226E-3,-8.169985E-3,5.54729E-2,7.6881847E-3,5.210804E-3,6.654992E-2,-2.8149644E-2,4.4922426E-2,5.18782E-3,2.5658792E-2,4.6700038E-2,8.148248E-3,2.2620346E-2,5.8747478E-2],"split_indices":[14,14,14,9,14,5,14,6,0,15,6,17,15,1,11,12,12,11,9,3,6,8,13,2,4,2,13,3,12,0,0,0,0,0,0,0,0,0,0,0,0,0,0,0,0,0,0,0,0,0,0,0,0,0,0,0,0],"split_type":[0,0,0,0,0,0,0,0,0,0,0,0,0,0,0,0,0,0,0,0,0,0,0,0,0,0,0,0,0,0,0,0,0,0,0,0,0,0,0,0,0,0,0,0,0,0,0,0,0,0,0,0,0,0,0,0,0],"sum_hessian":[1.6196399E3,6.6348376E2,9.561561E2,1.619139E2,5.0156985E2,3.98561E2,5.575951E2,1.5969861E2,2.2152765E0,3.179156E2,1.8365425E2,3.4965897E2,4.890203E1,3.8942337E2,1.6817172E2,9.966639E1,6.0032223E1,2.9832047E2,1.9595144E1,1.7697087E2,6.6833854E0,3.1534592E1,3.1812436E2,3.6383293E1,1.2518739E1,9.251196E1,2.969114E2,5.475722E1,1.13414505E2,7.2262006E0,9.244019E1,3.0883486E1,2.9148737E1,2.0876395E2,8.955651E1,2.235966E0,1.7359177E1,2.2304604E1,1.5466626E2,5.201631E0,1.4817542E0,2.2666536E1,8.868055E0,1.572992E2,1.6082518E2,5.9272175E0,3.0456074E1,2.458356E0,1.0060383E1,3.1924064E0,8.931956E1,6.3504696E1,2.3340672E2,4.3081497E1,1.1675722E1,5.1058707E0,1.0830863E2],"tree_param":{"num_deleted":"0","num_feature":"20","num_nodes":"57","size_leaf_vector":"1"}},{"base_weights":[-8.797881E-3,-4.9449596E-1,3.9107507E-1,-7.9878205E-1,-3.5138533E-1,2.7192163E-1,9.2739904E-1,-8.1860065E-1,7.459906E-1,-5.092816E-1,-9.634975E-2,1.3687323E-1,5.844626E-1,-4.9184613E-2,9.511183E-1,-2.6020765E-2,-8.579346E-1,5.1446047E-2,6.4657144E-3,-5.935935E-1,-1.7001651E-1,-1.5792802E-1,9.7165155E-1,-1.6916987E-1,2.1401577E-1,4.6185613E-1,1.060901E0,1.1813749E0,7.734695E-1,2.1249428E-2,-3.1762272E-2,-6.1461557E-2,-3.878241E-2,-3.7640136E-2,-1.8400082E-2,-1.593642E-2,4.3138497E-2,-4.4778693E-3,-3.7900504E-2,-1.52078E-2,6.273772E-2,-3.3402056E-2,5.063321E-5,8.65898E-3,3.6413975E-2,-1.2612091E-2,2.7069349E-2,5.847391E-2,-2.3518184E-3,4.1284367E-2,6.859987E-2,3.0154899E-2,6.081451E-2],"categories":[],"categories_nodes":[],"categories_segments":[],"categories_sizes":[],"default_left":[0,0,0,0,0,0,0,0,0,0,0,0,0,0,0,0,0,0,0,0,0,0,0,0,0,0,0,0,0,0,0,0,0,0,0,0,0,0,0,0,0,0,0,0,0,0,0,0,0,0,0,0,0],"id":3,"left_children":[1,3,5,7,9,11,13,15,17,19,21,23,25,-1,27,29,31,-1,-1,33,35,37,39,41,43,45,47,49,51,-1,-1,-1,-1,-1,-1,-1,-1,-1,-1,-1,-1,-1,-1,-1,-1,-1,-1,-1,-1,-1,-1,-1,-1],"loss_changes":[3.1484467E2,3.1594727E1,5.6566452E1,7.7549744E0,2.007048E1,3.0685692E1,8.243164E0,7.1753693E0,4.7397232E-1,8.71907E0,1.2798867E1,1.2083421E1,1.2339104E1,0E0,5.6204224E0,3.5527413E0,5.7660217E0,0E0,0E0,8.57885E0,9.916769E0,7.426209E0,4.2180805E0,8.769738E0,8.441978E0,1.0157246E1,5.3695946E0,3.4555588E0,6.2878685E0,0E0,0E0,0E0,0E0,0E0,0E0,0E0,0E0,0E0,0E0,0E0,0E0,0E0,0E0,0E0,0E0,0E0,0E0,0E0,0E0,0E0,0E0,0E0,0E0],"parents":[2147483647,0,0,1,1,2,2,3,3,4,4,5,5,6,6,7,7,8,8,9,9,10,10,11,11,12,12,14,14,15,15,16,16,19,19,20,20,21,21,22,22,23,23,24,24,25,25,26,26,27,27,28,28],"right_children":[2,4,6,8,10,12,14,16,18,20,22,24,26,-1,28,30,32,-1,-1,34,36,38,40,42,44,46,48,50,52,-1,-1,-1,-1,-1,-1,-1,-1,-1,-1,-1,-1,-1,-1,-1,-1,-1,-1,-1,-1,-1,-1,-1,-1],"split_conditions":[-1.6236495E0,-1.0029648E1,1.1661751E1,3.1E-2,-7.6449257E-3,1.1582287E-1,-1.172E-1,-1.106E-1,2.238E2,1E0,2E0,-1.15353264E-1,1E0,-4.9184613E-2,2.9E-2,1.5277778E0,-1.8913536E1,5.1446047E-2,6.4657144E-3,-1.8E0,6.09E-2,4.1E0,-5E0,2.9889685E-1,2E0,-3.6E0,8.28E-2,3.4E0,2.303E2,2.1249428E-2,-3.1762272E-2,-6.1461557E-2,-3.878241E-2,-3.7640136E-2,-1.8400082E-2,-1.593642E-2,4.3138497E-2,-4.4778693E-3,-3.7900504E-2,-1.52078E-2,6.273772E-2,-3.3402056E-2,5.063321E-5,8.65898E-3,3.6413975E-2,-1.2612091E-2,2.7069349E-2,5.847391E-2,-2.3518184E-3,4.1284367E-2,6.859987E-2,3.0154899E-2,6.081451E-2],"split_indices":[2,2,2,3,17,17,5,5,11,19,15,17,19,0,3,8,2,0,0,9,5,6,16,2,15,7,5,9,12,0,0,0,0,0,0,0,0,0,0,0,0,0,0,0,0,0,0,0,0,0,0,0,0],"split_type":[0,0,0,0,0,0,0,0,0,0,0,0,0,0,0,0,0,0,0,0,0,0,0,0,0,0,0,0,0,0,0,0,0,0,0,0,0,0,0,0,0,0,0,0,0,0,0,0,0,0,0,0,0],"sum_hessian":[1.6190973E3,7.309844E2,8.881129E2,2.3235747E2,4.9862692E2,7.279038E2,1.602091E2,2.2987834E2,2.4791322E0,3.0734702E2,1.9127992E2,5.0928192E2,2.186219E2,1.4678787E0,1.5874123E2,1.0947507E1,2.1893083E2,1.241184E0,1.2379482E0,2.4556993E2,6.177708E1,1.816581E2,9.62182E0,1.0228795E2,4.0699396E2,1.7544289E2,4.3179016E1,6.6673454E1,9.206777E1,6.4643536E0,4.4831533E0,3.7188553E1,1.8174228E2,1.4259671E2,1.0297321E2,5.460574E1,7.171341E0,1.6410945E2,1.7548645E1,1.7338464E0,7.887974E0,2.5274145E1,7.70138E1,3.782917E2,2.8702276E1,1.7363792E1,1.580791E2,3.927459E1,3.9044294E0,2.512451E1,4.1548946E1,6.819302E1,2.3874744E1],"tree_param":{"num_deleted":"0","num_feature":"20","num_nodes":"53","size_leaf_vector":"1"}},{"base_weights":[-1.7325602E-2,-5.021631E-1,4.4362238E-1,-1.0335969E0,-3.5271165E-1,7.781735E-2,6.360167E-1,-1.1415945E0,-5.3296363E-1,-6.183915E-1,-2.08038E-1,-8.634145E-2,3.272141E-1,4.886072E-1,9.711213E-1,-1.1756213E0,-1.3017997E-1,-8.8070214E-2,-9.1527677E-1,-7.422078E-1,-2.3673761E-1,-3.741109E-1,-6.3106164E-2,4.2221285E-2,-4.8649144E-1,2.4435846E-3,6.101387E-1,6.998173E-1,3.8203794E-1,9.908375E-1,-2.5492316E-1,-5.33552E-2,-7.3989645E-2,5.7190526E-2,-4.2391006E-2,9.664684E-3,-6.970426E-2,-9.727765E-3,-6.1485287E-2,1.4324941E-2,-3.9808672E-2,-4.4420216E-2,-2.9269035E-3,-2.1442218E-2,1.790752E-2,1.1199872E-2,-1.0507743E-2,2.9727578E-2,-2.5168469E-3,-3.0461887E-2,6.0566258E-2,6.345171E-3,-2.9575428E-2,1.6018743E-2,5.1614303E-2,3.9266888E-2,-1.9634317E-3,5.0458815E-2,1.6688615E-2,1.7986853E-2,5.1345613E-2,2.4136513E-2,-4.3889984E-2],"categories":[],"categories_nodes":[],"categories_segments":[],"categories_sizes":[],"default_left":[0,0,0,0,0,0,0,0,0,0,0,0,0,0,0,0,0,0,0,0,0,0,0,0,0,0,0,0,0,0,0,0,0,0,0,0,0,0,0,0,0,0,0,0,0,0,0,0,0,0,0,0,0,0,0,0,0,0,0,0,0,0,0],"id":4,"left_children":[1,3,5,7,9,11,13,15,17,19,21,23,25,27,29,31,33,35,37,39,41,43,45,47,49,51,53,55,57,59,61,-1,-1,-1,-1,-1,-1,-1,-1,-1,-1,-1,-1,-1,-1,-1,-1,-1,-1,-1,-1,-1,-1,-1,-1,-1,-1,-1,-1,-1,-1,-1,-1],"loss_changes":[3.63763E2,6.2639664E1,5.867598E1,8.77771E0,2.3727882E1,1.1849395E1,2.6530228E1,4.731186E0,5.4779043E0,1.0140762E1,9.684795E0,9.019003E0,1.0548997E1,8.3237E0,4.2652893E0,2.948822E0,6.22104E0,6.226211E0,3.7196722E0,9.353043E0,6.3285947E0,7.6790257E0,9.191062E0,6.844764E0,9.618529E0,4.1010475E0,7.175062E0,8.04528E0,7.408577E0,3.354721E0,1.996308E0,0E0,0E0,0E0,0E0,0E0,0E0,0E0,0E0,0E0,0E0,0E0,0E0,0E0,0E0,0E0,0E0,0E0,0E0,0E0,0E0,0E0,0E0,0E0,0E0,0E0,0E0,0E0,0E0,0E0,0E0,0E0,0E0],"parents":[2147483647,0,0,1,1,2,2,3,3,4,4,5,5,6,6,7,7,8,8,9,9,10,10,11,11,12,12,13,13,14,14,15,15,16,16,17,17,18,18,19,19,20,20,21,21,22,22,23,23,24,24,25,25,26,26,27,27,28,28,29,29,30,30],"right_children":[2,4,6,8,10,12,14,16,18,20,22,24,26,28,30,32,34,36,38,40,42,44,46,48,50,52,54,56,58,60,62,-1,-1,-1,-1,-1,-1,-1,-1,-1,-1,-1,-1,-1,-1,-1,-1,-1,-1,-1,-1,-1,-1,-1,-1,-1,-1,-1,-1,-1,-1,-1,-1],"split_conditions":[-6.9126554E0,-1.8977905E2,5.3328056E1,-2.874586E0,-4.966479E0,1.8703294E0,1.8409457E2,3E0,-2.1855573E2,1E0,-7.3167946E1,1.16E-2,-6.666667E-1,-4.760275E0,2.8E0,3.1E0,2.1600989E2,2.5E0,-1.2199382E0,-8.505304E0,-1.4858714E2,2E0,2.214E2,2.147E2,2E0,2.2965817E2,3.0348654E1,2.359E2,-3.8E0,2.136E2,2.1041568E2,-5.33552E-2,-7.3989645E-2,5.7190526E-2,-4.2391006E-2,9.664684E-3,-6.970426E-2,-9.727765E-3,-6.1485287E-2,1.4324941E-2,-3.9808672E-2,-4.4420216E-2,-2.9269035E-3,-2.1442218E-2,1.790752E-2,1.1199872E-2,-1.0507743E-2,2.9727578E-2,-2.5168469E-3,-3.0461887E-2,6.0566258E-2,6.345171E-3,-2.9575428E-2,1.6018743E-2,5.1614303E-2,3.9266888E-2,-1.9634317E-3,5.0458815E-2,1.6688615E-2,1.7986853E-2,5.1345613E-2,2.4136513E-2,-4.3889984E-2],"split_indices":[14,14,14,0,0,0,14,16,14,15,14,4,8,1,8,8,13,6,0,1,14,15,12,12,15,13,14,12,8,12,13,0,0,0,0,0,0,0,0,0,0,0,0,0,0,0,0,0,0,0,0,0,0,0,0,0,0,0,0,0,0,0,0],"split_type":[0,0,0,0,0,0,0,0,0,0,0,0,0,0,0,0,0,0,0,0,0,0,0,0,0,0,0,0,0,0,0,0,0,0,0,0,0,0,0,0,0,0,0,0,0,0,0,0,0,0,0,0,0,0,0,0,0,0,0,0,0,0,0],"sum_hessian":[1.6256884E3,7.9226904E2,8.334193E2,1.7260118E2,6.1966785E2,2.8773837E2,5.456809E2,1.4092108E2,3.16801E1,2.1731482E2,4.0235303E2,1.7391635E2,1.1382202E2,3.8068088E2,1.6500005E2,1.3617735E2,4.743723E0,1.521035E1,1.646975E1,1.6336964E2,5.3945164E1,1.8676431E2,2.1558873E2,1.3230351E2,4.161283E1,5.346171E1,6.0360313E1,1.2579683E2,2.5488405E2,1.6257747E2,2.4225907E0,1.0369207E2,3.248529E1,1.4953152E0,3.2484076E0,1.3215286E1,1.995064E0,5.4944186E0,1.097533E1,7.9283524E0,1.554413E2,1.0727992E1,4.321717E1,1.7416087E2,1.2603427E1,7.2843315E1,1.427454E2,1.8210567E1,1.1409295E2,3.9405136E1,2.2076917E0,4.4849957E1,8.611753E0,3.6835304E1,2.3525011E1,1.1269427E2,1.3102562E1,1.6791779E1,2.3809227E2,9.383971E0,1.531935E2,1.2121167E0,1.210474E0],"tree_param":{"num_deleted":"0","num_feature":"20","num_nodes":"63","size_leaf_vector":"1"}},{"base_weights":[2.2161566E-3,-3.9939275E-1,4.0288934E-1,-6.515353E-1,-1.8642096E-1,2.8815144E-1,8.591469E-1,-5.0476104E-1,-9.5118856E-1,-7.030241E-1,-1.2638472E-1,7.077703E-4,4.2468777E-1,5.823403E-1,1.0354289E0,-9.60764E-1,-4.486819E-1,3.0855104E-2,-9.825871E-1,-7.936975E-1,4.3478306E-2,4.139982E-1,-1.7212829E-1,-6.472171E-2,4.2800292E-1,3.457519E-1,7.7642965E-1,8.10254E-1,5.1598404E-2,1.0573069E0,-1.3272451E-2,-5.484732E-2,1.2875644E-2,7.2567086E-3,-2.4454137E-2,-5.2067406E-2,-5.923516E-3,-5.3106066E-2,-1.7343443E-2,2.5524586E-2,-4.5654427E-2,-1.3440552E-2,4.34046E-3,3.1919924E-3,-1.858462E-2,-5.847257E-2,2.9624004E-2,-5.2592408E-2,1.7908508E-2,4.4583425E-2,-4.971757E-3,-2.9402068E-2,4.4241976E-2,1.368379E-2,-7.7730134E-2,7.4629034E-3,5.4768223E-2],"categories":[],"categories_nodes":[],"categories_segments":[],"categories_sizes":[],"default_left":[0,0,0,0,0,0,0,0,0,0,0,0,0,0,0,0,0,0,0,0,0,0,0,0,0,0,0,0,0,0,0,0,0,0,0,0,0,0,0,0,0,0,0,0,0,0,0,0,0,0,0,0,0,0,0,0,0],"id":5,"left_children":[1,3,5,7,9,11,13,15,17,19,21,23,25,27,29,31,33,-1,35,37,-1,39,41,43,45,47,49,51,53,55,-1,-1,-1,-1,-1,-1,-1,-1,-1,-1,-1,-1,-1,-1,-1,-1,-1,-1,-1,-1,-1,-1,-1,-1,-1,-1,-1],"loss_changes":[2.6228973E2,4.3592545E1,4.2467316E1,1.5896194E1,1.36416235E1,2.5647022E1,7.372986E0,6.014641E0,6.5788116E0,7.2312527E0,9.9053135E0,5.939334E0,1.2032677E1,7.927286E0,3.0861664E0,4.7167435E0,5.5008354E0,0E0,5.9338837E0,4.8962936E0,0E0,4.4796457E0,9.2233925E0,7.294662E0,8.104891E0,6.6880455E0,8.203682E0,5.319931E0,7.8660984E0,3.1936417E0,0E0,0E0,0E0,0E0,0E0,0E0,0E0,0E0,0E0,0E0,0E0,0E0,0E0,0E0,0E0,0E0,0E0,0E0,0E0,0E0,0E0,0E0,0E0,0E0,0E0,0E0,0E0],"parents":[2147483647,0,0,1,1,2,2,3,3,4,4,5,5,6,6,7,7,8,8,9,9,10,10,11,11,12,12,13,13,14,14,15,15,16,16,18,18,19,19,21,21,22,22,23,23,24,24,25,25,26,26,27,27,28,28,29,29],"right_children":[2,4,6,8,10,12,14,16,18,20,22,24,26,28,30,32,34,-1,36,38,-1,40,42,44,46,48,50,52,54,56,-1,-1,-1,-1,-1,-1,-1,-1,-1,-1,-1,-1,-1,-1,-1,-1,-1,-1,-1,-1,-1,-1,-1,-1,-1,-1,-1],"split_conditions":[-4.5614082E-1,-4.966479E0,1.1661751E1,5.5E0,-2.4694586E-1,-2.507062E-2,5.5811208E-2,-2.5174826E-1,2.0553775E2,1.85E1,-8.103681E-1,3.74E-2,1E0,-5.0662255E0,3E0,2.3E0,-7.1E0,3.0855104E-2,3.2E0,-5.87055E0,4.3478306E-2,3.63E-2,1E0,6E-1,2.1167674E2,-9.97822E0,2.15E0,-1.52E-2,2.3058437E2,1.6116123E0,-1.3272451E-2,-5.484732E-2,1.2875644E-2,7.2567086E-3,-2.4454137E-2,-5.2067406E-2,-5.923516E-3,-5.3106066E-2,-1.7343443E-2,2.5524586E-2,-4.5654427E-2,-1.3440552E-2,4.34046E-3,3.1919924E-3,-1.858462E-2,-5.847257E-2,2.9624004E-2,-5.2592408E-2,1.7908508E-2,4.4583425E-2,-4.971757E-3,-2.9402068E-2,4.4241976E-2,1.368379E-2,-7.7730134E-2,7.4629034E-3,5.4768223E-2],"split_indices":[2,0,2,10,17,17,17,17,13,10,1,3,19,1,15,6,7,0,7,2,0,4,15,10,13,0,8,3,13,0,0,0,0,0,0,0,0,0,0,0,0,0,0,0,0,0,0,0,0,0,0,0,0,0,0,0,0],"split_type":[0,0,0,0,0,0,0,0,0,0,0,0,0,0,0,0,0,0,0,0,0,0,0,0,0,0,0,0,0,0,0,0,0,0,0,0,0,0,0,0,0,0,0,0,0,0,0,0,0,0,0,0,0,0,0,0,0],"sum_hessian":[1.6280002E3,8.130523E2,8.1494794E2,3.7134665E2,4.4170566E2,6.5249304E2,1.6245488E2,2.51059E2,1.2028765E2,4.487269E1,3.9683298E2,2.1044919E2,4.4204385E2,6.4880226E1,9.757465E1,2.5727291E1,2.2533171E2,1.9948611E0,1.18292786E2,4.289473E1,1.9779569E0,3.0342093E1,3.6649088E2,1.8323926E2,2.720994E1,3.6264432E2,7.9399536E1,4.5020615E1,1.9859608E1,9.614493E1,1.4297227E0,2.3230152E1,2.497138E0,1.4188932E1,2.1114278E2,1.1056887E2,7.72392E0,2.5936716E1,1.6958014E1,2.8859056E1,1.4830363E0,2.6682495E2,9.9665924E1,1.2970845E2,5.3530807E1,1.969679E0,2.5240261E1,2.4566832E0,3.6018765E2,7.015155E1,9.247985E0,1.9312025E0,4.3089413E1,1.8176142E1,1.683466E0,4.0654635E0,9.207947E1],"tree_param":{"num_deleted":"0","num_feature":"20","num_nodes":"57","size_leaf_vector":"1"}},{"base_weights":[1.5529675E-2,-5.132936E-1,3.3413246E-1,-8.366497E-1,-3.9100537E-1,6.7168035E-2,6.1333114E-1,-9.430918E-1,-4.007096E-1,-5.935192E-1,-2.4882251E-1,-1.2240939E-1,1.9185017E-1,4.8967153E-1,9.227959E-1,-1.2762455E0,-7.881568E-1,-6.125374E-1,4.3775454E-1,-7.19757E-1,-1.978547E-1,-3.9585075E-1,6.2125795E-2,1.5987843E-2,-3.461365E-1,1.4103788E-1,7.4195653E-1,4.0623787E-1,7.455972E-1,-4.277673E-2,9.505211E-1,1.3118543E-2,-6.660184E-2,1.1164052E-2,-4.1807253E-2,-3.753596E-2,4.583718E-2,-3.202267E-2,5.9859063E-2,-2.881068E-2,-6.432174E-2,1.4525657E-2,-3.7186224E-2,-2.9871553E-2,-1.1575096E-2,5.49824E-2,-2.0572469E-3,-1.565831E-2,9.695608E-3,-2.6384404E-2,7.602155E-3,-8.604889E-4,1.3988288E-2,4.1931074E-2,-2.0352745E-2,2.2675192E-2,-7.634566E-3,5.8999754E-2,2.682553E-2,3.907967E-2,5.6887683E-2],"categories":[],"categories_nodes":[],"categories_segments":[],"categories_sizes":[],"default_left":[0,0,0,0,0,0,0,0,0,0,0,0,0,0,0,0,0,0,0,0,0,0,0,0,0,0,0,0,0,0,0,0,0,0,0,0,0,0,0,0,0,0,0,0,0,0,0,0,0,0,0,0,0,0,0,0,0,0,0,0,0],"id":6,"left_children":[1,3,5,7,9,11,13,15,17,19,21,23,25,27,29,31,33,35,37,39,41,43,45,47,49,51,53,55,57,-1,59,-1,-1,-1,-1,-1,-1,-1,-1,-1,-1,-1,-1,-1,-1,-1,-1,-1,-1,-1,-1,-1,-1,-1,-1,-1,-1,-1,-1,-1,-1],"loss_changes":[2.7157523E2,2.363646E1,7.492971E1,7.29792E0,1.2567749E1,1.220371E1,1.8358063E1,5.8187637E0,6.34278E0,8.919735E0,1.1964699E1,6.3547654E0,8.59541E0,7.2415924E0,7.676605E0,3.8136215E0,4.6939316E0,6.5461617E0,6.8925347E0,1.0416412E1,1.2282766E1,5.740797E0,9.121477E0,7.5361342E0,7.1723366E0,6.28708E0,3.2384586E0,7.166645E0,7.148052E0,0E0,3.460968E0,0E0,0E0,0E0,0E0,0E0,0E0,0E0,0E0,0E0,0E0,0E0,0E0,0E0,0E0,0E0,0E0,0E0,0E0,0E0,0E0,0E0,0E0,0E0,0E0,0E0,0E0,0E0,0E0,0E0,0E0],"parents":[2147483647,0,0,1,1,2,2,3,3,4,4,5,5,6,6,7,7,8,8,9,9,10,10,11,11,12,12,13,13,14,14,15,15,16,16,17,17,18,18,19,19,20,20,21,21,22,22,23,23,24,24,25,25,26,26,27,27,28,28,30,30],"right_children":[2,4,6,8,10,12,14,16,18,20,22,24,26,28,30,32,34,36,38,40,42,44,46,48,50,52,54,56,58,-1,60,-1,-1,-1,-1,-1,-1,-1,-1,-1,-1,-1,-1,-1,-1,-1,-1,-1,-1,-1,-1,-1,-1,-1,-1,-1,-1,-1,-1,-1,-1],"split_conditions":[-4.5642265E1,-1.8977905E2,6.624907E1,1E0,2.1865524E2,-1.5086812E0,1.1661751E1,-1.5556951E1,9.92866E0,1.8972902E-1,1.5E-3,-4.0677094E0,1.5384616E-1,1.8107465E2,-1.7631578E-1,2.0766824E2,-1.046E-1,2.373E2,2.229E2,-1.8645713E0,2.249E2,-1.45E-2,-2.2E0,-2.3E0,1E0,1.6116123E0,4.4317737E0,2.376E2,1.0685367E-1,-4.277673E-2,2.267E2,1.3118543E-2,-6.660184E-2,1.1164052E-2,-4.1807253E-2,-3.753596E-2,4.583718E-2,-3.202267E-2,5.9859063E-2,-2.881068E-2,-6.432174E-2,1.4525657E-2,-3.7186224E-2,-2.9871553E-2,-1.1575096E-2,5.49824E-2,-2.0572469E-3,-1.565831E-2,9.695608E-3,-2.6384404E-2,7.602155E-3,-8.604889E-4,1.3988288E-2,4.1931074E-2,-2.0352745E-2,2.2675192E-2,-7.634566E-3,5.8999754E-2,2.682553E-2,3.907967E-2,5.6887683E-2],"split_indices":[14,14,14,19,13,2,2,2,1,0,3,2,17,14,17,13,5,12,11,0,12,5,7,7,15,0,1,12,17,0,12,0,0,0,0,0,0,0,0,0,0,0,0,0,0,0,0,0,0,0,0,0,0,0,0,0,0,0,0,0,0],"split_type":[0,0,0,0,0,0,0,0,0,0,0,0,0,0,0,0,0,0,0,0,0,0,0,0,0,0,0,0,0,0,0,0,0,0,0,0,0,0,0,0,0,0,0,0,0,0,0,0,0,0,0,0,0,0,0,0,0,0,0,0,0],"sum_hessian":[1.6098519E3,6.050187E2,1.00483325E3,1.6441884E2,4.4059982E2,5.143051E2,4.905281E2,1.3121672E2,3.3202126E1,1.8043225E2,2.6016757E2,2.0405724E2,3.102479E2,3.5232443E2,1.3820369E2,3.935505E1,9.186167E1,2.6720875E1,6.4812503E0,1.3616829E2,4.4263966E1,1.7645831E2,8.3709274E1,1.26644E2,7.741323E1,2.851642E2,2.5083698E1,2.6765442E2,8.467E1,1.6632501E0,1.3654044E2,1.2475436E0,3.8107506E1,3.9955442E0,8.786613E1,2.4973444E1,1.7474319E0,2.7432046E0,3.738046E0,1.1025639E2,2.5911894E1,2.3609386E1,2.0654577E1,7.8068756E1,9.838955E1,6.7044077E0,7.700487E1,4.4170307E1,8.2473694E1,5.6693275E1,2.071996E1,1.3361955E2,1.5154465E2,2.3386368E1,1.6973305E0,2.4695891E2,2.0695517E1,2.600289E1,5.8667107E1,7.449914E1,6.2041306E1],"tree_param":{"num_deleted":"0","num_feature":"20","num_nodes":"61","size_leaf_vector":"1"}},{"base_weights":[-1.4519558E-2,-3.9747426E-1,4.0681806E-1,-7.2847134E-1,-2.1068266E-1,1.9651484E-1,6.463995E-1,-7.691607E-1,7.449833E-1,-3.0699694E-1,4.365814E-2,-3.3167535E-1,2.5132617E-1,5.364994E-1,9.652803E-1,-8.9660794E-1,-5.42283E-1,1.1299902E0,1.3059726E-1,-4.4649974E-1,-1.5902978E-1,-1.1525875E-1,2.45015E-1,5.6719005E-2,-4.9425474E-1,8.704213E-2,4.095327E-1,1.4380802E-1,6.0784113E-1,9.877386E-1,-1.2886402E-2,2.5065236E-3,-4.659458E-2,-1.6787915E-2,-5.196776E-2,9.286045E-3,6.8996035E-2,-2.7267104E-2,5.239783E-2,-3.297652E-2,-1.44261485E-2,1.8277144E-2,-1.3491886E-2,4.4519316E-2,-8.796716E-3,-1.8947696E-2,1.8218797E-2,-7.150297E-2,-1.5800165E-2,1.5748533E-3,4.0540468E-2,1.3546814E-2,4.0713105E-2,-3.6352657E-2,1.6356796E-2,3.4373693E-2,1.623583E-2,1.8664768E-2,5.2419614E-2],"categories":[],"categories_nodes":[],"categories_segments":[],"categories_sizes":[],"default_left":[0,0,0,0,0,0,0,0,0,0,0,0,0,0,0,0,0,0,0,0,0,0,0,0,0,0,0,0,0,0,0,0,0,0,0,0,0,0,0,0,0,0,0,0,0,0,0,0,0,0,0,0,0,0,0,0,0,0,0],"id":7,"left_children":[1,3,5,7,9,11,13,15,17,19,21,23,25,27,29,31,33,35,37,39,41,43,45,-1,47,49,51,53,55,57,-1,-1,-1,-1,-1,-1,-1,-1,-1,-1,-1,-1,-1,-1,-1,-1,-1,-1,-1,-1,-1,-1,-1,-1,-1,-1,-1,-1,-1],"loss_changes":[2.6087708E2,5.221216E1,3.8661247E1,1.8867004E1,1.3310904E1,1.1993949E1,1.2078476E1,8.113861E0,1.9121971E0,8.0588875E0,4.827266E0,9.882536E0,9.666674E0,7.464363E0,2.750595E0,6.3572845E0,1.0893261E1,9.7624445E-1,3.3527246E0,6.6136055E0,1.1298651E1,5.312714E0,5.08887E0,0E0,5.5369015E0,7.387713E0,1.04314575E1,7.063441E0,4.9128876E0,2.942009E0,0E0,0E0,0E0,0E0,0E0,0E0,0E0,0E0,0E0,0E0,0E0,0E0,0E0,0E0,0E0,0E0,0E0,0E0,0E0,0E0,0E0,0E0,0E0,0E0,0E0,0E0,0E0,0E0,0E0],"parents":[2147483647,0,0,1,1,2,2,3,3,4,4,5,5,6,6,7,7,8,8,9,9,10,10,11,11,12,12,13,13,14,14,15,15,16,16,17,17,18,18,19,19,20,20,21,21,22,22,24,24,25,25,26,26,27,27,28,28,29,29],"right_children":[2,4,6,8,10,12,14,16,18,20,22,24,26,28,30,32,34,36,38,40,42,44,46,-1,48,50,52,54,56,58,-1,-1,-1,-1,-1,-1,-1,-1,-1,-1,-1,-1,-1,-1,-1,-1,-1,-1,-1,-1,-1,-1,-1,-1,-1,-1,-1,-1,-1],"split_conditions":[5.769136E0,-1.3019026E2,1.0425433E2,1.8550838E0,1E0,-4.1E0,2.3037122E2,2E-1,5.714286E-1,-5.1812824E1,1E-1,1.3631628E1,5.5811208E-2,-4.77E-2,2.8E0,-2.7857144E0,2.8E0,2.0918033E0,1.64E-2,2.24E2,-4.3056226E0,-7.1E0,-1.7857143E-1,5.6719005E-2,-8.1951685E0,6.55E-2,2.8E0,-1.3E0,2.317E2,-1E0,-1.2886402E-2,2.5065236E-3,-4.659458E-2,-1.6787915E-2,-5.196776E-2,9.286045E-3,6.8996035E-2,-2.7267104E-2,5.239783E-2,-3.297652E-2,-1.44261485E-2,1.8277144E-2,-1.3491886E-2,4.4519316E-2,-8.796716E-3,-1.8947696E-2,1.8218797E-2,-7.150297E-2,-1.5800165E-2,1.5748533E-3,4.0540468E-2,1.3546814E-2,4.0713105E-2,-3.6352657E-2,1.6356796E-2,3.4373693E-2,1.623583E-2,1.8664768E-2,5.2419614E-2],"split_indices":[14,14,14,2,15,7,14,6,8,14,7,14,17,5,8,8,8,2,3,11,1,7,17,0,2,4,6,6,11,16,0,0,0,0,0,0,0,0,0,0,0,0,0,0,0,0,0,0,0,0,0,0,0,0,0,0,0,0,0],"split_type":[0,0,0,0,0,0,0,0,0,0,0,0,0,0,0,0,0,0,0,0,0,0,0,0,0,0,0,0,0,0,0,0,0,0,0,0,0,0,0,0,0,0,0,0,0,0,0,0,0,0,0,0,0,0,0,0,0,0,0],"sum_hessian":[1.6148052E3,8.459636E2,7.6884155E2,3.0413416E2,5.4182947E2,4.10408E2,3.5843356E2,2.9642636E2,7.70781E0,3.9285522E2,1.4897423E2,3.8109917E1,3.7229807E2,2.68559E2,8.9874596E1,1.8791454E2,1.0851181E2,4.22253E0,3.4852803E0,2.0117279E2,1.9168243E2,8.350062E1,6.547361E1,3.2076468E0,3.4902267E1,1.8340146E2,1.8889662E2,4.175265E1,2.2680632E2,8.844287E1,1.4317217E0,6.73658E0,1.8117796E2,7.784433E1,3.0667477E1,1.248526E0,2.9740038E0,2.2401774E0,1.245103E0,8.430851E1,1.1686429E2,3.302776E1,1.5865466E2,3.9732292E0,7.952739E1,1.0164259E1,5.5309353E1,4.460792E0,3.0441475E1,1.7129875E2,1.2102698E1,1.4195474E2,4.694188E1,6.745186E0,3.5007465E1,1.7590298E2,5.0903336E1,8.588888E0,7.985399E1],"tree_param":{"num_deleted":"0","num_feature":"20","num_nodes":"59","size_leaf_vector":"1"}},{"base_weights":[-7.561624E-3,-4.1320723E-1,3.8373965E-1,-8.835325E-1,-2.8628364E-1,2.7146974E-1,8.35818E-1,-9.0840906E-1,3.3272665E-2,-4.8147053E-1,-1.8946013E-1,6.731778E-2,3.8865495E-1,9.706006E-1,6.622572E-1,-9.2752004E-1,2.8257037E-2,-3.7566584E-1,-9.3929976E-1,2.2621371E-1,-2.3743671E-1,1.4293489E-1,-3.297159E-1,4.1419464E-1,-2.424152E-1,3.1566325E-1,1.0601665E0,4.722434E-1,1.0760121E0,7.1425857E-3,-4.757648E-2,-2.3344703E-2,5.708727E-3,-5.406643E-2,8.187416E-3,2.3391252E-2,-6.269685E-2,-1.8205391E-2,-5.8598127E-3,2.2601908E-2,1.9268843E-3,-4.847974E-2,-4.7148094E-3,1.3033994E-2,2.5412643E-2,-4.9131136E-2,2.2427611E-2,-6.381048E-2,3.4190394E-2,5.685244E-2,2.2447972E-2,-7.420335E-3,2.9919019E-2,-5.3451117E-3,5.7194453E-2],"categories":[],"categories_nodes":[],"categories_segments":[],"categories_sizes":[],"default_left":[0,0,0,0,0,0,0,0,0,0,0,0,0,0,0,0,0,0,0,0,0,0,0,0,0,0,0,0,0,0,0,0,0,0,0,0,0,0,0,0,0,0,0,0,0,0,0,0,0,0,0,0,0,0,0],"id":8,"left_children":[1,3,5,7,9,11,13,15,-1,17,19,21,23,25,27,29,-1,31,33,35,37,39,41,43,45,47,49,51,53,-1,-1,-1,-1,-1,-1,-1,-1,-1,-1,-1,-1,-1,-1,-1,-1,-1,-1,-1,-1,-1,-1,-1,-1,-1,-1],"loss_changes":[2.5619562E2,4.7054703E1,4.1470932E1,7.0756073E0,1.1730843E1,1.5753784E1,3.169258E0,5.1905365E0,0E0,9.663078E0,8.425251E0,7.3051224E0,6.8510895E0,4.9199677E0,5.339489E0,4.3495483E0,0E0,7.6331806E0,6.1534767E0,1.6303827E1,5.6968555E0,6.558218E0,5.7803802E0,5.6854553E0,9.09586E0,8.022612E0,3.1725311E0,4.2186947E0,1.9389782E0,0E0,0E0,0E0,0E0,0E0,0E0,0E0,0E0,0E0,0E0,0E0,0E0,0E0,0E0,0E0,0E0,0E0,0E0,0E0,0E0,0E0,0E0,0E0,0E0,0E0,0E0],"parents":[2147483647,0,0,1,1,2,2,3,3,4,4,5,5,6,6,7,7,9,9,10,10,11,11,12,12,13,13,14,14,15,15,17,17,18,18,19,19,20,20,21,21,22,22,23,23,24,24,25,25,26,26,27,27,28,28],"right_children":[2,4,6,8,10,12,14,16,-1,18,20,22,24,26,28,30,-1,32,34,36,38,40,42,44,46,48,50,52,54,-1,-1,-1,-1,-1,-1,-1,-1,-1,-1,-1,-1,-1,-1,-1,-1,-1,-1,-1,-1,-1,-1,-1,-1,-1,-1],"split_conditions":[-1.8126571E0,-1.8977905E2,1.8409457E2,8.7E0,-5.0333495E0,1.5976586E0,2E0,4E0,3.3272665E-2,5.2272726E-2,-4.236556E0,1E0,5.4049325E0,-3.4E0,1.143885E1,-4.7006625E-1,2.8257037E-2,2.338E2,-1.7583414E1,2.323E2,1E-1,2.193E2,-9.701912E-3,6.624907E1,1.0465432E1,2.218E2,2.362E2,2.6E0,-1.44E1,7.1425857E-3,-4.757648E-2,-2.3344703E-2,5.708727E-3,-5.406643E-2,8.187416E-3,2.3391252E-2,-6.269685E-2,-1.8205391E-2,-5.8598127E-3,2.2601908E-2,1.9268843E-3,-4.847974E-2,-4.7148094E-3,1.3033994E-2,2.5412643E-2,-4.9131136E-2,2.2427611E-2,-6.381048E-2,3.4190394E-2,5.685244E-2,2.2447972E-2,-7.420335E-3,2.9919019E-2,-5.3451117E-3,5.7194453E-2],"split_indices":[14,14,14,9,0,2,7,16,0,17,1,18,1,7,0,17,0,12,14,12,7,12,17,14,0,12,12,7,10,0,0,0,0,0,0,0,0,0,0,0,0,0,0,0,0,0,0,0,0,0,0,0,0,0,0],"split_type":[0,0,0,0,0,0,0,0,0,0,0,0,0,0,0,0,0,0,0,0,0,0,0,0,0,0,0,0,0,0,0,0,0,0,0,0,0,0,0,0,0,0,0,0,0,0,0,0,0,0,0,0,0,0,0],"sum_hessian":[1.6120386E3,7.9148413E2,8.205544E2,1.6693446E2,6.245497E2,6.585976E2,1.6195679E2,1.647029E2,2.2315657E0,2.0576814E2,4.1878152E2,2.407515E2,4.178461E2,8.8577576E1,7.33792E1,1.6295996E2,1.7429307E0,1.6862039E2,3.7147762E1,4.2949318E1,3.758322E2,2.0277243E2,3.797906E1,4.0192374E2,1.5922372E1,1.1200426E1,7.737715E1,5.175327E1,2.1625935E1,3.4665668E0,1.594934E2,1.4218634E2,2.6434038E1,3.2927673E1,4.2200894E0,3.751029E1,5.43903E0,1.8203429E2,1.9379794E2,5.0353596E1,1.5241884E2,9.376052E0,2.8603012E1,1.541322E2,2.4779153E2,7.4834914E0,8.438881E0,1.6404504E0,9.559976E0,6.7967354E1,9.409799E0,8.711629E0,4.304164E1,1.1423781E0,2.0483557E1],"tree_param":{"num_deleted":"0","num_feature":"20","num_nodes":"55","size_leaf_vector":"1"}},{"base_weights":[1.0470345E-2,-4.5122713E-1,2.9239866E-1,-8.0208355E-1,-3.1877786E-1,8.133458E-2,5.061093E-1,-8.153016E-1,2.6741756E-2,-5.427682E-1,-2.2256179E-1,-1.6381267E-2,3.3761725E-1,3.8129273E-1,7.660847E-1,-9.514143E-1,-6.2062985E-1,-2.1976408E-1,-8.2058555E-1,-1.0083114E0,-1.8848358E-1,-3.908225E-1,5.842303E-2,-6.765135E-1,4.044502E-1,2.661868E-1,6.7411387E-1,9.134908E-1,5.2512664E-1,-2.3150003E-2,-5.214571E-2,2.8193766E-2,-3.337688E-2,-2.6698416E-2,2.1487465E-2,-5.225916E-2,-1.3200479E-2,7.2692814E-3,-6.347787E-2,-1.3068803E-2,3.7318286E-3,1.6747268E-2,-2.7773816E-2,-9.78097E-3,7.0541413E-3,2.9802669E-2,-5.6300785E-2,1.5291192E-2,5.1443852E-2,-5.175774E-2,1.4390372E-2,3.5973262E-2,-2.8450543E-2,1.856512E-2,4.90386E-2,9.434109E-3,4.0690042E-2],"categories":[],"categories_nodes":[],"categories_segments":[],"categories_sizes":[],"default_left":[0,0,0,0,0,0,0,0,0,0,0,0,0,0,0,0,0,0,0,0,0,0,0,0,0,0,0,0,0,0,0,0,0,0,0,0,0,0,0,0,0,0,0,0,0,0,0,0,0,0,0,0,0,0,0,0,0],"id":9,"left_children":[1,3,5,7,9,11,13,15,-1,17,19,21,23,25,27,29,31,33,35,37,39,41,43,45,47,49,51,53,55,-1,-1,-1,-1,-1,-1,-1,-1,-1,-1,-1,-1,-1,-1,-1,-1,-1,-1,-1,-1,-1,-1,-1,-1,-1,-1,-1,-1],"loss_changes":[2.0895221E2,2.8026978E1,4.4914497E1,3.3718185E0,9.436916E0,1.2592653E1,1.5771248E1,3.7789307E0,0E0,1.1715389E1,8.162208E0,1.0241799E1,9.680273E0,1.1160625E1,5.1885223E0,3.7702484E0,4.3063374E0,1.3017632E1,8.58707E0,4.023134E0,5.776881E0,7.461135E0,6.431401E0,5.7936215E0,7.7426662E0,7.1395073E0,5.7248344E0,3.1984024E0,5.957741E0,0E0,0E0,0E0,0E0,0E0,0E0,0E0,0E0,0E0,0E0,0E0,0E0,0E0,0E0,0E0,0E0,0E0,0E0,0E0,0E0,0E0,0E0,0E0,0E0,0E0,0E0,0E0,0E0],"parents":[2147483647,0,0,1,1,2,2,3,3,4,4,5,5,6,6,7,7,9,9,10,10,11,11,12,12,13,13,14,14,15,15,16,16,17,17,18,18,19,19,20,20,21,21,22,22,23,23,24,24,25,25,26,26,27,27,28,28],"right_children":[2,4,6,8,10,12,14,16,-1,18,20,22,24,26,28,30,32,34,36,38,40,42,44,46,48,50,52,54,56,-1,-1,-1,-1,-1,-1,-1,-1,-1,-1,-1,-1,-1,-1,-1,-1,-1,-1,-1,-1,-1,-1,-1,-1,-1,-1,-1,-1],"split_conditions":[-4.462469E1,-1.8977905E2,6.470481E1,4.164924E0,-6.304891E0,1E0,1.8409457E2,-7E-1,2.6741756E-2,-3.71E-2,-1E0,-3.3777778E0,-9.536356E0,3E0,-7.8571427E-1,2.181E2,-1.3E1,2.294E2,-9.1301636E1,-2.34E-2,2.4E0,-9.95006E-2,-4.05E-2,-4.28E-2,6.64E-2,-9.265568E0,2.418E2,2.174E2,2E0,-2.3150003E-2,-5.214571E-2,2.8193766E-2,-3.337688E-2,-2.6698416E-2,2.1487465E-2,-5.225916E-2,-1.3200479E-2,7.2692814E-3,-6.347787E-2,-1.3068803E-2,3.7318286E-3,1.6747268E-2,-2.7773816E-2,-9.78097E-3,7.0541413E-3,2.9802669E-2,-5.6300785E-2,1.5291192E-2,5.1443852E-2,-5.175774E-2,1.4390372E-2,3.5973262E-2,-2.8450543E-2,1.856512E-2,4.90386E-2,9.434109E-3,4.0690042E-2],"split_indices":[14,14,14,0,0,15,14,6,0,3,15,7,2,6,8,11,16,11,14,3,7,17,5,3,5,2,11,12,6,0,0,0,0,0,0,0,0,0,0,0,0,0,0,0,0,0,0,0,0,0,0,0,0,0,0,0,0],"split_type":[0,0,0,0,0,0,0,0,0,0,0,0,0,0,0,0,0,0,0,0,0,0,0,0,0,0,0,0,0,0,0,0,0,0,0,0,0,0,0,0,0,0,0,0,0,0,0,0,0,0,0,0,0,0,0,0,0],"sum_hessian":[1.6032662E3,6.076132E2,9.95653E2,1.6513005E2,4.4248315E2,5.016228E2,4.9403018E2,1.6389973E2,1.2303054E0,1.3156339E2,3.1091977E2,3.6383524E2,1.3778758E2,3.3544608E2,1.5858412E2,9.4169815E1,6.972992E1,6.166253E1,6.9900856E1,1.1735822E1,2.9918393E2,5.987911E1,3.0395612E2,7.955006E0,1.2983258E2,2.4216267E2,9.32834E1,9.66608E1,6.1923325E1,1.5814455E1,7.835536E1,2.2363791E0,6.749354E1,4.1678375E1,1.9984156E1,4.9177967E1,2.0722893E1,2.2487087E0,9.487113E0,2.3428604E2,6.48979E1,1.0881398E1,4.8997707E1,7.4285194E1,2.2967093E2,1.9913495E0,5.9636564E0,1.1340963E2,1.6422953E1,3.1914556E0,2.389712E2,9.040646E1,2.8769398E0,1.1390293E1,8.527051E1,2.9359264E1,3.256406E1],"tree_param":{"num_deleted":"0","num_feature":"20","num_nodes":"57","size_leaf_vector":"1"}},{"base_weights":[-3.8234165E-3,-2.878528E-1,4.3362734E-1,-6.530278E-1,-1.22455075E-1,3.0836746E-1,7.0396423E-1,-7.051704E-1,3.0536416E-1,-3.397687E-1,-3.6070496E-2,5.5601186E-1,1.9828914E-1,-5.0813206E-2,7.192834E-1,-7.515816E-1,-2.0628619E-1,-7.3945604E-2,6.2192447E-2,-3.9502424E-1,3.1234664E-1,-7.09006E-2,5.644458E-1,8.2882005E-1,3.3570144E-1,-7.8211313E-1,2.3550415E-1,-3.5322543E-2,7.332724E-1,3.264295E-2,-3.8383853E-2,2.5133118E-2,-2.4265505E-2,1.8533094E-2,-4.732963E-2,-2.22391E-2,1.8832752E-3,1.7983994E-3,6.25424E-2,2.510577E-3,-9.631466E-3,5.972882E-2,1.2269993E-2,-2.3345323E-2,4.376822E-2,-4.891337E-2,2.0883312E-2,-6.655621E-2,4.341296E-2,1.4603433E-2,-2.2156691E-2,4.357929E-2,2.975001E-2],"categories":[],"categories_nodes":[],"categories_segments":[],"categories_sizes":[],"default_left":[0,0,0,0,0,0,0,0,0,0,0,0,0,0,0,0,0,0,0,0,0,0,0,0,0,0,0,0,0,0,0,0,0,0,0,0,0,0,0,0,0,0,0,0,0,0,0,0,0,0,0,0,0],"id":10,"left_children":[1,3,5,7,9,11,13,15,17,19,21,23,25,-1,27,29,31,33,-1,35,37,39,41,43,45,47,49,-1,51,-1,-1,-1,-1,-1,-1,-1,-1,-1,-1,-1,-1,-1,-1,-1,-1,-1,-1,-1,-1,-1,-1,-1,-1],"loss_changes":[1.9724646E2,5.8056473E1,2.0945839E1,1.5198524E1,1.2447324E1,1.1580616E1,5.925255E0,6.4358673E0,5.8475924E0,6.921692E0,9.996967E0,7.6201096E0,1.1073206E1,0E0,4.4262314E0,6.379669E0,5.309166E0,5.184588E0,0E0,3.7709427E0,3.9225445E0,6.6562533E0,4.9758453E0,3.9085083E0,8.419613E0,1.1254687E1,1.11963625E1,0E0,3.2019577E0,0E0,0E0,0E0,0E0,0E0,0E0,0E0,0E0,0E0,0E0,0E0,0E0,0E0,0E0,0E0,0E0,0E0,0E0,0E0,0E0,0E0,0E0,0E0,0E0],"parents":[2147483647,0,0,1,1,2,2,3,3,4,4,5,5,6,6,7,7,8,8,9,9,10,10,11,11,12,12,14,14,15,15,16,16,17,17,19,19,20,20,21,21,22,22,23,23,24,24,25,25,26,26,28,28],"right_children":[2,4,6,8,10,12,14,16,18,20,22,24,26,-1,28,30,32,34,-1,36,38,40,42,44,46,48,50,-1,52,-1,-1,-1,-1,-1,-1,-1,-1,-1,-1,-1,-1,-1,-1,-1,-1,-1,-1,-1,-1,-1,-1,-1,-1],"split_conditions":[3.3678036E1,-1.3019026E2,1.6583012E2,3.8504982E-1,-4.6005626E0,-4.760275E0,-1.342E-1,3.3E0,1.68E-2,1.5976586E0,1.4906472E-1,2E0,2.097E2,-5.0813206E-2,-6.5588217E0,-1.1E1,2.212E2,8E-1,6.2192447E-2,4.75E-2,2.65E-2,-1.4285715E-1,2.21E2,2.094E2,4.6305388E-1,4.471837E0,2.376E2,-3.5322543E-2,-1.4E0,3.264295E-2,-3.8383853E-2,2.5133118E-2,-2.4265505E-2,1.8533094E-2,-4.732963E-2,-2.22391E-2,1.8832752E-3,1.7983994E-3,6.25424E-2,2.510577E-3,-9.631466E-3,5.972882E-2,1.2269993E-2,-2.3345323E-2,4.376822E-2,-4.891337E-2,2.0883312E-2,-6.655621E-2,4.341296E-2,1.4603433E-2,-2.2156691E-2,4.357929E-2,2.975001E-2],"split_indices":[14,14,14,2,0,1,5,7,4,2,17,16,11,0,0,10,12,7,0,5,5,8,11,11,2,2,12,0,8,0,0,0,0,0,0,0,0,0,0,0,0,0,0,0,0,0,0,0,0,0,0,0,0],"split_type":[0,0,0,0,0,0,0,0,0,0,0,0,0,0,0,0,0,0,0,0,0,0,0,0,0,0,0,0,0,0,0,0,0,0,0,0,0,0,0,0,0,0,0,0,0,0,0,0,0,0,0,0,0],"sum_hessian":[1.5855065E3,9.61538E2,6.2396844E2,2.9882535E2,6.6271265E2,4.278609E2,1.9610753E2,2.8365683E2,1.5168529E1,1.876691E2,4.7504355E2,1.3041464E2,2.9744626E2,1.1542538E0,1.9495328E2,2.590508E2,2.4606018E1,1.1458518E1,3.7100108E0,1.7337297E2,1.4296124E1,4.4983496E2,2.520861E1,5.7031292E1,7.338335E1,1.0145826E1,2.8730045E2,1.4132824E0,1.9354E2,2.486936E0,2.5656387E2,6.7228894E0,1.788313E1,7.972056E0,3.4864619E0,1.554669E2,1.7906078E1,1.1845944E1,2.4501796E0,2.2578305E2,2.240519E2,7.550939E0,1.7657671E1,1.6644343E0,5.536686E1,3.6667552E0,6.971659E1,7.758374E0,2.387452E0,2.657221E2,2.1578323E1,9.410425E1,9.9435745E1],"tree_param":{"num_deleted":"0","num_feature":"20","num_nodes":"53","size_leaf_vector":"1"}},{"base_weights":[2.8748624E-3,-2.7013093E-1,3.5641733E-1,-5.19127E-1,-8.4504224E-2,2.603261E-1,6.544314E-1,-1.2013289E0,-4.760842E-1,-2.778717E-1,5.933313E-2,1.994609E-1,5.390496E-1,-4.3212304E-1,6.8399394E-1,5.719642E-3,-1.3015878E0,-4.9434492E-1,6.9526976E-1,5.4226607E-2,-3.807601E-1,-4.9697062E-1,1.1378537E-1,3.236219E-1,3.967738E-2,6.6341585E-1,-2.3226053E-2,-6.595144E-2,2.599372E-2,8.976999E-1,4.9775842E-1,-7.019835E-2,-1.1288892E-2,-2.0083528E-2,-3.539967E-2,6.034658E-2,-5.4959506E-3,-2.6772812E-2,2.091201E-2,1.148963E-2,-2.2193005E-2,-2.9989678E-2,3.705348E-2,7.601133E-3,-2.7308E-2,-2.604096E-3,1.991208E-2,2.0373946E-2,-2.0527549E-3,3.8109783E-2,5.372783E-4,-1.8209038E-2,5.30725E-2,2.5322301E-2,5.5064972E-2,9.041593E-3,3.509342E-2],"categories":[],"categories_nodes":[],"categories_segments":[],"categories_sizes":[],"default_left":[0,0,0,0,0,0,0,0,0,0,0,0,0,0,0,0,0,0,0,0,0,0,0,0,0,0,0,0,0,0,0,0,0,0,0,0,0,0,0,0,0,0,0,0,0,0,0,0,0,0,0,0,0,0,0,0,0],"id":11,"left_children":[1,3,5,7,9,11,13,15,17,19,21,23,25,27,29,-1,31,33,35,37,39,41,43,45,47,49,51,-1,-1,53,55,-1,-1,-1,-1,-1,-1,-1,-1,-1,-1,-1,-1,-1,-1,-1,-1,-1,-1,-1,-1,-1,-1,-1,-1,-1,-1],"loss_changes":[1.5352388E2,4.144059E1,1.9676788E1,1.0678612E1,1.4351406E1,8.811527E0,5.702385E0,3.061901E0,8.088074E0,7.53858E0,9.034282E0,8.579433E0,6.5637016E0,4.967544E0,6.0903854E0,0E0,1.9519119E0,6.7858276E0,2.5935307E0,1.158284E1,6.578354E0,3.831861E0,6.915619E0,6.849468E0,5.674044E0,4.937748E0,7.0164404E0,0E0,0E0,5.4359016E0,5.6957874E0,0E0,0E0,0E0,0E0,0E0,0E0,0E0,0E0,0E0,0E0,0E0,0E0,0E0,0E0,0E0,0E0,0E0,0E0,0E0,0E0,0E0,0E0,0E0,0E0,0E0,0E0],"parents":[2147483647,0,0,1,1,2,2,3,3,4,4,5,5,6,6,7,7,8,8,9,9,10,10,11,11,12,12,13,13,14,14,16,16,17,17,18,18,19,19,20,20,21,21,22,22,23,23,24,24,25,25,26,26,29,29,30,30],"right_children":[2,4,6,8,10,12,14,16,18,20,22,24,26,28,30,-1,32,34,36,38,40,42,44,46,48,50,52,-1,-1,54,56,-1,-1,-1,-1,-1,-1,-1,-1,-1,-1,-1,-1,-1,-1,-1,-1,-1,-1,-1,-1,-1,-1,-1,-1,-1,-1],"split_conditions":[1.0858948E0,-4.895213E0,1.1081527E1,-3.3333334E-1,-6.1453413E-2,1E0,-1.6666667E-1,2.0672276E2,2.3826265E2,-1.2E0,-1.0029648E1,2.264E2,2.324E2,-8.2E0,2.9E-2,5.719642E-3,-6.2337904E0,5.5E0,2.4014989E2,-2.6E0,-9.815772E-1,3.1E-2,5.1E0,-2.6E0,-2.7857144E0,2.15E0,3.81E-2,-6.595144E-2,2.599372E-2,9.6E-3,1.4385068E1,-7.019835E-2,-1.1288892E-2,-2.0083528E-2,-3.539967E-2,6.034658E-2,-5.4959506E-3,-2.6772812E-2,2.091201E-2,1.148963E-2,-2.2193005E-2,-2.9989678E-2,3.705348E-2,7.601133E-3,-2.7308E-2,-2.604096E-3,1.991208E-2,2.0373946E-2,-2.0527549E-3,3.8109783E-2,5.372783E-4,-1.8209038E-2,5.30725E-2,2.5322301E-2,5.5064972E-2,9.041593E-3,3.509342E-2],"split_indices":[2,0,2,17,17,19,17,13,13,8,2,12,12,10,3,0,0,10,13,8,1,3,7,7,8,8,4,0,0,4,2,0,0,0,0,0,0,0,0,0,0,0,0,0,0,0,0,0,0,0,0,0,0,0,0,0,0],"split_type":[0,0,0,0,0,0,0,0,0,0,0,0,0,0,0,0,0,0,0,0,0,0,0,0,0,0,0,0,0,0,0,0,0,0,0,0,0,0,0,0,0,0,0,0,0,0,0,0,0,0,0,0,0,0,0,0,0],"sum_hessian":[1.5886079E3,8.965371E2,6.920708E2,3.8214224E2,5.143949E2,5.24746E2,1.6732484E2,2.1082815E1,3.6105942E2,2.1902167E2,2.9537323E2,4.3210278E2,9.264318E1,4.071245E0,1.632536E2,1.4827944E0,1.960002E1,3.560862E2,4.973203E0,5.191756E1,1.6710411E2,2.5609598E1,2.6976364E2,2.4257928E2,1.8952348E2,7.5716125E1,1.6927053E1,1.9080851E0,2.1631603E0,7.424124E1,8.901236E1,1.7618343E1,1.9816766E0,2.5036526E2,1.05720955E2,2.7357886E0,2.2374146E0,1.9636494E1,3.2281067E1,1.5404932E1,1.5169917E2,2.4121746E1,1.4878522E0,2.5571701E2,1.4046619E1,4.0246037E1,2.0233325E2,3.3384212E1,1.5613927E2,6.561732E1,1.0098804E1,1.3384156E1,3.5428975E0,2.660408E1,4.763716E1,3.5608345E1,5.3404015E1],"tree_param":{"num_deleted":"0","num_feature":"20","num_nodes":"57","size_leaf_vector":"1"}},{"base_weights":[2.8616034E-3,-3.9703766E-1,2.726679E-1,-6.041191E-1,-2.1029533E-1,1.6441831E-1,7.0970106E-1,-6.345164E-1,4.4300154E-1,-2.7958095E-1,1.1134286E-1,3.445764E-2,3.3025718E-1,-4.6893265E-2,7.251202E-1,-7.4269426E-1,-4.442239E-1,-2.9203618E-2,8.5665166E-1,-2.5262702E-1,-1.4205242E0,1.132494E0,-3.0847056E-2,-3.719308E-2,4.5130843E-1,5.0482947E-2,3.99653E-1,5.9217805E-1,8.836724E-1,-3.8759027E-2,2.9359765E-3,-2.9533675E-2,2.484567E-3,6.698509E-2,1.1422094E-2,-2.1964394E-2,-6.6130566E-3,-1.2829346E-2,-8.300867E-2,1.4662816E-2,6.9170706E-2,6.7224414E-3,-4.041486E-2,-7.253243E-3,1.1669354E-2,6.260372E-2,1.6617855E-2,7.4008345E-3,-7.997789E-2,1.5167515E-2,3.8438763E-2,3.3458885E-2,-4.0648896E-3,4.985211E-2,2.0547222E-2],"categories":[],"categories_nodes":[],"categories_segments":[],"categories_sizes":[],"default_left":[0,0,0,0,0,0,0,0,0,0,0,0,0,0,0,0,0,0,0,0,0,0,0,0,0,0,0,0,0,0,0,0,0,0,0,0,0,0,0,0,0,0,0,0,0,0,0,0,0,0,0,0,0,0,0],"id":12,"left_children":[1,3,5,7,9,11,13,15,17,19,21,23,25,-1,27,29,31,-1,33,35,37,39,41,43,45,47,49,51,53,-1,-1,-1,-1,-1,-1,-1,-1,-1,-1,-1,-1,-1,-1,-1,-1,-1,-1,-1,-1,-1,-1,-1,-1,-1,-1],"loss_changes":[1.7208765E2,2.4721527E1,4.4939194E1,9.962257E0,7.5948324E0,1.6468021E1,5.475456E0,5.763092E0,4.395898E0,8.237772E0,8.873184E0,1.2853766E1,6.499836E0,0E0,3.4305573E0,4.919792E0,7.9691296E0,0E0,1.8005662E0,6.1048374E0,1.3132381E0,1.1666012E0,7.1001124E0,1.0765662E1,5.5958166E0,1.11621685E1,9.326687E0,5.5026093E0,4.0662384E0,0E0,0E0,0E0,0E0,0E0,0E0,0E0,0E0,0E0,0E0,0E0,0E0,0E0,0E0,0E0,0E0,0E0,0E0,0E0,0E0,0E0,0E0,0E0,0E0,0E0,0E0],"parents":[2147483647,0,0,1,1,2,2,3,3,4,4,5,5,6,6,7,7,8,8,9,9,10,10,11,11,12,12,14,14,15,15,16,16,18,18,19,19,20,20,21,21,22,22,23,23,24,24,25,25,26,26,27,27,28,28],"right_children":[2,4,6,8,10,12,14,16,18,20,22,24,26,-1,28,30,32,-1,34,36,38,40,42,44,46,48,50,52,54,-1,-1,-1,-1,-1,-1,-1,-1,-1,-1,-1,-1,-1,-1,-1,-1,-1,-1,-1,-1,-1,-1,-1,-1,-1,-1],"split_conditions":[-3.7640423E1,-1.3019026E2,1.6583012E2,1.8550838E0,2.4E0,5.4702175E1,-7.36E-2,2.279E2,-1E0,7E0,-4E0,5.99E-2,2.1397498E2,-4.6893265E-2,2.3037122E2,6.3E0,1.9E0,-2.9203618E-2,-1.4858714E2,2.229E2,-2.31E-2,-2.89E-2,3.88E-2,1E0,-6.1E0,2.1356187E2,1E0,2.2064066E2,4.4444445E-1,-3.8759027E-2,2.9359765E-3,-2.9533675E-2,2.484567E-3,6.698509E-2,1.1422094E-2,-2.1964394E-2,-6.6130566E-3,-1.2829346E-2,-8.300867E-2,1.4662816E-2,6.9170706E-2,6.7224414E-3,-4.041486E-2,-7.253243E-3,1.1669354E-2,6.260372E-2,1.6617855E-2,7.4008345E-3,-7.997789E-2,1.5167515E-2,3.8438763E-2,3.3458885E-2,-4.0648896E-3,4.985211E-2,2.0547222E-2],"split_indices":[14,14,14,2,7,14,4,11,16,16,16,5,13,0,14,9,7,0,14,11,4,4,4,15,6,13,19,14,8,0,0,0,0,0,0,0,0,0,0,0,0,0,0,0,0,0,0,0,0,0,0,0,0,0,0],"split_type":[0,0,0,0,0,0,0,0,0,0,0,0,0,0,0,0,0,0,0,0,0,0,0,0,0,0,0,0,0,0,0,0,0,0,0,0,0,0,0,0,0,0,0,0,0,0,0,0,0,0,0,0,0,0,0],"sum_hessian":[1.5929462E3,6.415651E2,9.513811E2,3.0315582E2,3.3840927E2,7.636158E2,1.8776532E2,2.9498657E2,8.169253E0,2.785387E2,5.9870586E1,4.2879538E2,3.3482043E2,1.1862574E0,1.8657907E2,1.8622064E2,1.08765945E2,2.227207E0,5.942046E0,2.733035E2,5.2351747E0,6.466453E0,5.3404133E1,3.666792E2,6.211616E1,6.688723E1,2.679332E2,1.0406122E2,8.2517845E1,1.789975E2,7.223143E0,8.374039E1,2.5025558E1,2.71886E0,3.2231863E0,1.0610638E2,1.6719714E2,1.2474052E0,3.9877696E0,1.9875466E0,4.4789066E0,4.47226E1,8.681535E0,2.6249472E2,1.041845E2,6.80174E0,5.5314423E1,6.401368E1,2.8735473E0,2.1393906E2,5.399414E1,9.339014E1,1.0671081E1,6.566171E1,1.6856134E1],"tree_param":{"num_deleted":"0","num_feature":"20","num_nodes":"55","size_leaf_vector":"1"}},{"base_weights":[-7.734E-4,-2.3428364E-1,3.4628898E-1,-4.6100816E-1,-8.526944E-2,2.5901535E-1,6.452343E-1,-3.1449342E-1,-6.324701E-1,-2.549937E-1,6.3858226E-2,4.3131712E-1,1.6147295E-1,3.4852442E-1,8.385869E-1,3.5912886E-1,-3.578166E-1,3.5691056E-2,-6.807341E-1,-1.2087899E-1,-4.5850235E-1,8.830234E-1,4.266743E-2,4.5795137E-1,-9.806845E-1,3.4321064E-1,-1.8877242E-2,5.4285973E-1,-1.8876636E-1,-4.3482855E-2,8.753678E-1,-8.639545E-3,5.3113144E-2,-3.5520315E-2,-1.353879E-2,3.0682964E-2,-3.8948875E-2,-1.4863986E-2,-3.652489E-2,-9.970783E-3,2.6480263E-2,-2.7091196E-2,1.2382715E-2,6.1631363E-2,-4.2027924E-3,3.8173024E-3,-2.6139537E-2,7.6356367E-3,2.8214565E-2,6.363546E-4,-7.385322E-2,2.0074537E-2,-2.9510695E-2,-9.315143E-3,2.0992376E-2,3.7689175E-2,9.7336527E-4,2.5160715E-3,-8.006487E-2,2.7601436E-2,5.470268E-2],"categories":[],"categories_nodes":[],"categories_segments":[],"categories_sizes":[],"default_left":[0,0,0,0,0,0,0,0,0,0,0,0,0,0,0,0,0,0,0,0,0,0,0,0,0,0,0,0,0,0,0,0,0,0,0,0,0,0,0,0,0,0,0,0,0,0,0,0,0,0,0,0,0,0,0,0,0,0,0,0,0],"id":13,"left_children":[1,3,5,7,9,11,13,15,17,19,21,23,25,27,29,31,33,35,37,39,41,43,45,47,49,51,53,55,57,-1,59,-1,-1,-1,-1,-1,-1,-1,-1,-1,-1,-1,-1,-1,-1,-1,-1,-1,-1,-1,-1,-1,-1,-1,-1,-1,-1,-1,-1,-1,-1],"loss_changes":[1.287933E2,3.2057068E1,1.6509361E1,9.260384E0,1.4556577E1,8.273605E0,7.955574E0,6.111971E0,5.5874176E0,7.2833424E0,5.2843723E0,7.1751175E0,1.0448264E1,6.20382E0,6.1856194E0,5.0039845E0,5.735073E0,6.3974843E0,2.8538742E0,8.454859E0,6.3975544E0,2.700304E0,5.751376E0,5.6336823E0,1.8084989E0,8.87188E0,1.1892982E1,4.7511835E0,5.57299E0,0E0,5.407181E0,0E0,0E0,0E0,0E0,0E0,0E0,0E0,0E0,0E0,0E0,0E0,0E0,0E0,0E0,0E0,0E0,0E0,0E0,0E0,0E0,0E0,0E0,0E0,0E0,0E0,0E0,0E0,0E0,0E0,0E0],"parents":[2147483647,0,0,1,1,2,2,3,3,4,4,5,5,6,6,7,7,8,8,9,9,10,10,11,11,12,12,13,13,14,14,15,15,16,16,17,17,18,18,19,19,20,20,21,21,22,22,23,23,24,24,25,25,26,26,27,27,28,28,30,30],"right_children":[2,4,6,8,10,12,14,16,18,20,22,24,26,28,30,32,34,36,38,40,42,44,46,48,50,52,54,56,58,-1,60,-1,-1,-1,-1,-1,-1,-1,-1,-1,-1,-1,-1,-1,-1,-1,-1,-1,-1,-1,-1,-1,-1,-1,-1,-1,-1,-1,-1,-1,-1],"split_conditions":[1.7591944E0,-4.966479E0,1.1882034E1,1.3090588E0,-4.2456985E-2,-1.27E-2,5.5811208E-2,-7.1E0,-1.046E-1,6.4E0,-3.758313E-2,6.159575E0,2.251E2,-5.0662255E0,-1.96E1,2E-1,-5E-1,2E0,2.139E2,5.5E0,1.65E1,3.08E-2,2.397E2,-3.758313E-2,3.267646E0,1.39E1,5.77E-2,4.5E0,2.364E2,-4.3482855E-2,1.9E0,-8.639545E-3,5.3113144E-2,-3.5520315E-2,-1.353879E-2,3.0682964E-2,-3.8948875E-2,-1.4863986E-2,-3.652489E-2,-9.970783E-3,2.6480263E-2,-2.7091196E-2,1.2382715E-2,6.1631363E-2,-4.2027924E-3,3.8173024E-3,-2.6139537E-2,7.6356367E-3,2.8214565E-2,6.363546E-4,-7.385322E-2,2.0074537E-2,-2.9510695E-2,-9.315143E-3,2.0992376E-2,3.7689175E-2,9.7336527E-4,2.5160715E-3,-8.006487E-2,2.7601436E-2,5.470268E-2],"split_indices":[2,0,2,1,17,5,17,7,5,10,17,1,12,1,10,6,8,8,11,10,10,4,12,17,2,9,5,6,11,0,6,0,0,0,0,0,0,0,0,0,0,0,0,0,0,0,0,0,0,0,0,0,0,0,0,0,0,0,0,0,0],"split_type":[0,0,0,0,0,0,0,0,0,0,0,0,0,0,0,0,0,0,0,0,0,0,0,0,0,0,0,0,0,0,0,0,0,0,0,0,0,0,0,0,0,0,0,0,0,0,0,0,0,0,0,0,0,0,0,0,0,0,0,0,0],"sum_hessian":[1.5872035E3,9.4901373E2,6.3818976E2,3.7553897E2,5.734748E2,4.954231E2,1.4276663E2,2.0402942E2,1.7150957E2,2.6788324E2,3.0559152E2,1.7784706E2,3.1757605E2,5.743387E1,8.533276E1,1.1888489E1,1.9214093E2,1.1571788E1,1.5993777E2,1.624323E2,1.05450935E2,6.680377E0,2.9891116E2,1.7521765E2,2.6294172E0,1.5772977E2,1.5984627E2,4.2170612E1,1.5263258E1,1.3213196E0,8.4011444E1,7.197698E0,4.690791E0,3.6623337E1,1.555176E2,6.9136343E0,4.6581535E0,1.9173113E1,1.4076466E2,1.4555237E2,1.6879936E1,9.452979E1,1.0921143E1,4.704933E0,1.9754441E0,2.8292514E2,1.5986003E1,4.5900555E1,1.293171E2,1.2007334E0,1.4286838E0,1.4899675E2,8.73302E0,1.1611135E2,4.373492E1,2.9743847E1,1.24267645E1,1.3878526E1,1.3847317E0,3.5317245E1,4.86942E1],"tree_param":{"num_deleted":"0","num_feature":"20","num_nodes":"61","size_leaf_vector":"1"}},{"base_weights":[9.136573E-3,-1.8717338E-1,4.5539618E-1,-4.5721087E-1,-2.4110492E-2,3.366837E-1,7.1167845E-1,-8.381405E-1,-3.858089E-1,2.571391E-1,-6.912949E-2,4.8104516E-1,1.317714E-1,8.541888E-2,7.47672E-1,-9.195243E-1,-5.9224546E-2,-4.8853368E-1,-1.4665274E-1,3.943205E-1,-5.7164025E-1,-6.0741687E-1,-3.7426848E-2,3.6604133E-1,7.2738236E-1,2.352477E-1,-6.0416764E-1,9.092432E-1,-5.0210565E-1,-1.846489E-1,7.7126944E-1,1.779682E-2,-4.8769176E-2,3.6929626E-2,-4.7572907E-2,-1.1265124E-2,-2.9139388E-2,-3.628577E-2,-3.3978175E-3,8.763612E-3,3.235582E-2,-4.6254355E-2,1.9656299E-2,-6.835602E-3,-5.524222E-2,-2.6146849E-3,5.1564723E-2,2.2089964E-2,-1.9681454E-2,-1.0087817E-2,4.124811E-2,-5.260064E-2,1.4216475E-2,2.9040312E-2,-4.3005224E-2,5.1321656E-2,1.4781169E-2,-4.6816763E-2,3.9187174E-2,4.3685835E-2,-4.70907E-2,-6.4317943E-3,3.9808042E-2],"categories":[],"categories_nodes":[],"categories_segments":[],"categories_sizes":[],"default_left":[0,0,0,0,0,0,0,0,0,0,0,0,0,0,0,0,0,0,0,0,0,0,0,0,0,0,0,0,0,0,0,0,0,0,0,0,0,0,0,0,0,0,0,0,0,0,0,0,0,0,0,0,0,0,0,0,0,0,0,0,0,0,0],"id":14,"left_children":[1,3,5,7,9,11,13,15,17,19,21,23,25,27,29,31,33,35,37,39,41,43,45,47,49,51,53,55,57,59,61,-1,-1,-1,-1,-1,-1,-1,-1,-1,-1,-1,-1,-1,-1,-1,-1,-1,-1,-1,-1,-1,-1,-1,-1,-1,-1,-1,-1,-1,-1,-1,-1],"loss_changes":[1.399165E2,4.883155E1,1.460508E1,1.1034142E1,8.787884E0,9.857109E0,3.3977203E0,4.0698814E0,8.61306E0,1.1115556E1,1.0179995E1,5.2969437E0,1.0802589E1,5.042756E0,3.334465E0,4.539158E0,5.844803E0,5.9934464E0,4.8561754E0,4.4701595E0,5.141417E0,7.619565E0,9.041784E0,7.9943275E0,5.7411423E0,8.098936E0,5.818124E0,5.7902336E-3,4.1817484E0,4.339627E0,3.2765198E0,0E0,0E0,0E0,0E0,0E0,0E0,0E0,0E0,0E0,0E0,0E0,0E0,0E0,0E0,0E0,0E0,0E0,0E0,0E0,0E0,0E0,0E0,0E0,0E0,0E0,0E0,0E0,0E0,0E0,0E0,0E0,0E0],"parents":[2147483647,0,0,1,1,2,2,3,3,4,4,5,5,6,6,7,7,8,8,9,9,10,10,11,11,12,12,13,13,14,14,15,15,16,16,17,17,18,18,19,19,20,20,21,21,22,22,23,23,24,24,25,25,26,26,27,27,28,28,29,29,30,30],"right_children":[2,4,6,8,10,12,14,16,18,20,22,24,26,28,30,32,34,36,38,40,42,44,46,48,50,52,54,56,58,60,62,-1,-1,-1,-1,-1,-1,-1,-1,-1,-1,-1,-1,-1,-1,-1,-1,-1,-1,-1,-1,-1,-1,-1,-1,-1,-1,-1,-1,-1,-1,-1,-1],"split_conditions":[6.470481E1,-9.3225716E1,1.8409457E2,-2.602119E2,2.147E2,-1.3E0,2.136E2,1.3047142E1,2.301E2,1E0,2.165E2,3E0,6E0,2.119E2,-2.95E-2,-3.878939E0,1.1E0,-2.2222222E-1,-2.5993112E-1,-1E-1,3.5952792E0,2.18731E2,1.3793062E1,2.3E0,-1.6E1,-1.1E0,-3.185538E0,2.7865893E-1,5.5E0,-5E0,2.0631836E2,1.779682E-2,-4.8769176E-2,3.6929626E-2,-4.7572907E-2,-1.1265124E-2,-2.9139388E-2,-3.628577E-2,-3.3978175E-3,8.763612E-3,3.235582E-2,-4.6254355E-2,1.9656299E-2,-6.835602E-3,-5.524222E-2,-2.6146849E-3,5.1564723E-2,2.2089964E-2,-1.9681454E-2,-1.0087817E-2,4.124811E-2,-5.260064E-2,1.4216475E-2,2.9040312E-2,-4.3005224E-2,5.1321656E-2,1.4781169E-2,-4.6816763E-2,3.9187174E-2,4.3685835E-2,-4.70907E-2,-6.4317943E-3,3.9808042E-2],"split_indices":[14,14,14,14,12,10,12,1,11,18,12,6,16,11,3,1,8,17,17,7,1,13,2,6,10,10,1,17,7,7,13,0,0,0,0,0,0,0,0,0,0,0,0,0,0,0,0,0,0,0,0,0,0,0,0,0,0,0,0,0,0,0,0],"split_type":[0,0,0,0,0,0,0,0,0,0,0,0,0,0,0,0,0,0,0,0,0,0,0,0,0,0,0,0,0,0,0,0,0,0,0,0,0,0,0,0,0,0,0,0,0,0,0,0,0,0,0,0,0,0,0,0,0,0,0,0,0,0,0],"sum_hessian":[1.5951525E3,1.1082244E3,4.869282E2,4.1656885E2,6.916555E2,3.343621E2,1.525661E2,6.406162E1,3.525072E2,9.478546E1,5.9687006E2,1.953733E2,1.3898877E2,8.475328E0,1.4409077E2,5.7837986E1,6.223631E0,2.4586014E2,1.0664707E2,8.177422E1,1.3011236E1,3.2187656E1,5.646824E2,1.3488667E2,6.0486633E1,1.2245184E2,1.6536928E1,3.3002079E0,5.1751204E0,3.3884885E0,1.4070229E2,2.201354E0,5.5636635E1,3.3765695E0,2.8470614E0,6.5717026E1,1.8014311E2,1.1775925E1,9.487115E1,4.47187E1,3.7055523E1,9.55269E0,3.4585464E0,1.719307E1,1.4994586E1,5.578729E2,6.809432E0,1.2303543E2,1.1851245E1,5.647212E0,5.483942E1,3.7469628E0,1.1870488E2,2.7118533E0,1.3825076E1,2.206128E0,1.0940799E0,4.0718703E0,1.1032498E0,1.3489685E0,2.03952E0,3.6748881E0,1.370274E2],"tree_param":{"num_deleted":"0","num_feature":"20","num_nodes":"63","size_leaf_vector":"1"}},{"base_weights":[9.527751E-3,-2.110633E-1,4.1873842E-1,-4.6078578E-1,-4.5230437E-2,3.5201997E-1,7.922176E-1,-8.890975E-1,-3.8956517E-1,-1.3033283E-1,1.7750005E-1,3.6676955E-1,-4.9534476E-1,9.8868465E-1,3.8977545E-1,-9.5358104E-1,-1.1707604E-1,-5.123029E-1,-2.1723911E-1,-2.0939758E-2,-2.9113856E-1,1.8341392E-2,4.8203105E-1,3.8382316E-1,-3.765168E-1,4.677826E-2,-9.133887E-1,2.939207E-1,1.0470556E0,4.939259E-1,-5.979204E-2,1.236729E-2,-4.9604144E-2,2.5578959E-2,-5.0050642E-2,-2.6489807E-2,4.263903E-2,3.1922936E-2,-1.4238742E-2,-6.4613293E-3,9.073029E-3,-3.5952643E-2,-9.402147E-3,2.1406166E-2,-5.3332224E-3,3.8409647E-2,8.5120695E-3,1.9608036E-2,-5.279479E-2,1.6805193E-3,-8.349519E-2,5.7558944E-3,-8.0900766E-2,-1.835847E-2,4.806299E-2,2.7038848E-2,5.606844E-2,1.4947328E-2,5.88842E-2],"categories":[],"categories_nodes":[],"categories_segments":[],"categories_sizes":[],"default_left":[0,0,0,0,0,0,0,0,0,0,0,0,0,0,0,0,0,0,0,0,0,0,0,0,0,0,0,0,0,0,0,0,0,0,0,0,0,0,0,0,0,0,0,0,0,0,0,0,0,0,0,0,0,0,0,0,0,0,0],"id":15,"left_children":[1,3,5,7,9,11,13,15,17,19,21,23,25,27,29,31,33,35,37,39,41,43,45,47,49,-1,51,53,55,57,-1,-1,-1,-1,-1,-1,-1,-1,-1,-1,-1,-1,-1,-1,-1,-1,-1,-1,-1,-1,-1,-1,-1,-1,-1,-1,-1,-1,-1],"loss_changes":[1.415218E2,4.2165527E1,1.3404045E1,1.2051155E1,1.1647789E1,6.0270157E0,6.1318893E0,2.7341652E0,7.296814E0,7.809797E0,8.229321E0,5.978695E0,5.8954163E0,1.9120522E0,5.3286657E0,2.6783295E0,3.5942883E0,5.3189735E0,8.701813E0,5.842582E0,7.7971697E0,5.8170695E0,5.070982E0,5.820999E0,5.7998943E0,0E0,5.2793E0,2.8378863E0,1.2786789E0,3.3314967E0,0E0,0E0,0E0,0E0,0E0,0E0,0E0,0E0,0E0,0E0,0E0,0E0,0E0,0E0,0E0,0E0,0E0,0E0,0E0,0E0,0E0,0E0,0E0,0E0,0E0,0E0,0E0,0E0,0E0],"parents":[2147483647,0,0,1,1,2,2,3,3,4,4,5,5,6,6,7,7,8,8,9,9,10,10,11,11,12,12,13,13,14,14,15,15,16,16,17,17,18,18,19,19,20,20,21,21,22,22,23,23,24,24,26,26,27,27,28,28,29,29],"right_children":[2,4,6,8,10,12,14,16,18,20,22,24,26,28,30,32,34,36,38,40,42,44,46,48,50,-1,52,54,56,58,-1,-1,-1,-1,-1,-1,-1,-1,-1,-1,-1,-1,-1,-1,-1,-1,-1,-1,-1,-1,-1,-1,-1,-1,-1,-1,-1,-1,-1],"split_conditions":[4.6857975E1,-9.3225716E1,2.3037122E2,-2.602119E2,1E0,1.295E-1,-7.8571427E-1,1.3047142E1,5E-4,2.267E2,1.2355251E0,2.3771983E2,-3.9E0,-4.1E0,1.3E1,2.0788399E2,2E0,1.31E1,-6.1E0,1.3674254E0,-2.61E-2,-4.57E-2,2.454102E1,5E0,8.5E0,4.677826E-2,2.2E2,2.282E2,2.179E2,6.2E0,-5.979204E-2,1.236729E-2,-4.9604144E-2,2.5578959E-2,-5.0050642E-2,-2.6489807E-2,4.263903E-2,3.1922936E-2,-1.4238742E-2,-6.4613293E-3,9.073029E-3,-3.5952643E-2,-9.402147E-3,2.1406166E-2,-5.3332224E-3,3.8409647E-2,8.5120695E-3,1.9608036E-2,-5.279479E-2,1.6805193E-3,-8.349519E-2,5.7558944E-3,-8.0900766E-2,-1.835847E-2,4.806299E-2,2.7038848E-2,5.606844E-2,1.4947328E-2,5.88842E-2],"split_indices":[14,14,14,14,15,5,8,1,5,12,14,13,6,6,16,13,8,9,7,2,3,5,14,15,9,0,12,12,12,6,0,0,0,0,0,0,0,0,0,0,0,0,0,0,0,0,0,0,0,0,0,0,0,0,0,0,0,0,0],"split_type":[0,0,0,0,0,0,0,0,0,0,0,0,0,0,0,0,0,0,0,0,0,0,0,0,0,0,0,0,0,0,0,0,0,0,0,0,0,0,0,0,0,0,0,0,0,0,0,0,0,0,0,0,0,0,0,0,0,0,0],"sum_hessian":[1.5658132E3,1.01769434E3,5.481189E2,4.054146E2,6.122797E2,4.666915E2,8.142741E1,5.6164516E1,3.492501E2,4.4331116E2,1.6896854E2,4.592645E2,7.426985E0,5.373699E1,2.7690413E1,5.1617928E1,4.5465875E0,2.028203E2,1.464298E2,2.645042E2,1.7880696E2,1.1166742E2,5.7301113E1,4.4943646E2,9.828041E0,1.3993236E0,6.0276613E0,4.6326003E0,4.9104393E1,2.6629747E1,1.0606661E0,1.4349699E0,5.0182957E1,2.9031315E0,1.643456E0,2.0085823E2,1.9620577E0,1.0093135E1,1.3633665E2,1.725495E2,9.1954704E1,3.3555412E1,1.4525156E2,2.5535294E1,8.6132126E1,2.9115223E1,2.8185892E1,4.4757214E2,1.8643211E0,8.201421E0,1.6266196E0,2.79076E0,3.2369013E0,2.5531545E0,2.079446E0,7.3445597E0,4.175983E1,2.1839298E1,4.7904477E0],"tree_param":{"num_deleted":"0","num_feature":"20","num_nodes":"59","size_leaf_vector":"1"}},{"base_weights":[-6.098632E-3,-3.2462698E-1,2.2278078E-1,-6.289077E-1,-2.261827E-1,1.4662601E-1,6.2301666E-1,-7.200029E-1,-2.203125E-1,-2.9648075E-1,-2.731553E-2,-2.9458875E-2,2.3072033E-1,7.7975243E-1,4.0985924E-1,-7.412595E-1,4.1962326E-2,4.1568625E-1,-4.485495E-1,-4.9766523E-1,-1.9213623E-1,1.5757096E-1,-2.9331344E-1,7.4191995E-2,-5.7240206E-1,1.6318531E-1,5.1138574E-1,1.1595012E-1,8.805173E-1,7.635694E-1,1.4375013E-1,-3.025349E-2,-4.9574267E-2,-1.1799269E-2,7.920964E-2,-3.648315E-2,2.6812738E-2,-1.3186279E-4,-3.2585025E-2,-5.987842E-2,-8.521195E-3,-2.6251191E-2,1.5790602E-2,-2.9543608E-2,7.8783175E-3,-3.941262E-3,1.3700689E-2,-4.8094917E-2,-3.67212E-3,2.0856804E-3,1.6929252E-2,6.636777E-2,1.9571453E-2,-4.9096826E-2,1.8798927E-2,8.053657E-3,4.685219E-2,5.0581325E-2,-1.27250925E-2,2.6967874E-2,-1.4153956E-2],"categories":[],"categories_nodes":[],"categories_segments":[],"categories_sizes":[],"default_left":[0,0,0,0,0,0,0,0,0,0,0,0,0,0,0,0,0,0,0,0,0,0,0,0,0,0,0,0,0,0,0,0,0,0,0,0,0,0,0,0,0,0,0,0,0,0,0,0,0,0,0,0,0,0,0,0,0,0,0,0,0],"id":16,"left_children":[1,3,5,7,9,11,13,15,17,19,21,23,25,27,29,31,-1,33,35,37,39,41,43,45,47,49,51,53,55,57,59,-1,-1,-1,-1,-1,-1,-1,-1,-1,-1,-1,-1,-1,-1,-1,-1,-1,-1,-1,-1,-1,-1,-1,-1,-1,-1,-1,-1,-1,-1],"loss_changes":[1.1445669E2,1.9520393E1,2.7753452E1,5.792843E0,6.9471836E0,1.1391241E1,4.54916E0,4.940979E0,4.6269064E0,7.618679E0,6.4906096E0,1.4076798E1,9.781275E0,5.441002E0,5.900955E0,3.7990189E0,0E0,6.9208136E0,6.756628E0,9.520056E0,5.1138945E0,8.586214E0,7.348938E0,6.451471E0,7.7208195E0,8.954972E0,9.314747E0,3.8159642E0,2.7689133E0,7.122674E0,6.5141683E0,0E0,0E0,0E0,0E0,0E0,0E0,0E0,0E0,0E0,0E0,0E0,0E0,0E0,0E0,0E0,0E0,0E0,0E0,0E0,0E0,0E0,0E0,0E0,0E0,0E0,0E0,0E0,0E0,0E0,0E0],"parents":[2147483647,0,0,1,1,2,2,3,3,4,4,5,5,6,6,7,7,8,8,9,9,10,10,11,11,12,12,13,13,14,14,15,15,17,17,18,18,19,19,20,20,21,21,22,22,23,23,24,24,25,25,26,26,27,27,28,28,29,29,30,30],"right_children":[2,4,6,8,10,12,14,16,18,20,22,24,26,28,30,32,-1,34,36,38,40,42,44,46,48,50,52,54,56,58,60,-1,-1,-1,-1,-1,-1,-1,-1,-1,-1,-1,-1,-1,-1,-1,-1,-1,-1,-1,-1,-1,-1,-1,-1,-1,-1,-1,-1,-1,-1],"split_conditions":[-3.1282082E1,-1.8977905E2,1.8409457E2,-2.7895525E0,1E0,-5.656896E-1,2E0,6.9E0,4.6E0,-5.4619102E0,0E0,3E0,1E0,-3.4E0,5E-1,2.4E0,4.1962326E-2,4.4317737E0,1.58E1,-1.1015942E1,-7.36E-2,-1.5156728E2,4.6E-3,4.4444445E-1,1E-1,8.7982605E1,-2.7895525E0,2.218E2,2.152E2,2.6609063E-1,-5.2E0,-3.025349E-2,-4.9574267E-2,-1.1799269E-2,7.920964E-2,-3.648315E-2,2.6812738E-2,-1.3186279E-4,-3.2585025E-2,-5.987842E-2,-8.521195E-3,-2.6251191E-2,1.5790602E-2,-2.9543608E-2,7.8783175E-3,-3.941262E-3,1.3700689E-2,-4.8094917E-2,-3.67212E-3,2.0856804E-3,1.6929252E-2,6.636777E-2,1.9571453E-2,-4.9096826E-2,1.8798927E-2,8.053657E-3,4.685219E-2,5.0581325E-2,-1.27250925E-2,2.6967874E-2,-1.4153956E-2],"split_indices":[14,14,14,0,15,2,7,6,10,0,16,16,19,7,6,8,0,1,10,0,4,14,4,8,7,14,0,12,12,17,10,0,0,0,0,0,0,0,0,0,0,0,0,0,0,0,0,0,0,0,0,0,0,0,0,0,0,0,0,0,0],"split_type":[0,0,0,0,0,0,0,0,0,0,0,0,0,0,0,0,0,0,0,0,0,0,0,0,0,0,0,0,0,0,0,0,0,0,0,0,0,0,0,0,0,0,0,0,0,0,0,0,0,0,0,0,0,0,0,0,0,0,0,0,0],"sum_hessian":[1.5679601E3,6.554127E2,9.125473E2,1.5889546E2,4.9651727E2,7.678174E2,1.4472989E2,1.293051E2,2.9590368E1,3.6647888E2,1.3003839E2,2.4838155E2,5.1943585E2,8.187134E1,6.2858547E1,1.2808359E2,1.221508E0,7.5976577E0,2.1992712E1,1.2387283E2,2.4260605E2,7.6956245E1,5.3082153E1,2.0929022E2,3.9091312E1,4.1996368E2,9.947217E1,1.1073548E1,7.079779E1,2.6184685E1,3.6673862E1,8.5154755E1,4.2928833E1,5.3898206E0,2.207837E0,1.731049E1,4.6822214E0,2.9638802E1,9.423403E1,3.9835558E0,2.386225E2,1.4046564E1,6.290968E1,3.1791092E1,2.1291063E1,1.1886935E2,9.042088E1,2.1432747E1,1.7658567E1,2.4885732E2,1.7110637E2,1.1459186E1,8.8012985E1,1.5888542E0,9.484694E0,5.4377656E0,6.536002E1,2.105973E1,5.1249557E0,1.8896227E1,1.7777636E1],"tree_param":{"num_deleted":"0","num_feature":"20","num_nodes":"61","size_leaf_vector":"1"}},{"base_weights":[1.0689024E-2,-1.7732865E-1,3.9536005E-1,-5.145813E-1,-5.0561488E-2,2.7752262E-1,7.000409E-1,-7.4524164E-1,-3.9502874E-1,-1.01406224E-1,2.692512E-1,4.7150323E-1,1.8492867E-1,7.3072815E-1,-1.24173634E-1,-8.805555E-1,-2.7085507E-1,-4.910346E-1,-2.654943E-3,-2.8977102E-1,-3.81106E-2,7.279867E-1,9.268735E-2,2.5080097E-1,7.0832366E-1,1.4241962E-1,8.6436725E-1,-3.166305E-2,7.465472E-1,-7.5803596E-1,4.582459E-2,-2.665908E-2,-5.2420456E-2,-1.2761238E-3,-5.009848E-2,-2.634128E-2,2.6037773E-2,-3.5185363E-2,9.963943E-3,-2.2350218E-2,-2.6781948E-3,-1.275832E-3,-4.136234E-2,-2.2678213E-2,4.1991107E-2,-9.21438E-3,2.3682302E-2,2.2319233E-2,-9.959885E-3,3.7263002E-2,-2.9331962E-2,-5.1784545E-2,8.325036E-3,6.1804857E-2,4.22283E-3,3.991219E-2,1.0751343E-2,1.879572E-2,-6.8682544E-2],"categories":[],"categories_nodes":[],"categories_segments":[],"categories_sizes":[],"default_left":[0,0,0,0,0,0,0,0,0,0,0,0,0,0,0,0,0,0,0,0,0,0,0,0,0,0,0,0,0,0,0,0,0,0,0,0,0,0,0,0,0,0,0,0,0,0,0,0,0,0,0,0,0,0,0,0,0,0,0],"id":17,"left_children":[1,3,5,7,9,11,13,15,17,19,21,23,25,27,29,31,33,35,37,39,41,43,45,47,49,51,53,-1,55,57,-1,-1,-1,-1,-1,-1,-1,-1,-1,-1,-1,-1,-1,-1,-1,-1,-1,-1,-1,-1,-1,-1,-1,-1,-1,-1,-1,-1,-1],"loss_changes":[1.124864E2,4.4638355E1,1.8137848E1,7.573082E0,1.2392285E1,6.555971E0,3.6759415E0,5.9408913E0,7.1573715E0,7.8201656E0,8.40337E0,6.034668E0,7.155217E0,3.424591E0,4.6148777E0,3.782425E0,4.0655813E0,5.8030815E0,5.571092E0,6.105957E0,4.876346E0,4.202401E0,8.176483E0,5.639922E0,3.1533947E0,6.9347258E0,4.1401844E0,0E0,3.5569458E0,3.4766498E0,0E0,0E0,0E0,0E0,0E0,0E0,0E0,0E0,0E0,0E0,0E0,0E0,0E0,0E0,0E0,0E0,0E0,0E0,0E0,0E0,0E0,0E0,0E0,0E0,0E0,0E0,0E0,0E0,0E0],"parents":[2147483647,0,0,1,1,2,2,3,3,4,4,5,5,6,6,7,7,8,8,9,9,10,10,11,11,12,12,13,13,14,14,15,15,16,16,17,17,18,18,19,19,20,20,21,21,22,22,23,23,24,24,25,25,26,26,28,28,29,29],"right_children":[2,4,6,8,10,12,14,16,18,20,22,24,26,28,30,32,34,36,38,40,42,44,46,48,50,52,54,-1,56,58,-1,-1,-1,-1,-1,-1,-1,-1,-1,-1,-1,-1,-1,-1,-1,-1,-1,-1,-1,-1,-1,-1,-1,-1,-1,-1,-1,-1,-1],"split_conditions":[5.3328056E1,-1.3303198E2,1.8409457E2,-2.2781334E2,6.36E-2,-4.760275E0,2.4E0,2.13E-2,2.2583904E2,-7.3167946E1,-2.8E0,4E-1,5.8E0,-1.132E-1,3.1111112E-1,3.203294E0,2.9777777E0,1.8550838E0,0E0,3.5952792E0,1.58E1,-9.19013E0,9E-1,1.5384616E-1,3E0,-4.28E-2,1.68E-2,-3.166305E-2,2.3041649E2,-2.32E-2,4.582459E-2,-2.665908E-2,-5.2420456E-2,-1.2761238E-3,-5.009848E-2,-2.634128E-2,2.6037773E-2,-3.5185363E-2,9.963943E-3,-2.2350218E-2,-2.6781948E-3,-1.275832E-3,-4.136234E-2,-2.2678213E-2,4.1991107E-2,-9.21438E-3,2.3682302E-2,2.2319233E-2,-9.959885E-3,3.7263002E-2,-2.9331962E-2,-5.1784545E-2,8.325036E-3,6.1804857E-2,4.22283E-3,3.991219E-2,1.0751343E-2,1.879572E-2,-6.8682544E-2],"split_indices":[14,14,14,14,5,1,8,5,13,14,10,7,6,5,17,1,8,2,15,1,10,1,7,17,15,3,4,0,13,5,0,0,0,0,0,0,0,0,0,0,0,0,0,0,0,0,0,0,0,0,0,0,0,0,0,0,0,0,0],"split_type":[0,0,0,0,0,0,0,0,0,0,0,0,0,0,0,0,0,0,0,0,0,0,0,0,0,0,0,0,0,0,0,0,0,0,0,0,0,0,0,0,0,0,0,0,0,0,0,0,0,0,0,0,0,0,0,0,0,0,0],"sum_hessian":[1.5533225E3,1.043718E3,5.096045E2,2.843011E2,7.5941693E2,3.6885724E2,1.4074724E2,9.52656E1,1.8903548E2,6.5583356E2,1.03583374E2,1.1785779E2,2.5099947E2,1.3580437E2,4.942867E0,7.345666E1,2.1808943E1,1.5167279E2,3.7362686E1,1.640501E2,4.9178342E2,2.7920156E1,7.5663216E1,6.20707E1,5.578709E1,2.3735873E2,1.3640724E1,1.1094708E0,1.346949E2,3.2406151E0,1.7022516E0,2.5291742E1,4.8164913E1,1.7104328E1,4.7046146E0,1.4695377E2,4.7190175E0,7.7996936E0,2.9562994E1,9.795384E1,6.609625E1,4.8507437E2,6.7090507E0,2.149964E0,2.5770193E1,4.410966E1,3.1553555E1,4.3271545E1,1.8799154E1,5.4652718E1,1.1343737E0,3.9130592E0,2.3344568E2,8.841613E0,4.799111E0,1.22298164E2,1.2396728E1,1.2772725E0,1.9633428E0],"tree_param":{"num_deleted":"0","num_feature":"20","num_nodes":"59","size_leaf_vector":"1"}},{"base_weights":[1.6294058E-2,-1.5126619E-1,3.6678606E-1,-4.4020447E-1,-4.255266E-2,3.0748767E-1,6.947184E-1,-4.772612E-1,6.590332E-1,-1.1112879E-1,1.4927089E-1,-7.834506E-1,3.1976646E-1,8.0067104E-1,8.1648275E-2,-6.1938745E-1,-2.926066E-1,-1.8926708E-1,1.202112E0,-3.068776E-1,-4.4023927E-2,2.3737734E-2,3.5664436E-1,3.7105859E-3,-6.6142134E-2,7.6328665E-1,2.8943253E-1,4.6880695E-1,9.1295236E-1,-4.1278103E-1,5.701546E-1,-3.2544743E-2,3.0985612E-2,-6.251319E-2,-1.1285367E-2,3.0519113E-2,-4.966503E-2,1.535299E-2,7.093244E-2,-1.8774433E-2,2.424497E-2,1.228214E-2,-5.4604346E-3,4.796512E-2,-2.1749389E-4,7.051914E-2,1.3692468E-2,-5.5565587E-3,4.719886E-2,1.8252882E-3,1.7600639E-2,5.8736425E-2,5.126189E-3,6.3779846E-2,3.748177E-2,1.7465772E-2,-8.5367665E-2,-1.1877133E-2,4.4200882E-2],"categories":[],"categories_nodes":[],"categories_segments":[],"categories_sizes":[],"default_left":[0,0,0,0,0,0,0,0,0,0,0,0,0,0,0,0,0,0,0,0,0,0,0,0,0,0,0,0,0,0,0,0,0,0,0,0,0,0,0,0,0,0,0,0,0,0,0,0,0,0,0,0,0,0,0,0,0,0,0],"id":18,"left_children":[1,3,5,7,9,11,13,15,17,19,21,23,25,27,29,31,33,35,37,39,41,43,45,-1,-1,47,49,51,53,55,57,-1,-1,-1,-1,-1,-1,-1,-1,-1,-1,-1,-1,-1,-1,-1,-1,-1,-1,-1,-1,-1,-1,-1,-1,-1,-1,-1,-1],"loss_changes":[9.2307884E1,3.338623E1,9.671974E0,1.2153172E1,1.0195962E1,6.0414925E0,4.939785E0,7.212654E0,4.787502E0,7.4819336E0,5.3077044E0,2.458188E0,5.540085E0,2.0158806E0,3.2467613E0,6.5836983E0,7.6895657E0,3.6457229E0,7.603464E-1,8.086699E0,8.0725565E0,3.375095E0,6.325857E0,0E0,0E0,4.339464E0,6.356552E0,4.698197E0,1.8836708E0,7.281999E0,1.9063287E0,0E0,0E0,0E0,0E0,0E0,0E0,0E0,0E0,0E0,0E0,0E0,0E0,0E0,0E0,0E0,0E0,0E0,0E0,0E0,0E0,0E0,0E0,0E0,0E0,0E0,0E0,0E0,0E0],"parents":[2147483647,0,0,1,1,2,2,3,3,4,4,5,5,6,6,7,7,8,8,9,9,10,10,11,11,12,12,13,13,14,14,15,15,16,16,17,17,18,18,19,19,20,20,21,21,22,22,25,25,26,26,27,27,28,28,29,29,30,30],"right_children":[2,4,6,8,10,12,14,16,18,20,22,24,26,28,30,32,34,36,38,40,42,44,46,-1,-1,48,50,52,54,56,58,-1,-1,-1,-1,-1,-1,-1,-1,-1,-1,-1,-1,-1,-1,-1,-1,-1,-1,-1,-1,-1,-1,-1,-1,-1,-1,-1,-1],"split_conditions":[5.4702175E1,-1.3019026E2,2.3037122E2,1.6790136E0,1E0,-8.958101E0,5.69E-2,-7.4E-3,-3.75E-2,-4.966479E0,-8.151232E0,-1.1015942E1,-7.9E0,2.1653299E2,2.228E2,2.3771983E2,-2.0281172E1,1.9355407E0,-1.45E-2,1.5976586E0,-2.7296295E0,-1.2661029E2,-4.47E-2,3.7105859E-3,-6.6142134E-2,-4.8E0,-2.1E0,2.144E2,2.237E2,1.54E1,1.143885E1,-3.2544743E-2,3.0985612E-2,-6.251319E-2,-1.1285367E-2,3.0519113E-2,-4.966503E-2,1.535299E-2,7.093244E-2,-1.8774433E-2,2.424497E-2,1.228214E-2,-5.4604346E-3,4.796512E-2,-2.1749389E-4,7.051914E-2,1.3692468E-2,-5.5565587E-3,4.719886E-2,1.8252882E-3,1.7600639E-2,5.8736425E-2,5.126189E-3,6.3779846E-2,3.748177E-2,1.7465772E-2,-8.5367665E-2,-1.1877133E-2,4.4200882E-2],"split_indices":[14,14,14,2,15,0,3,5,5,0,14,0,9,13,11,13,2,0,3,2,0,14,3,0,0,6,7,11,11,9,0,0,0,0,0,0,0,0,0,0,0,0,0,0,0,0,0,0,0,0,0,0,0,0,0,0,0,0,0],"split_type":[0,0,0,0,0,0,0,0,0,0,0,0,0,0,0,0,0,0,0,0,0,0,0,0,0,0,0,0,0,0,0,0,0,0,0,0,0,0,0,0,0,0,0,0,0,0,0,0,0,0,0,0,0,0,0,0,0,0,0],"sum_hessian":[1.5698276E3,1.0624628E3,5.0736484E2,2.8963177E2,7.7283105E2,4.313107E2,7.605412E1,2.807337E2,8.898071E0,5.696163E2,2.032148E2,4.10146E0,4.2720926E2,6.458615E1,1.1467972E1,1.573043E2,1.2342939E2,3.7273562E0,5.170715E0,1.445072E2,4.2510907E2,1.27280334E2,7.593446E1,1.9165145E0,2.1849453E0,2.5801157E1,4.0140808E2,1.763591E1,4.695024E1,5.776474E0,5.691498E0,1.5386655E2,3.4377682E0,6.9044204E0,1.1652496E2,1.989527E0,1.7378291E0,1.4782858E0,3.692429E0,1.334674E2,1.10397835E1,7.7582245E1,3.4752682E2,2.7435062E0,1.2453683E2,4.3636255E0,7.157084E1,4.4844546E0,2.1316702E1,7.993264E1,3.2147546E2,5.270721E0,1.236519E1,1.2463824E1,3.4486416E1,4.095613E0,1.6808608E0,1.6607856E0,4.030712E0],"tree_param":{"num_deleted":"0","num_feature":"20","num_nodes":"59","size_leaf_vector":"1"}},{"base_weights":[1.6926555E-2,-1.5878917E-1,3.2925916E-1,-3.588832E-1,-2.6575439E-2,2.4553539E-1,5.7315856E-1,-3.8209817E-1,6.5823144E-1,9.4380744E-2,-1.1992887E-1,3.0448636E-1,-2.2075729E-1,2.8600016E-1,7.251311E-1,-4.0165922E-1,6.0419303E-1,-4.9285227E-1,1.1574876E0,-3.673906E-1,1.5995982E-1,-2.4408902E-1,1.0339473E-1,4.6256268E-1,1.6719934E-1,-8.177672E-1,2.0923043E-2,1.0782862E-1,7.5003684E-1,8.5159653E-1,4.8092064E-1,-2.9934932E-2,-1.573678E-2,5.1068354E-2,-1.1354073E-2,1.2241152E-2,-5.0781246E-2,6.796157E-2,7.485037E-3,-5.5164736E-2,-2.9910624E-3,1.1516343E-2,-1.194103E-2,1.8386489E-2,-1.5193365E-2,4.3229674E-4,3.130969E-2,2.51988E-2,-1.9916918E-2,-1.0833093E-2,1.306086E-2,-5.4589894E-2,8.661987E-3,-3.1035934E-2,1.3793947E-2,4.3693487E-2,-5.6276224E-3,-3.474918E-2,4.6232298E-2,5.0167944E-2,1.8206408E-2,4.7334325E-2,7.4324543E-3],"categories":[],"categories_nodes":[],"categories_segments":[],"categories_sizes":[],"default_left":[0,0,0,0,0,0,0,0,0,0,0,0,0,0,0,0,0,0,0,0,0,0,0,0,0,0,0,0,0,0,0,0,0,0,0,0,0,0,0,0,0,0,0,0,0,0,0,0,0,0,0,0,0,0,0,0,0,0,0,0,0,0,0],"id":19,"left_children":[1,3,5,7,9,11,13,15,17,19,21,23,25,27,29,31,33,35,37,39,41,43,45,47,49,51,53,55,57,59,61,-1,-1,-1,-1,-1,-1,-1,-1,-1,-1,-1,-1,-1,-1,-1,-1,-1,-1,-1,-1,-1,-1,-1,-1,-1,-1,-1,-1,-1,-1,-1,-1],"loss_changes":[8.510292E1,2.6245348E1,1.1259407E1,9.573002E0,6.7711463E0,1.153978E1,5.985939E0,7.701248E0,5.8441644E0,7.972643E0,9.406176E0,7.9726906E0,6.859467E0,4.1163335E0,2.4365005E0,6.314476E0,2.9776342E0,1.5896833E0,1.1585674E0,7.358408E0,6.4959235E0,8.074974E0,6.0174346E0,6.3276215E0,7.2777796E0,3.9069805E0,5.8530574E0,6.4881177E0,4.1538887E0,4.030113E0,5.080515E0,0E0,0E0,0E0,0E0,0E0,0E0,0E0,0E0,0E0,0E0,0E0,0E0,0E0,0E0,0E0,0E0,0E0,0E0,0E0,0E0,0E0,0E0,0E0,0E0,0E0,0E0,0E0,0E0,0E0,0E0,0E0,0E0],"parents":[2147483647,0,0,1,1,2,2,3,3,4,4,5,5,6,6,7,7,8,8,9,9,10,10,11,11,12,12,13,13,14,14,15,15,16,16,17,17,18,18,19,19,20,20,21,21,22,22,23,23,24,24,25,25,26,26,27,27,28,28,29,29,30,30],"right_children":[2,4,6,8,10,12,14,16,18,20,22,24,26,28,30,32,34,36,38,40,42,44,46,48,50,52,54,56,58,60,62,-1,-1,-1,-1,-1,-1,-1,-1,-1,-1,-1,-1,-1,-1,-1,-1,-1,-1,-1,-1,-1,-1,-1,-1,-1,-1,-1,-1,-1,-1,-1,-1],"split_conditions":[4.144977E1,-9.3225716E1,1.8409457E2,3.82E-2,2.231E2,2.356E2,2.1663945E2,2.3771983E2,1.6116123E0,-2.25E0,7.4E-3,2.3E-3,2.1818378E2,-1.6645546E0,-3.6E0,2.1589037E2,-9.59519E-2,1.04E-2,-1.0022161E2,-1.98E-2,2.2805302E2,-6.46E-2,6.36E-2,6.8089156E0,1.73E-2,-1.4285715E-1,7.6529014E-1,-1.27E1,-3.5966884E-2,2.331E2,2.2140475E2,-2.9934932E-2,-1.573678E-2,5.1068354E-2,-1.1354073E-2,1.2241152E-2,-5.0781246E-2,6.796157E-2,7.485037E-3,-5.5164736E-2,-2.9910624E-3,1.1516343E-2,-1.194103E-2,1.8386489E-2,-1.5193365E-2,4.3229674E-4,3.130969E-2,2.51988E-2,-1.9916918E-2,-1.0833093E-2,1.306086E-2,-5.4589894E-2,8.661987E-3,-3.1035934E-2,1.3793947E-2,4.3693487E-2,-5.6276224E-3,-3.474918E-2,4.6232298E-2,5.0167944E-2,1.8206408E-2,4.7334325E-2,7.4324543E-3],"split_indices":[14,14,14,3,12,12,13,13,0,8,3,5,13,1,10,13,17,4,14,5,13,4,5,1,5,8,2,10,17,11,13,0,0,0,0,0,0,0,0,0,0,0,0,0,0,0,0,0,0,0,0,0,0,0,0,0,0,0,0,0,0,0,0],"split_type":[0,0,0,0,0,0,0,0,0,0,0,0,0,0,0,0,0,0,0,0,0,0,0,0,0,0,0,0,0,0,0,0,0,0,0,0,0,0,0,0,0,0,0,0,0,0,0,0,0,0,0,0,0,0,0,0,0,0,0,0,0,0,0],"sum_hessian":[1.548707E3,9.91429E2,5.572781E2,3.937731E2,5.976559E2,4.1636014E2,1.4091795E2,3.8559647E2,8.176657E0,2.6033456E2,3.3732132E2,3.6993784E2,4.642232E1,4.976564E1,9.115231E1,3.786789E2,6.9175606E0,2.4774594E0,5.699197E0,3.1801792E1,2.2853276E2,2.1673256E2,1.2058876E2,1.708485E2,1.9908932E2,1.2690352E1,3.373197E1,3.684934E1,1.2916304E1,5.8414814E1,3.2737495E1,1.141148E2,2.645641E2,4.453767E0,2.4637938E0,1.2480464E0,1.2294132E0,4.458036E0,1.2411608E0,8.611175E0,2.3190619E1,1.946144E2,3.3918373E1,1.8832636E1,1.9789993E2,1.0294771E2,1.7641054E1,1.6340268E2,7.4458213E0,3.8912163E1,1.6017717E2,9.861712E0,2.8286402E0,9.184055E0,2.4547915E1,7.5701942E0,2.9279144E1,1.0711893E0,1.1845115E1,4.3739273E1,1.4675543E1,1.2860705E1,1.9876791E1],"tree_param":{"num_deleted":"0","num_feature":"20","num_nodes":"63","size_leaf_vector":"1"}},{"base_weights":[7.088173E-3,-2.2377656E-1,2.3207493E-1,-4.010615E-1,-1.1842626E-1,1.621224E-1,5.541499E-1,-5.5035806E-1,-2.5355142E-1,-3.372703E-1,-4.5361355E-2,-5.776006E-2,2.1754366E-1,6.786507E-1,3.396602E-1,2.9779574E-1,-5.9023005E-1,2.1424173E-1,-3.784301E-1,-4.8137066E-1,1.4136173E-2,1.4986037E-1,-1.5226056E-1,-6.136184E-1,9.419006E-2,1.0112151E0,1.9978526E-1,1.4337918E-1,7.429398E-1,6.4726716E-1,-3.705819E-2,5.1120598E-2,-1.8562315E-2,-3.2880183E-2,-6.2293354E-3,-4.733554E-4,5.2083936E-2,-2.1141214E-2,3.601129E-2,-3.162631E-2,-3.5452766E-3,3.3262055E-2,-1.3919383E-2,1.4430836E-2,-2.9532513E-2,-2.123059E-2,4.7495938E-4,-2.3441825E-3,-5.6860715E-2,2.1070994E-2,-1.0823327E-2,6.0543098E-2,-1.6404346E-2,8.773646E-3,3.2004017E-2,-2.6924042E-2,2.25867E-2,-7.529352E-3,3.8322326E-2,7.759181E-3,4.68256E-2,-6.2048472E-2,5.3639556E-3],"categories":[],"categories_nodes":[],"categories_segments":[],"categories_sizes":[],"default_left":[0,0,0,0,0,0,0,0,0,0,0,0,0,0,0,0,0,0,0,0,0,0,0,0,0,0,0,0,0,0,0,0,0,0,0,0,0,0,0,0,0,0,0,0,0,0,0,0,0,0,0,0,0,0,0,0,0,0,0,0,0,0,0],"id":20,"left_children":[1,3,5,7,9,11,13,15,17,19,21,23,25,27,29,31,33,35,37,39,41,43,45,47,49,51,53,55,57,59,61,-1,-1,-1,-1,-1,-1,-1,-1,-1,-1,-1,-1,-1,-1,-1,-1,-1,-1,-1,-1,-1,-1,-1,-1,-1,-1,-1,-1,-1,-1,-1,-1],"loss_changes":[8.04339E1,1.4227455E1,1.7579102E1,6.1252747E0,7.6731668E0,7.881384E0,3.4953804E0,4.9279785E0,8.548419E0,6.093355E0,7.569842E0,1.1103768E1,7.0697765E0,2.8969574E0,6.1941004E0,3.760632E0,4.1392097E0,5.78129E0,5.902132E0,5.245718E0,7.027923E0,1.3369991E1,1.0320742E1,8.317229E0,1.0619836E1,3.3506317E0,5.3030624E0,2.4715059E0,1.7470436E0,4.0343246E0,4.4564686E0,0E0,0E0,0E0,0E0,0E0,0E0,0E0,0E0,0E0,0E0,0E0,0E0,0E0,0E0,0E0,0E0,0E0,0E0,0E0,0E0,0E0,0E0,0E0,0E0,0E0,0E0,0E0,0E0,0E0,0E0,0E0,0E0],"parents":[2147483647,0,0,1,1,2,2,3,3,4,4,5,5,6,6,7,7,8,8,9,9,10,10,11,11,12,12,13,13,14,14,15,15,16,16,17,17,18,18,19,19,20,20,21,21,22,22,23,23,24,24,25,25,26,26,27,27,28,28,29,29,30,30],"right_children":[2,4,6,8,10,12,14,16,18,20,22,24,26,28,30,32,34,36,38,40,42,44,46,48,50,52,54,56,58,60,62,-1,-1,-1,-1,-1,-1,-1,-1,-1,-1,-1,-1,-1,-1,-1,-1,-1,-1,-1,-1,-1,-1,-1,-1,-1,-1,-1,-1,-1,-1,-1,-1],"split_conditions":[-8.151232E0,-1.3515367E2,1.8409457E2,-6.304891E0,2.1504611E2,0E0,-6.666667E-1,2.0766824E2,1.467484E0,9E-1,-1.0364283E-1,-2.5E0,-6.6E0,2.174E2,2.1E0,-2.1855573E2,1E0,3.8933837E-1,4.1E0,1E0,-2.1486511E0,1E0,-3.8777888E0,-2.4343681E0,1E0,4.1277056E0,1.4385068E1,2.0775693E2,2.0631836E2,1.9E0,-2.4006179E-1,5.1120598E-2,-1.8562315E-2,-3.2880183E-2,-6.2293354E-3,-4.733554E-4,5.2083936E-2,-2.1141214E-2,3.601129E-2,-3.162631E-2,-3.5452766E-3,3.3262055E-2,-1.3919383E-2,1.4430836E-2,-2.9532513E-2,-2.123059E-2,4.7495938E-4,-2.3441825E-3,-5.6860715E-2,2.1070994E-2,-1.0823327E-2,6.0543098E-2,-1.6404346E-2,8.773646E-3,3.2004017E-2,-2.6924042E-2,2.25867E-2,-7.529352E-3,3.8322326E-2,7.759181E-3,4.68256E-2,-6.2048472E-2,5.3639556E-3],"split_indices":[14,14,14,0,13,15,8,13,1,7,17,7,7,12,7,14,16,1,8,15,0,18,0,1,18,1,2,14,13,6,0,0,0,0,0,0,0,0,0,0,0,0,0,0,0,0,0,0,0,0,0,0,0,0,0,0,0,0,0,0,0,0,0],"split_type":[0,0,0,0,0,0,0,0,0,0,0,0,0,0,0,0,0,0,0,0,0,0,0,0,0,0,0,0,0,0,0,0,0,0,0,0,0,0,0,0,0,0,0,0,0,0,0,0,0,0,0,0,0,0,0,0,0,0,0,0,0,0,0],"sum_hessian":[1.5465477E3,7.6330554E2,7.832421E2,2.834705E2,4.7983505E2,6.447172E2,1.3852492E2,1.3952489E2,1.4394562E2,1.19197784E2,3.6063727E2,1.2977924E2,5.14938E2,8.627974E1,5.2245174E1,5.9741645E0,1.3355072E2,3.0179218E1,1.13766396E2,8.427111E1,3.4926678E1,1.2746179E2,2.3317548E2,2.7208353E1,1.02570885E2,1.0045255E1,5.0489276E2,9.597882E0,7.668186E1,2.8365412E1,2.3879763E1,2.6144123E0,3.359752E0,1.163097E2,1.7241018E1,2.4534533E1,5.644686E0,1.0993915E2,3.827245E0,6.119485E1,2.307626E1,1.0432248E1,2.449443E1,1.078611E2,1.9600687E1,8.628105E1,1.4689442E2,1.3589146E1,1.3619208E1,4.977933E1,5.2791553E1,8.825549E0,1.219705E0,4.797977E2,2.5095062E1,2.7563987E0,6.841483E0,1.8270429E0,7.485481E1,1.106958E1,1.7295832E1,1.7430825E0,2.213668E1],"tree_param":{"num_deleted":"0","num_feature":"20","num_nodes":"63","size_leaf_vector":"1"}},{"base_weights":[1.0914544E-2,-2.8678402E-1,1.907168E-1,-6.518748E-1,-2.163902E-1,6.963431E-2,3.8486493E-1,-3.923623E-1,-8.9307064E-1,-8.3263284E-1,-1.9087641E-1,1.96159E-3,3.579332E-1,3.0663973E-1,6.858041E-1,-4.7005516E-1,4.2922046E-2,-1.0127689E0,-5.362585E-2,4.241283E-2,-1.0725415E0,-2.4653764E-1,1.5325046E-2,-2.1121327E-2,7.1763533E-1,6.900411E-1,2.2718173E-1,-5.379901E-2,3.2048377E-1,7.235078E-1,-3.1225292E-2,-2.8142173E-2,2.5754342E-2,1.168917E-2,-5.3369768E-2,4.9689095E-2,-3.667884E-2,-6.2227845E-2,1.4836057E-2,-1.597443E-2,-5.0967853E-3,-2.5387248E-3,5.0432663E-2,-1.6066344E-2,1.7155288E-3,-9.102499E-3,5.5358388E-2,4.111182E-2,-3.782809E-2,1.3959976E-2,-4.8949677E-2,4.543807E-2,1.4315744E-2,2.8903553E-2,5.049626E-2],"categories":[],"categories_nodes":[],"categories_segments":[],"categories_sizes":[],"default_left":[0,0,0,0,0,0,0,0,0,0,0,0,0,0,0,0,0,0,0,0,0,0,0,0,0,0,0,0,0,0,0,0,0,0,0,0,0,0,0,0,0,0,0,0,0,0,0,0,0,0,0,0,0,0,0],"id":21,"left_children":[1,3,5,7,9,11,13,15,17,19,21,23,25,27,29,31,-1,33,35,-1,37,39,41,43,45,47,49,-1,51,53,-1,-1,-1,-1,-1,-1,-1,-1,-1,-1,-1,-1,-1,-1,-1,-1,-1,-1,-1,-1,-1,-1,-1,-1,-1],"loss_changes":[8.2728905E1,1.4816223E1,2.262413E1,5.507019E0,7.535963E0,1.1601101E1,8.497154E0,4.9574494E0,4.7403564E0,8.636164E0,5.412554E0,7.9879065E0,4.751996E0,5.9987545E0,4.1818886E0,4.382064E0,0E0,3.0895462E0,5.7220974E0,0E0,4.4224377E0,3.8825645E0,6.6899867E0,7.807457E0,5.4963465E0,6.634941E0,5.455942E0,0E0,5.6338463E0,2.4925957E0,0E0,0E0,0E0,0E0,0E0,0E0,0E0,0E0,0E0,0E0,0E0,0E0,0E0,0E0,0E0,0E0,0E0,0E0,0E0,0E0,0E0,0E0,0E0,0E0,0E0],"parents":[2147483647,0,0,1,1,2,2,3,3,4,4,5,5,6,6,7,7,8,8,9,9,10,10,11,11,12,12,13,13,14,14,15,15,17,17,18,18,20,20,21,21,22,22,23,23,24,24,25,25,26,26,28,28,29,29],"right_children":[2,4,6,8,10,12,14,16,18,20,22,24,26,28,30,32,-1,34,36,-1,38,40,42,44,46,48,50,-1,52,54,-1,-1,-1,-1,-1,-1,-1,-1,-1,-1,-1,-1,-1,-1,-1,-1,-1,-1,-1,-1,-1,-1,-1,-1,-1],"split_conditions":[-4.5642265E1,-2.2781334E2,8.968773E1,6.2E0,-1E0,1E0,2.3037122E2,5.9E0,-1.4527097E0,-5E0,1E0,2E0,-3.5160174E0,-8.651536E0,3.9764E0,-2.7895525E0,4.2922046E-2,-9.8E0,-3.5E-3,4.241283E-2,1.21E1,2.291E2,4.1E0,-3.4E0,-6.9126554E0,3.452381E0,3E0,-5.379901E-2,-8.2674645E-2,-2.5399165E0,-3.1225292E-2,-2.8142173E-2,2.5754342E-2,1.168917E-2,-5.3369768E-2,4.9689095E-2,-3.667884E-2,-6.2227845E-2,1.4836057E-2,-1.597443E-2,-5.0967853E-3,-2.5387248E-3,5.0432663E-2,-1.6066344E-2,1.7155288E-3,-9.102499E-3,5.5358388E-2,4.111182E-2,-3.782809E-2,1.3959976E-2,-4.8949677E-2,4.543807E-2,1.4315744E-2,2.8903553E-2,5.049626E-2],"split_indices":[14,14,14,10,15,19,14,10,0,7,19,15,1,0,1,0,0,6,3,0,10,11,8,7,14,8,15,0,17,1,0,0,0,0,0,0,0,0,0,0,0,0,0,0,0,0,0,0,0,0,0,0,0,0,0],"split_type":[0,0,0,0,0,0,0,0,0,0,0,0,0,0,0,0,0,0,0,0,0,0,0,0,0,0,0,0,0,0,0,0,0,0,0,0,0,0,0,0,0,0,0,0,0,0,0,0,0,0,0,0,0,0,0],"sum_hessian":[1.5435365E3,5.8099243E2,9.62544E2,9.257914E1,4.884133E2,5.936603E2,3.6888376E2,4.5861553E1,4.6717587E1,1.8159782E1,4.702535E2,4.8161667E2,1.1204362E2,2.9438196E2,7.4501785E1,4.3767178E1,2.094374E0,4.070666E1,6.0109262E0,1.9514498E0,1.6208332E1,3.7014294E2,1.0011057E2,4.6750842E2,1.4108252E1,3.0442457E1,8.1601166E1,2.157809E0,2.9222415E2,7.2853294E1,1.6484926E0,4.0391464E1,3.3757129E0,1.5712689E0,3.913539E1,2.1844358E0,3.8264906E0,1.4480301E1,1.7280319E0,2.4522086E2,1.2492209E2,9.475418E1,5.356391E0,7.212116E1,3.9538727E2,4.423693E0,9.684559E0,2.828893E1,2.1535254E0,7.896426E1,2.6369045E0,1.4636409E1,2.7758774E2,5.0320084E1,2.2533209E1],"tree_param":{"num_deleted":"0","num_feature":"20","num_nodes":"55","size_leaf_vector":"1"}},{"base_weights":[5.3273872E-3,-1.457889E-1,3.2873175E-1,-4.444291E-1,-9.232647E-2,2.4822477E-1,5.807936E-1,-5.433335E-1,-9.442356E-2,-4.815779E-2,-3.4954306E-1,4.069927E-1,1.3872238E-1,6.028614E-1,-3.312335E-2,-7.419181E-1,-2.3204279E-1,1.5018703E-1,-5.7539976E-1,-1.4225689E-1,1.093988E-1,-2.3622876E-2,-5.241587E-1,-6.661876E-1,4.4294038E-1,-1.1767512E-1,2.4337216E-1,1.8216002E-1,6.8692255E-1,-3.284183E-3,-4.1577633E-2,-3.815633E-3,-5.2549936E-2,-1.3736828E-2,3.3350658E-2,-4.431873E-2,9.411502E-3,2.4778E-2,-8.379831E-3,-5.1778384E-2,6.9205086E-3,2.7740437E-3,-7.392341E-2,-9.515768E-3,-3.4951102E-2,-4.9543004E-2,6.608455E-3,-2.7731245E-2,2.3874877E-2,2.0026976E-2,-1.5745468E-2,3.308827E-2,7.642803E-3,1.6878229E-2,-5.0580896E-2,4.9220677E-2,2.8378278E-2],"categories":[],"categories_nodes":[],"categories_segments":[],"categories_sizes":[],"default_left":[0,0,0,0,0,0,0,0,0,0,0,0,0,0,0,0,0,0,0,0,0,0,0,0,0,0,0,0,0,0,0,0,0,0,0,0,0,0,0,0,0,0,0,0,0,0,0,0,0,0,0,0,0,0,0,0,0],"id":22,"left_children":[1,3,5,7,9,11,13,15,17,19,21,23,25,27,-1,29,31,33,35,37,39,41,43,45,47,49,51,53,55,-1,-1,-1,-1,-1,-1,-1,-1,-1,-1,-1,-1,-1,-1,-1,-1,-1,-1,-1,-1,-1,-1,-1,-1,-1,-1,-1,-1],"loss_changes":[7.511212E1,1.668337E1,9.788029E0,5.4454613E0,1.0091111E1,6.4232635E0,3.6296005E0,7.468052E0,4.344782E0,1.1290422E1,7.3990774E0,6.1441364E0,5.9878526E0,3.9844856E0,0E0,4.491516E0,6.244527E0,5.6264715E0,3.1135926E0,7.785227E0,9.607692E0,5.43097E0,4.814455E0,1.5081961E0,5.342764E0,6.7746854E0,5.8842497E0,4.184229E0,2.8675346E0,0E0,0E0,0E0,0E0,0E0,0E0,0E0,0E0,0E0,0E0,0E0,0E0,0E0,0E0,0E0,0E0,0E0,0E0,0E0,0E0,0E0,0E0,0E0,0E0,0E0,0E0,0E0,0E0],"parents":[2147483647,0,0,1,1,2,2,3,3,4,4,5,5,6,6,7,7,8,8,9,9,10,10,11,11,12,12,13,13,15,15,16,16,17,17,18,18,19,19,20,20,21,21,22,22,23,23,24,24,25,25,26,26,27,27,28,28],"right_children":[2,4,6,8,10,12,14,16,18,20,22,24,26,28,-1,30,32,34,36,38,40,42,44,46,48,50,52,54,56,-1,-1,-1,-1,-1,-1,-1,-1,-1,-1,-1,-1,-1,-1,-1,-1,-1,-1,-1,-1,-1,-1,-1,-1,-1,-1,-1,-1],"split_conditions":[5.4702175E1,-1.8977905E2,1.1661751E1,1E0,1E0,1E-4,2.3771983E2,-3E-1,5E-1,3.2E-3,-1.2E0,-5.6E-2,-8E-1,2.1217844E2,-3.312335E-2,-1.3E0,-2.0203044E2,-2.3214313E2,-1.8645713E0,-7.1E0,-4.6E0,4.868888E1,-1.62E-2,-2.1E0,2.0553775E2,-3.1E0,-3.5E0,2.117771E2,1.68E-2,-3.284183E-3,-4.1577633E-2,-3.815633E-3,-5.2549936E-2,-1.3736828E-2,3.3350658E-2,-4.431873E-2,9.411502E-3,2.4778E-2,-8.379831E-3,-5.1778384E-2,6.9205086E-3,2.7740437E-3,-7.392341E-2,-9.515768E-3,-3.4951102E-2,-4.9543004E-2,6.608455E-3,-2.7731245E-2,2.3874877E-2,2.0026976E-2,-1.5745468E-2,3.308827E-2,7.642803E-3,1.6878229E-2,-5.0580896E-2,4.9220677E-2,2.8378278E-2],"split_indices":[14,14,2,19,18,4,13,6,7,3,10,3,7,13,0,8,14,14,0,7,7,14,4,7,13,9,6,13,4,0,0,0,0,0,0,0,0,0,0,0,0,0,0,0,0,0,0,0,0,0,0,0,0,0,0,0,0],"split_type":[0,0,0,0,0,0,0,0,0,0,0,0,0,0,0,0,0,0,0,0,0,0,0,0,0,0,0,0,0,0,0,0,0,0,0,0,0,0,0,0,0,0,0,0,0,0,0,0,0,0,0,0,0,0,0,0,0],"sum_hessian":[1.5349452E3,1.0464994E3,4.8844574E2,1.577876E2,8.8871185E2,3.7170898E2,1.1673676E2,1.2259298E2,3.519462E1,7.5948236E2,1.2922946E2,1.5061497E2,2.21094E2,1.1520695E2,1.5298183E0,7.400129E1,4.8591694E1,2.3785662E1,1.1408956E1,4.755575E2,2.8392487E2,4.5478714E1,8.375075E1,4.313317E0,1.4630167E2,6.4048164E1,1.5704584E2,1.9713528E1,9.549342E1,8.863648E0,6.5137634E1,4.1746494E1,6.8452015E0,1.3310479E1,1.0475183E1,7.9931474E0,3.415808E0,1.7462355E1,4.5809515E2,6.158967E0,2.777659E2,4.4045696E1,1.4330151E0,2.9506418E1,5.424433E1,2.8949046E0,1.4184123E0,4.3945365E0,1.4190712E2,1.737257E1,4.667559E1,2.6810135E1,1.302357E2,1.8077456E1,1.6360708E0,2.526761E1,7.022581E1],"tree_param":{"num_deleted":"0","num_feature":"20","num_nodes":"57","size_leaf_vector":"1"}},{"base_weights":[-1.6747456E-2,-3.567261E-1,1.1388667E-1,-7.0070654E-1,-2.9905427E-1,2.9336575E-2,3.3073804E-1,-2.4274436E-1,-8.554561E-1,-3.2344753E-1,3.7660247E-1,8.1067935E-2,-2.806889E-1,2.5727686E-1,5.8026654E-1,1.0089005E0,-5.927729E-1,-5.153817E-1,-1.0943005E0,-1.9152354E-1,-4.417062E-1,-3.8223666E-1,8.7031865E-1,2.299621E-1,-7.823606E-3,-7.839897E-1,-1.6122419E-1,3.294742E-1,-8.138153E-2,5.8460142E-2,5.027978E-1,9.008092E-3,7.414254E-2,-4.8618373E-2,2.6211623E-2,-3.5907872E-2,6.9081E-3,5.7779974E-3,-5.775041E-2,-1.858848E-2,5.3526964E-3,-3.4943625E-2,-1.4412679E-2,2.8869247E-2,-5.0245505E-2,6.788466E-2,2.8890616E-3,8.390668E-3,3.3447117E-2,-5.6481385E-3,7.898179E-3,-5.593927E-2,-6.2579016E-4,2.1361018E-2,-1.4589545E-2,9.024861E-3,2.675499E-2,5.2220984E-3,-4.2142626E-2,-2.2508262E-3,3.3382695E-2],"categories":[],"categories_nodes":[],"categories_segments":[],"categories_sizes":[],"default_left":[0,0,0,0,0,0,0,0,0,0,0,0,0,0,0,0,0,0,0,0,0,0,0,0,0,0,0,0,0,0,0,0,0,0,0,0,0,0,0,0,0,0,0,0,0,0,0,0,0,0,0,0,0,0,0,0,0,0,0,0,0],"id":23,"left_children":[1,3,5,7,9,11,13,15,17,19,21,23,25,27,29,31,33,35,37,39,41,43,45,47,49,51,53,55,57,-1,59,-1,-1,-1,-1,-1,-1,-1,-1,-1,-1,-1,-1,-1,-1,-1,-1,-1,-1,-1,-1,-1,-1,-1,-1,-1,-1,-1,-1,-1,-1],"loss_changes":[6.887629E1,8.330101E0,2.053327E1,4.1199894E0,6.2266197E0,1.2969064E1,5.610405E0,7.9666796E0,3.1111145E0,5.501175E0,5.341301E0,9.16823E0,6.82771E0,6.005945E0,2.6362934E0,1.3219309E0,6.3497734E0,2.823542E0,2.0202427E0,9.242856E0,7.2187653E0,4.1441174E0,3.2497835E0,6.9520454E0,7.593792E0,5.649605E0,7.4028797E0,6.084299E0,6.2820253E0,0E0,5.828663E0,0E0,0E0,0E0,0E0,0E0,0E0,0E0,0E0,0E0,0E0,0E0,0E0,0E0,0E0,0E0,0E0,0E0,0E0,0E0,0E0,0E0,0E0,0E0,0E0,0E0,0E0,0E0,0E0,0E0,0E0],"parents":[2147483647,0,0,1,1,2,2,3,3,4,4,5,5,6,6,7,7,8,8,9,9,10,10,11,11,12,12,13,13,14,14,15,15,16,16,17,17,18,18,19,19,20,20,21,21,22,22,23,23,24,24,25,25,26,26,27,27,28,28,30,30],"right_children":[2,4,6,8,10,12,14,16,18,20,22,24,26,28,30,32,34,36,38,40,42,44,46,48,50,52,54,56,58,-1,60,-1,-1,-1,-1,-1,-1,-1,-1,-1,-1,-1,-1,-1,-1,-1,-1,-1,-1,-1,-1,-1,-1,-1,-1,-1,-1,-1,-1,-1,-1],"split_conditions":[-8.764577E1,-2.602119E2,1.0425433E2,2.1644325E2,5.046714E0,1E0,2.3037122E2,1.2518486E0,-1.9146742E-1,-2.26E-2,7.9E0,2.219E2,2.165E2,2.333E2,2.144E2,-7.9680686E0,2.1356187E2,1E0,2.166E2,-6.304891E0,2.1711786E2,5.711299E0,-1.11221865E-1,4.4E0,7.4E-3,3.107327E0,2.209E2,1.9E0,2.0931809E-1,5.8460142E-2,2.1653299E2,9.008092E-3,7.414254E-2,-4.8618373E-2,2.6211623E-2,-3.5907872E-2,6.9081E-3,5.7779974E-3,-5.775041E-2,-1.858848E-2,5.3526964E-3,-3.4943625E-2,-1.4412679E-2,2.8869247E-2,-5.0245505E-2,6.788466E-2,2.8890616E-3,8.390668E-3,3.3447117E-2,-5.6481385E-3,7.898179E-3,-5.593927E-2,-6.2579016E-4,2.1361018E-2,-1.4589545E-2,9.024861E-3,2.675499E-2,5.2220984E-3,-4.2142626E-2,-2.2508262E-3,3.3382695E-2],"split_indices":[14,14,14,13,0,18,14,1,17,4,10,12,12,11,11,2,13,15,11,0,13,0,17,6,3,1,12,6,17,0,13,0,0,0,0,0,0,0,0,0,0,0,0,0,0,0,0,0,0,0,0,0,0,0,0,0,0,0,0,0,0],"split_type":[0,0,0,0,0,0,0,0,0,0,0,0,0,0,0,0,0,0,0,0,0,0,0,0,0,0,0,0,0,0,0,0,0,0,0,0,0,0,0,0,0,0,0,0,0,0,0,0,0,0,0,0,0,0,0,0,0,0,0,0,0],"sum_hessian":[1.5489056E3,4.294695E2,1.119436E3,6.0065033E1,3.6940448E2,8.0622516E2,3.1321097E2,1.5819077E1,4.4245956E1,3.570357E2,1.2368791E1,6.9156757E2,1.1465759E2,2.4354297E2,6.9667984E1,3.045725E0,1.2773352E1,1.955736E1,2.4688597E1,1.7000517E2,1.8703053E2,4.964373E0,7.4044175E0,2.5793576E2,4.336318E2,2.0927639E1,9.372995E1,2.007689E2,4.277407E1,6.4605722E0,6.320741E1,1.6102343E0,1.4354908E0,9.63019E0,3.1431623E0,1.4850737E1,4.706622E0,1.1364489E0,2.3552149E1,1.0585637E2,6.4148796E1,6.856699E1,1.1846354E2,1.9822292E0,2.9821436E0,4.208909E0,3.1955087E0,2.2715808E2,3.077768E1,2.6554602E2,1.6808575E2,1.4280257E1,6.647381E0,1.6608027E1,7.7121925E1,1.1750999E2,8.325891E1,3.5076996E1,7.697077E0,1.4789398E1,4.841801E1],"tree_param":{"num_deleted":"0","num_feature":"20","num_nodes":"61","size_leaf_vector":"1"}},{"base_weights":[4.9419403E-3,-1.4031634E-1,2.0401594E-1,-2.8615057E-1,-4.014744E-2,1.4715913E-1,5.541784E-1,1.0394091E-1,-3.2941923E-1,-1.0713953E-2,-6.135499E-1,5.1365334E-1,9.84819E-2,-3.507262E-1,6.378303E-1,-3.5941088E-1,6.183054E-1,-2.8742018E-1,-7.87821E-1,-1.5321426E-1,9.597657E-2,-9.866681E-1,8.183909E-2,5.7095045E-1,-4.14703E-2,2.8055875E-2,3.651312E-1,9.405719E-2,-5.5810954E-2,8.1025124E-1,3.3899313E-1,-3.6037795E-2,2.9946495E-2,4.6008047E-2,-1.8263487E-2,3.6615767E-2,-1.5308221E-2,6.035167E-4,-5.382946E-2,-1.4025261E-2,9.210083E-3,-2.2630855E-2,6.613407E-3,-5.7699192E-2,3.1234076E-2,-5.9260275E-2,2.2426238E-2,2.37729E-2,6.2230986E-2,3.0014215E-3,-4.6634115E-2,3.572713E-2,1.206668E-3,4.1406587E-2,-2.7899522E-2,-1.7736467E-2,4.45423E-2,5.2643087E-2,6.902551E-3],"categories":[],"categories_nodes":[],"categories_segments":[],"categories_sizes":[],"default_left":[0,0,0,0,0,0,0,0,0,0,0,0,0,0,0,0,0,0,0,0,0,0,0,0,0,0,0,0,0,0,0,0,0,0,0,0,0,0,0,0,0,0,0,0,0,0,0,0,0,0,0,0,0,0,0,0,0,0,0],"id":24,"left_children":[1,3,5,7,9,11,13,15,17,19,21,23,25,27,29,31,33,35,37,39,41,43,45,47,-1,49,51,53,-1,55,57,-1,-1,-1,-1,-1,-1,-1,-1,-1,-1,-1,-1,-1,-1,-1,-1,-1,-1,-1,-1,-1,-1,-1,-1,-1,-1,-1,-1],"loss_changes":[4.423014E1,1.2906708E1,1.2764545E1,6.1092186E0,8.860744E0,9.876702E0,7.0191727E0,8.968079E0,6.0156555E0,7.6280694E0,6.732052E0,5.475992E0,9.237664E0,2.9111242E0,3.977768E0,7.3359685E0,5.60852E0,5.9314117E0,6.1659107E0,9.276773E0,5.773426E0,5.239418E0,5.119601E0,3.457096E0,0E0,1.2055719E1,1.2232112E1,3.398684E0,0E0,5.1622353E0,4.4327383E0,0E0,0E0,0E0,0E0,0E0,0E0,0E0,0E0,0E0,0E0,0E0,0E0,0E0,0E0,0E0,0E0,0E0,0E0,0E0,0E0,0E0,0E0,0E0,0E0,0E0,0E0,0E0,0E0],"parents":[2147483647,0,0,1,1,2,2,3,3,4,4,5,5,6,6,7,7,8,8,9,9,10,10,11,11,12,12,13,13,14,14,15,15,16,16,17,17,18,18,19,19,20,20,21,21,22,22,23,23,25,25,26,26,27,27,29,29,30,30],"right_children":[2,4,6,8,10,12,14,16,18,20,22,24,26,28,30,32,34,36,38,40,42,44,46,48,-1,50,52,54,-1,56,58,-1,-1,-1,-1,-1,-1,-1,-1,-1,-1,-1,-1,-1,-1,-1,-1,-1,-1,-1,-1,-1,-1,-1,-1,-1,-1,-1,-1],"split_conditions":[1.0858948E0,-4.966479E0,4.6E0,-6.1E0,2.397E2,-2.7296295E0,3.2505056E-1,-2E0,2.371E2,-1.11E-2,1.1E0,8E0,1.1661751E1,-1.1566263E0,5.714286E-1,-4.28E-2,-6.378797E0,-1.342E-1,-1.1015942E1,1E0,-1.1518342E1,3.1E0,2.1810445E2,-2E-1,-4.14703E-2,4.1E0,2.94E-2,-8E-4,-5.5810954E-2,-4.8E0,2.942489E0,-3.6037795E-2,2.9946495E-2,4.6008047E-2,-1.8263487E-2,3.6615767E-2,-1.5308221E-2,6.035167E-4,-5.382946E-2,-1.4025261E-2,9.210083E-3,-2.2630855E-2,6.613407E-3,-5.7699192E-2,3.1234076E-2,-5.9260275E-2,2.2426238E-2,2.37729E-2,6.2230986E-2,3.0014215E-3,-4.6634115E-2,3.572713E-2,1.206668E-3,4.1406587E-2,-2.7899522E-2,-1.7736467E-2,4.45423E-2,5.2643087E-2,6.902551E-3],"split_indices":[2,0,7,7,12,0,0,16,12,5,8,16,2,0,8,3,0,5,0,15,2,6,13,9,0,7,3,4,0,6,0,0,0,0,0,0,0,0,0,0,0,0,0,0,0,0,0,0,0,0,0,0,0,0,0,0,0,0,0],"split_type":[0,0,0,0,0,0,0,0,0,0,0,0,0,0,0,0,0,0,0,0,0,0,0,0,0,0,0,0,0,0,0,0,0,0,0,0,0,0,0,0,0,0,0,0,0,0,0,0,0,0,0,0,0,0,0,0,0,0,0],"sum_hessian":[1.5275571E3,8.8332025E2,6.442369E2,3.5891913E2,5.244011E2,5.5546484E2,8.877204E1,3.5696136E1,3.23223E2,4.9976614E2,2.4634954E1,6.400612E1,4.9145874E2,7.2417426E0,8.15303E1,1.8937782E1,1.6758352E1,2.9758505E2,2.5637932E1,2.1378711E2,2.8597906E2,1.5759929E1,8.875026E0,6.1938606E1,2.067514E0,3.8965128E2,1.0180745E2,5.13514E0,2.1066027E0,5.0615295E1,3.0915E1,1.3932434E1,5.0053487E0,1.287235E1,3.8860033E0,4.6841884E0,2.9290088E2,7.054654E0,1.8583277E1,1.5534973E2,5.843738E1,1.7032919E1,2.6894614E2,1.4534562E1,1.2253668E0,1.490959E0,7.384067E0,5.5742847E1,6.195758E0,3.7800897E2,1.1642301E1,4.9742348E1,5.2065105E1,2.2885945E0,2.8465455E0,3.0549676E0,4.756033E1,5.859361E0,2.505564E1],"tree_param":{"num_deleted":"0","num_feature":"20","num_nodes":"59","size_leaf_vector":"1"}},{"base_weights":[-1.1386348E-2,-2.8994384E-1,1.4602567E-1,-4.1705963E-1,-1.5050322E-1,9.787818E-2,4.659294E-1,-3.818199E-1,-1.0495127E0,-9.8032576E-1,-1.1345266E-1,4.884104E-2,3.1636846E-1,4.9014995E-1,-6.224204E-1,-4.0104616E-1,5.447599E-1,-6.40516E-1,-7.559781E-2,-1.2653382E0,2.7072221E-2,-2.7828258E-1,6.938227E-3,2.7842406E-2,5.691951E-1,2.4655652E-1,7.9262275E-1,6.3280606E-1,2.8564602E-1,-6.3697E-2,1.2697619E-2,-4.627105E-2,-1.8376626E-2,-3.451274E-2,6.287821E-2,-6.286919E-2,-3.6406533E-3,1.1945846E-2,-7.57357E-2,-1.9881517E-2,9.71313E-3,1.6285412E-2,-8.439365E-3,2.3003274E-3,-2.128542E-2,-2.6382405E-2,3.5796326E-2,2.045556E-2,2.958797E-3,4.7297556E-2,5.401276E-3,2.664691E-3,3.5644945E-2,-4.856835E-2,2.0168295E-2],"categories":[],"categories_nodes":[],"categories_segments":[],"categories_sizes":[],"default_left":[0,0,0,0,0,0,0,0,0,0,0,0,0,0,0,0,0,0,0,0,0,0,0,0,0,0,0,0,0,0,0,0,0,0,0,0,0,0,0,0,0,0,0,0,0,0,0,0,0,0,0,0,0,0,0],"id":25,"left_children":[1,3,5,7,9,11,13,15,17,19,21,23,25,27,29,31,33,35,-1,37,-1,39,41,43,45,47,49,51,53,-1,-1,-1,-1,-1,-1,-1,-1,-1,-1,-1,-1,-1,-1,-1,-1,-1,-1,-1,-1,-1,-1,-1,-1,-1,-1],"loss_changes":[6.715086E1,9.737965E0,1.5026432E1,6.033291E0,8.043888E0,9.110816E0,3.6724682E0,5.1178436E0,1.8051548E0,5.5453663E0,5.062962E0,7.598406E0,4.989625E0,3.481207E0,2.1629329E0,4.40485E0,6.162818E0,3.2412372E0,0E0,4.0148087E0,0E0,6.1498814E0,8.365758E0,5.54644E0,4.7197437E0,4.16288E0,1.9432116E0,3.3558388E0,8.294146E0,0E0,0E0,0E0,0E0,0E0,0E0,0E0,0E0,0E0,0E0,0E0,0E0,0E0,0E0,0E0,0E0,0E0,0E0,0E0,0E0,0E0,0E0,0E0,0E0,0E0,0E0],"parents":[2147483647,0,0,1,1,2,2,3,3,4,4,5,5,6,6,7,7,8,8,9,9,10,10,11,11,12,12,13,13,14,14,15,15,16,16,17,17,19,19,21,21,22,22,23,23,24,24,25,25,26,26,27,27,28,28],"right_children":[2,4,6,8,10,12,14,16,18,20,22,24,26,28,30,32,34,36,-1,38,-1,40,42,44,46,48,50,52,54,-1,-1,-1,-1,-1,-1,-1,-1,-1,-1,-1,-1,-1,-1,-1,-1,-1,-1,-1,-1,-1,-1,-1,-1,-1,-1],"split_conditions":[-5.3007378E1,-4.1964E0,1.8409457E2,